{"pga_max": 0.6600000262260437, "n_freq": 4, "layers": [{"w": [[-0.17056840658187866, 0.0993870198726654, 0.18733398616313934, -0.07248131185770035, -0.0842541977763176, -0.09550920128822327, -0.018506938591599464, 0.07619617879390717, 0.07146264612674713, -0.2618202269077301, -0.03506087139248848, 0.10390350222587585, 0.26995739340782166, 0.006832610350102186, -0.04814350605010986, 0.05392393469810486, -0.06804027408361435, -0.18825788795948029, 0.33743852376937866, 0.11729897558689117, 0.17341265082359314, -0.17442311346530914, -0.014612732455134392, 0.11610935628414154, 0.3060063421726227, 0.12153206765651703, -0.06381344795227051, -0.09845200926065445], [0.12662789225578308, -0.06099562346935272, 0.09146302193403244, 0.2348930984735489, -0.14610789716243744, 0.01867397129535675, 0.09835834056138992, 0.010682323016226292, 0.05882888659834862, 0.18656985461711884, -0.10790190100669861, 0.040714725852012634, -0.16898579895496368, -0.00923430547118187, -0.06986147165298462, -0.03248347342014313, 0.12849801778793335, 0.135420024394989, -0.11340248584747314, -0.07183004170656204, -0.0007309045759029686, 0.05669144541025162, 0.2935292720794678, 0.008436535485088825, -0.008825618773698807, -0.10959269851446152, -0.09472943097352982, 0.16773538291454315], [-0.45919474959373474, 0.09212953597307205, 0.04885682836174965, -0.015010650269687176, 0.11399956047534943, -0.09337168186903, -0.2585546374320984, -0.06397747248411179, -0.1479574590921402, 0.059977319091558456, 0.12001048028469086, -0.05408972501754761, -0.12124694883823395, -0.1694766879081726, -0.04936457425355911, 0.05323256552219391, -0.13497067987918854, -0.12507352232933044, 0.061059627681970596, 0.11720316857099533, 0.021563643589615822, -0.03410755842924118, 0.02064281888306141, -0.06854230165481567, -0.007991865277290344, -0.03651129826903343, -0.07575716078281403, 0.10211604088544846], [0.04435275122523308, -0.08230975270271301, 0.010888143442571163, 0.12014643847942352, -0.004928039852529764, -0.1402401477098465, 0.02643345668911934, 0.24005566537380219, 0.09111254662275314, -0.10077697783708572, 0.02675689570605755, -0.0024158479645848274, -0.04006998613476753, 0.0918610468506813, -0.08371405303478241, -0.04744608700275421, -0.038757096976041794, 0.02959156408905983, 0.29468202590942383, 0.02439033053815365, 0.046363119035959244, 0.011775430291891098, 0.09099538624286652, -0.04653174802660942, 0.35670578479766846, -0.17739726603031158, -0.03565879538655281, 0.1508888453245163], [0.1481843739748001, -0.29822447896003723, -0.025659900158643723, 0.34335777163505554, -0.12385625392198563, -0.008162889629602432, -0.10752036422491074, 0.04432658851146698, -0.05246857926249504, -0.18760477006435394, 0.12157099694013596, -0.11026130616664886, 0.2065681368112564, 0.15691451728343964, -0.039833713322877884, -0.21021750569343567, 0.025845950469374657, -0.06227723881602287, 0.17394787073135376, -0.1483863890171051, -0.028717033565044403, -0.3078395426273346, -0.021038997918367386, -0.02948467992246151, 0.30140554904937744, 0.12537986040115356, 0.07352446764707565, 0.22188541293144226], [-0.17605306208133698, 0.1045183464884758, 0.20322205126285553, -0.06256227195262909, -0.1799667924642563, 0.09504655748605728, -0.21239329874515533, -0.09507295489311218, 0.005633711814880371, 0.11787858605384827, 0.13815590739250183, 0.0867917537689209, 0.055946655571460724, 0.12180396914482117, 0.021156450733542442, 0.0597350038588047, -0.026428688317537308, -0.06847786158323288, 0.1700865775346756, 0.17843112349510193, -0.0859978049993515, -0.05592963844537735, -0.2776043117046356, 0.10533688217401505, -0.359831303358078, -0.06596673280000687, -0.09722187370061874, -0.0143813481554389], [0.25052180886268616, 0.03877152502536774, 0.10807046294212341, 0.16099236905574799, -0.3089572787284851, 0.0010189202148467302, -0.03324657678604126, 0.038821227848529816, 0.04058557748794556, 0.0793955847620964, 0.05460018664598465, 0.13837610185146332, -0.07419021427631378, 0.11308374255895615, 0.05348455160856247, -0.21762561798095703, 0.1677892953157425, 0.17584747076034546, 0.25321072340011597, 0.1366570144891739, -0.08943011611700058, 0.06606827676296234, -0.13410936295986176, -0.028386028483510017, 0.2012593001127243, -0.11578307300806046, -0.10918428003787994, 0.02025286667048931], [0.2410019487142563, -0.1943981647491455, 0.10294679552316666, -0.03629757836461067, 0.039921339601278305, -0.01429249532520771, -0.17279280722141266, -0.06651989370584488, 0.1279250681400299, 0.25088340044021606, 0.15478159487247467, 0.0608472004532814, 0.003194415243342519, -0.02265741303563118, 0.04955442249774933, -0.14291538298130035, 0.12097865343093872, -0.01548937801271677, 0.20904095470905304, 0.11195613443851471, -0.10881713777780533, -0.07838339358568192, -0.047237854450941086, 0.05260663107037544, 0.16866910457611084, 0.055568207055330276, 0.1328725665807724, -0.14909155666828156], [-0.24529658257961273, 0.017243392765522003, 0.14402543008327484, 0.2660117745399475, -0.07364514470100403, 0.10078670084476471, -0.15477006137371063, 0.18197429180145264, -0.12376274168491364, 0.0026559990365058184, 0.05544612184166908, 0.05438796058297157, 0.0452234223484993, -0.13289834558963776, -0.02580873854458332, -0.046088628470897675, -0.08650733530521393, 0.06823735684156418, 0.062476545572280884, -0.10011344403028488, -0.07934916019439697, -0.17889651656150818, -0.11287856101989746, 0.04754910245537758, -0.15163004398345947, 0.11982418596744537, -0.09290903061628342, 0.24882279336452484], [0.190219447016716, -0.10712804645299911, -0.1327892690896988, 0.09128186106681824, -0.04405567795038223, 0.04394468665122986, 0.12293749302625656, -0.05769592523574829, 0.01051258109509945, -0.09587201476097107, 0.023864157497882843, 0.0028601638041436672, 0.12522965669631958, 0.012811564840376377, 0.09107432514429092, -0.10585007071495056, 0.17195220291614532, 0.12768973410129547, -0.12988394498825073, -0.11289439350366592, -0.03346316143870354, -0.13201019167900085, 0.2503663897514343, 0.03973881155252457, 0.07496146112680435, 0.01395072229206562, 0.08102039247751236, -0.019444836303591728], [-0.018783899024128914, 0.09724169224500656, -0.043361831456422806, 0.05679360404610634, -0.022639036178588867, -0.034186262637376785, -0.22661258280277252, 0.0876404419541359, 0.055958062410354614, 0.16770736873149872, -0.20843487977981567, 0.012597649358212948, 0.012050367891788483, -0.016284922137856483, 0.020574085414409637, 0.05854558199644089, 0.054066069424152374, 0.1810159832239151, -0.17966194450855255, 0.0830780416727066, -0.13344517350196838, -0.2048148214817047, -0.23681935667991638, -0.036358028650283813, -0.3784905970096588, 0.280266672372818, 0.1221955344080925, -0.006179639138281345], [-0.36636537313461304, -0.27692103385925293, -0.04138955846428871, 0.23454158008098602, -0.08126358687877655, 0.057302169501781464, 0.31734251976013184, 0.12771038711071014, 0.1250850260257721, -0.02391890063881874, -0.09660615772008896, -0.013877217657864094, 0.1492815762758255, 0.009034913964569569, -0.0003731785691343248, 0.14215362071990967, 0.12112752348184586, -0.02020398899912834, -0.061379265040159225, 0.26089203357696533, 0.05311054736375809, -0.057207152247428894, -0.03450477123260498, 0.12543606758117676, 0.03000178374350071, -0.17684316635131836, 0.12446427345275879, -0.06766334176063538], [0.15513254702091217, -0.23791389167308807, -0.18619346618652344, 0.02556786499917507, -0.18141022324562073, -0.05769505351781845, 0.14749865233898163, 0.19833879172801971, 0.08946267515420914, -0.05574418976902962, 0.15736792981624603, 0.0039400276727974415, 0.10281679034233093, 0.028986630961298943, -0.03557273745536804, -0.20702654123306274, -0.10922984033823013, 0.22138787806034088, -0.003808527020737529, -0.05713949725031853, 0.10660696029663086, -0.2770259380340576, -0.1060795933008194, -0.012353206984698772, 0.06354750692844391, 0.19338136911392212, -0.015765903517603874, -0.20575174689292908], [-0.29733631014823914, 0.14168834686279297, -0.13311220705509186, -0.11185034364461899, -0.1330217570066452, 0.0923968181014061, 0.09479975700378418, -0.1745283454656601, 0.09921666234731674, 0.14258114993572235, 0.07044420391321182, -0.07975784689188004, 0.09682686626911163, -0.009691772982478142, -0.047502871602773666, 0.024772442877292633, 0.1633591502904892, 0.014413381926715374, -0.014734826982021332, 0.03482382744550705, 0.00022060924675315619, -0.09850358217954636, 0.23819391429424286, 0.08723817020654678, 0.01853734254837036, 0.2175949215888977, 0.09793161600828171, -0.018510282039642334], [-0.5034871101379395, -0.2087308168411255, -0.12197239696979523, 0.22736521065235138, -0.16685576736927032, -0.08463838696479797, 0.01404508575797081, 0.13408800959587097, -0.09655158221721649, -0.11540374159812927, 0.055697403848171234, 0.05611692741513252, -0.09422004222869873, 0.04655272513628006, -0.015745406970381737, -0.19018341600894928, 0.027350012212991714, -0.23309284448623657, -0.17808985710144043, 0.042965278029441833, 0.14960545301437378, -0.10771071910858154, 0.005096538923680782, -0.076539047062397, -0.154921755194664, -0.016668688505887985, -0.09090939909219742, 0.05667940154671669], [-0.4433925151824951, -0.21059685945510864, -0.09741858392953873, 0.2805023193359375, 0.023365093395113945, 0.10465488582849503, 0.13304351270198822, -0.12331254780292511, -0.12040482461452484, 0.005641904193907976, 0.08873317390680313, -0.02996130846440792, -0.20513968169689178, 0.16764424741268158, 0.09130658954381943, -0.15503700077533722, -0.019616244360804558, -0.10110736638307571, 0.14721161127090454, -0.2716614902019501, -0.062361106276512146, 0.03608516976237297, 0.04526268690824509, -0.07265681028366089, 0.18076524138450623, -0.14998316764831543, 0.00483284005895257, 0.018679307773709297], [0.23933275043964386, -0.0586497001349926, 0.07492978125810623, 0.11649096012115479, -0.07381917536258698, 0.08568166941404343, -0.0510546937584877, 0.021365255117416382, 0.09217829257249832, 0.17146854102611542, 0.07026205211877823, -0.0792735144495964, 0.11338800191879272, -0.018652891740202904, 0.005113702267408371, -0.11997754126787186, 0.035986874252557755, -0.04368474334478378, 0.021221686154603958, 0.010146673768758774, 0.0028693610802292824, 0.011127769015729427, 0.037949975579977036, -0.06704193353652954, 0.0932939425110817, -0.007564102299511433, -0.05067967250943184, 0.005463602486997843], [-0.045637670904397964, 0.07214117795228958, 0.13998721539974213, -0.03855154663324356, 0.03259686753153801, 0.01953747682273388, -0.3284217119216919, -0.30566754937171936, 0.06882285326719284, 0.10464347898960114, -0.02180059626698494, 0.04642505198717117, 0.08679725974798203, -0.001492224051617086, 0.025679241865873337, -0.17009316384792328, -0.23163191974163055, -0.02913496270775795, 0.004252637270838022, -0.19921359419822693, 0.059697628021240234, 0.14929363131523132, -0.10077057033777237, 0.029051195830106735, -0.18063512444496155, -0.09646808356046677, 0.05541825667023659, -0.03790434077382088], [0.1106715053319931, -0.13408762216567993, -0.14155372977256775, 0.23156841099262238, -0.3013421297073364, -0.052095092833042145, 0.026995811611413956, 0.14258253574371338, 0.14390236139297485, -0.06293898075819016, -0.0926494151353836, -0.011471344158053398, -0.17674444615840912, -0.004543261602520943, -0.03537677600979805, -0.013586399145424366, -0.03415980935096741, -0.056665703654289246, 0.07861677557229996, -0.16245980560779572, 0.06414960324764252, -0.1860833317041397, 0.29868414998054504, -0.004600066691637039, 0.062263164669275284, 0.10619033873081207, 0.16701704263687134, 0.09982523322105408], [-0.35742926597595215, -0.15757879614830017, 0.1303076148033142, 0.020209336653351784, -0.05889453738927841, -0.048125043511390686, -0.07117719203233719, -0.34489476680755615, 0.021226879209280014, 0.25008073449134827, -0.15874172747135162, 0.028450723737478256, -0.04765553027391434, -0.09456047415733337, -0.025538520887494087, -0.006018385291099548, 0.11954471468925476, -0.19891217350959778, 0.009600640274584293, 0.12898077070713043, 0.06479040533304214, 0.16611409187316895, -0.1132783591747284, 0.06152697652578354, -0.026748033240437508, 0.02397989109158516, 0.023657454177737236, -0.023318905383348465], [0.010633454658091068, -0.14351557195186615, 0.10864447057247162, 0.10657347738742828, -0.15441077947616577, 0.10648803412914276, -0.10277339071035385, 0.0027501722797751427, -0.05450510233640671, 0.23698291182518005, 0.015494542196393013, -0.09211114794015884, 0.17638400197029114, 0.09488336741924286, 0.04352884739637375, 0.1584315299987793, -0.05190392956137657, -0.06379503756761551, -0.02012382075190544, -0.06237160786986351, 0.04529864341020584, 0.057779621332883835, -0.06518647819757462, 0.06565316766500473, -0.06955355405807495, -0.08235832303762436, -0.010189177468419075, -0.34893110394477844], [-0.015261081047356129, -0.005649409722536802, -0.13048431277275085, -0.038003094494342804, -0.1427597999572754, 0.005868959240615368, 0.0370994508266449, -0.017944976687431335, 0.03439101204276085, 0.16822631657123566, 0.05607030913233757, 0.027995148673653603, 0.2563972473144531, -0.21439091861248016, -5.551090453081997e-06, -0.2927946448326111, 0.1305457204580307, 0.17180098593235016, 0.1967572420835495, 0.09391476958990097, 0.12365774810314178, -0.21082934737205505, 0.08055371791124344, 0.04459250718355179, 0.5724868178367615, -0.08959181606769562, -0.05530562624335289, 0.20288397371768951], [0.1767290234565735, -0.07944746315479279, -0.03336391597986221, 0.11975318938493729, -0.10421250760555267, 0.037421442568302155, -0.15357644855976105, 0.07385647296905518, 0.10229989886283875, 0.0017363285878673196, 0.14551539719104767, 0.05715017020702362, -0.10919459909200668, -0.0034291755873709917, -0.09048711508512497, 0.09360407292842865, -0.03877069801092148, -0.037377867847681046, -0.11445344984531403, -0.05812527984380722, -0.031754277646541595, -0.029642825946211815, 0.021908555179834366, 0.03963419795036316, -0.20073583722114563, -0.17845980823040009, -0.06821040064096451, -0.19358302652835846], [-0.07693790644407272, 0.033881135284900665, 0.08384398370981216, -0.18722449243068695, 0.09770547598600388, -0.04819267988204956, 0.07178815454244614, -0.11576196551322937, -0.10190118849277496, -0.03838888183236122, -0.11755639314651489, -0.04160023853182793, 0.02756735123693943, -0.012949108146131039, -0.04609261080622673, 0.006103625521063805, -0.03769716992974281, -0.01762217842042446, 0.08751454204320908, 0.0035065931733697653, -0.010933613404631615, -0.06612550467252731, 0.04663850739598274, -0.05261432006955147, -0.4224402606487274, 0.04688834398984909, -0.1561153382062912, 0.3218579590320587], [-0.23100566864013672, 0.046806450933218, 0.03833096846938133, 0.1916181892156601, 0.10551829636096954, 0.0737399160861969, -0.3029739260673523, 0.04632502421736717, 0.05271262675523758, 0.008564259856939316, 0.185224249958992, 0.12108910083770752, -0.21874426305294037, 0.04464435949921608, 0.12880085408687592, 0.17225004732608795, 0.007865344174206257, -0.016259292140603065, -0.13803048431873322, -0.12614089250564575, -0.06210057809948921, 0.062412384897470474, 0.047763220965862274, -0.006786914076656103, -0.1513596624135971, 0.1512388288974762, 0.034747011959552765, -0.3615061044692993], [-0.3489263355731964, -0.2661885619163513, 0.17422381043434143, 0.21076618134975433, -0.07108481973409653, -0.08634837716817856, 0.025813287124037743, 0.08725699782371521, -0.06935251504182816, -0.06278584897518158, 0.08315896987915039, 0.10882928222417831, -0.07155600190162659, -0.05507677048444748, 0.048586152493953705, -0.07846677303314209, 0.11362505704164505, -0.17639203369617462, -0.0861235111951828, 0.07326550781726837, -0.048384733498096466, 0.0033327280543744564, -0.07028209418058395, -0.08559615164995193, 0.07126007974147797, 0.22205190360546112, -0.14445006847381592, -0.10752169042825699], [-0.30653414130210876, -0.31703245639801025, -0.033034391701221466, 0.2859656512737274, -0.24048390984535217, -0.16721323132514954, 0.08000102639198303, -0.14786863327026367, 0.08304668962955475, 0.25623419880867004, -0.11354998499155045, 0.22791466116905212, 0.012359730899333954, -0.01331358402967453, 0.07570181041955948, 0.15142586827278137, 0.06706686317920685, 0.017688818275928497, -0.11282829940319061, -0.12774154543876648, 0.1255037784576416, 0.056062549352645874, 0.250476598739624, -0.1236259788274765, -0.09022225439548492, 0.05626632273197174, -0.01117462944239378, -0.3008336126804352], [-0.057887058705091476, 0.07584209740161896, 0.09078323841094971, -0.18580949306488037, 0.02022038772702217, 0.08640959113836288, -0.3770827651023865, -0.13652881979942322, 0.021976619958877563, -0.016537442803382874, 0.14718060195446014, 0.02178594283759594, 0.20798125863075256, 0.012913048267364502, 0.10062502324581146, -0.06663390249013901, 0.07205215096473694, 0.010318699292838573, 0.3147802948951721, 0.09363706409931183, -0.17458711564540863, -0.09916449338197708, 0.054536085575819016, -0.1250830441713333, 0.30893051624298096, -0.0818813145160675, -0.0041947141289711, 0.1691189706325531], [-0.45772436261177063, 0.2083783894777298, 0.03329393267631531, -0.03785049170255661, -0.003820286598056555, -0.11853373050689697, 0.02781728096306324, -0.03712480515241623, -0.1435409039258957, -0.0998585969209671, 0.001984130125492811, 0.054061345756053925, -0.0024747722782194614, 0.029397690668702126, 0.07765138149261475, -0.011227427050471306, 0.22111932933330536, -0.06519710272550583, -0.15775080025196075, 0.26803115010261536, 0.02127750590443611, 0.15002182126045227, -0.15485858917236328, -0.12041740864515305, 0.010807699523866177, 0.018496563658118248, -0.008967200294137001, -0.06179535388946533], [-0.3881913721561432, -0.3394705653190613, -0.007012541871517897, 0.07994886487722397, -0.23745939135551453, -0.029126975685358047, 0.08685525506734848, -0.06174130737781525, 0.04316720739006996, 0.0983523279428482, -0.1951841413974762, 0.15411078929901123, 0.1878557801246643, 0.030636301264166832, 0.08113638311624527, 0.2103174477815628, 0.10090965032577515, -0.04667620360851288, 0.0972369834780693, -0.31451308727264404, -0.0016104113310575485, -0.11220365762710571, 0.023708093911409378, -0.08884688466787338, 0.11556376516819, -0.05216879025101662, -0.009815803728997707, 0.08651302754878998], [-0.1974710375070572, 0.06122225150465965, -0.11386699229478836, 0.06698450446128845, 0.12652264535427094, 0.10757073760032654, 0.1316671073436737, -0.22977635264396667, 0.1220029816031456, -0.0049062189646065235, -0.05358037352561951, 0.007894325070083141, 0.12351130694150925, 0.12443485110998154, 0.029131952673196793, 0.027922172099351883, 0.13610202074050903, 0.055144935846328735, 0.23051105439662933, -0.16001950204372406, -0.10799884051084518, -0.04229005426168442, 0.22126832604408264, -0.035768020898103714, 0.25367942452430725, -0.170275017619133, -0.02997741289436817, 0.08879943937063217], [0.2533315122127533, -0.2022700011730194, -0.07763957232236862, 0.17544828355312347, -0.10387428104877472, -0.07731635123491287, -0.030949722975492477, -0.012194614857435226, 0.07159130275249481, 0.1407332420349121, 0.024571405723690987, -0.010099944658577442, -0.08475816994905472, 0.014548035338521004, -0.07338876277208328, 0.14257420599460602, 0.03178614005446434, 0.052099987864494324, 0.10314678400754929, 0.10318908840417862, -0.12504662573337555, 0.10969562828540802, -0.023934705182909966, 0.004261201247572899, -0.053020935505628586, -0.029428021982312202, -0.01027575135231018, -0.08490223437547684], [-0.41364914178848267, -0.13781774044036865, -0.047326043248176575, 0.032024774700403214, -0.09247646480798721, 0.02585095353424549, -0.016020987182855606, 0.0940348207950592, 0.07441970705986023, 0.029099196195602417, 0.07948646694421768, 0.2152920663356781, 0.002262839348986745, 0.050068240612745285, 0.08915489166975021, -0.06992441415786743, 0.05979163572192192, -0.1788618266582489, -0.04833223298192024, -0.028491416946053505, 0.22414489090442657, -0.006799507886171341, -0.04954555258154869, 0.08094865083694458, 0.08290357142686844, 0.08008590340614319, -0.05173477157950401, -0.09557195007801056], [0.006200090516358614, 0.11230172961950302, -0.1479935348033905, 0.16483944654464722, -0.0021639917977154255, 0.05153506249189377, 0.06265196204185486, 0.06199056655168533, -0.06503807753324509, 0.15262120962142944, -0.05072775483131409, -0.10048075765371323, 0.2549164891242981, -0.07862696051597595, -0.0686139240860939, -0.03846694529056549, 0.2661304175853729, 0.10853075236082077, -0.21977466344833374, 0.11501526832580566, 0.061715055257081985, 0.05149465799331665, 0.18147851526737213, -0.028381409123539925, 0.09876526892185211, -0.22265523672103882, -0.03949106112122536, -0.15752355754375458], [-0.49302104115486145, -0.12183325737714767, 0.06323551386594772, 0.1582929491996765, -0.19521543383598328, -0.008276993408799171, -0.04122121259570122, -0.0008588991477154195, -0.01370436791330576, -0.0014683975605294108, -0.11211464554071426, 0.17863839864730835, 0.09880590438842773, 0.08092064410448074, 0.09482555091381073, -0.06924648582935333, 0.12982134521007538, -0.1774888038635254, -0.03415791690349579, -0.08005911856889725, 0.05733661353588104, -0.07070782780647278, 0.09388312697410583, -0.02707676962018013, -0.021733103320002556, -0.030341625213623047, -0.05103949084877968, -0.018329188227653503], [-0.19180439412593842, -0.16478894650936127, 0.09626299887895584, 0.32431766390800476, -0.050529610365629196, -0.10862775892019272, 0.015116944909095764, 0.3088327646255493, 0.019459687173366547, 0.04868718609213829, 0.13097214698791504, -0.04300063103437424, -0.3051804304122925, -0.12225361168384552, -0.0919392928481102, -0.22662176191806793, -0.018460456281900406, -0.16526123881340027, -0.0439956858754158, -0.05555097013711929, 0.1484098583459854, -0.008940533734858036, 0.018394267186522484, 0.08364652842283249, -0.2972502112388611, -0.01709543913602829, 0.04340855032205582, 0.25225406885147095], [0.09311235696077347, -0.11746305227279663, 0.12027542293071747, -0.03218412026762962, 0.0929022952914238, -0.00961192138493061, 0.03650500625371933, 0.11757659912109375, 0.013238205574452877, -0.026350535452365875, 0.10754170268774033, -0.10576954483985901, -0.2556115686893463, 0.09606752544641495, 0.0026107649318873882, 0.12643316388130188, 0.012221161276102066, -0.019393734633922577, -0.15087386965751648, 0.04467647150158882, -0.019457202404737473, 0.05111315846443176, -0.041748467832803726, 0.052878487855196, -0.3861537575721741, 0.011725310236215591, -0.14471139013767242, 0.02921265922486782], [0.07798556238412857, 0.1028469055891037, 0.1632107049226761, -0.01989349164068699, 0.048352524638175964, -0.027657341212034225, -0.18473964929580688, 0.08573749661445618, -0.019152218475937843, 0.2683575749397278, 0.11216428875923157, -0.03781352564692497, 0.11033786833286285, 0.13286425173282623, -0.001698954263702035, -0.033680859953165054, -0.1718742400407791, 0.011704722419381142, 0.1574060320854187, 0.20712924003601074, -0.0885760560631752, 0.1655605286359787, -0.02952735871076584, -0.01724150963127613, -0.18852028250694275, 0.060408834367990494, 0.036726631224155426, 0.03895561024546623], [0.18440786004066467, -0.15975722670555115, -0.002317780861631036, -0.14532601833343506, -0.2221098095178604, 0.0969194769859314, -0.04188176244497299, 0.16952933371067047, 0.022275760769844055, -0.039357367902994156, -0.058377690613269806, -0.14480894804000854, -0.3235040605068207, -0.0985822007060051, -0.09988267719745636, 0.1015147790312767, 0.15540914237499237, 0.18600806593894958, -0.3911937177181244, 0.1219065859913826, -0.08854185044765472, 0.0024423375725746155, -0.026910701766610146, 0.13086260855197906, -0.44199010729789734, 0.031001286581158638, 0.04800418019294739, 0.2667723298072815], [0.18004247546195984, -0.2692708671092987, -0.02644859254360199, 0.14651404321193695, -0.21618464589118958, -0.10736426711082458, 0.26553094387054443, 0.02715262584388256, -0.02904704213142395, 0.15093526244163513, 0.029619451612234116, -0.10069046169519424, 0.01343516819179058, -0.11195243149995804, -0.10358234494924545, -0.008431393653154373, -0.1580749899148941, 0.14125849306583405, 0.11223995685577393, -0.23047880828380585, 0.08303806185722351, -0.009856592863798141, 0.17227135598659515, -0.019169198349118233, -0.15136362612247467, 0.019467730075120926, -0.039198677986860275, -0.10051680356264114], [-0.3308437168598175, -0.0843275934457779, 0.08723030239343643, 0.028842680156230927, -0.1843930333852768, -0.1490403413772583, 0.0940035805106163, -0.05314759537577629, 0.001446964219212532, 0.1381841003894806, -0.03469032421708107, 0.09855905920267105, -0.011249630711972713, 0.019827406853437424, 0.14243212342262268, -0.11653713881969452, -0.003136235987767577, -0.18856458365917206, -0.05977665260434151, -0.05769572779536247, 0.07424357533454895, -0.1409093290567398, 0.053034231066703796, 0.16540826857089996, 0.006781554315239191, 0.17379307746887207, -0.07266473770141602, 0.05306870862841606], [0.2694145143032074, -0.19554802775382996, 0.10521145910024643, 0.03883548080921173, -0.12737397849559784, -0.04792582243680954, 0.0622226856648922, -0.14317940175533295, 0.07803309708833694, 0.06171680614352226, 0.017269764095544815, -0.0036143092438578606, -0.2824133038520813, -0.0710051953792572, -0.09248213469982147, -0.21590262651443481, 0.04900452867150307, 0.19388948380947113, 0.01765710674226284, 0.023977264761924744, 0.06789946556091309, -0.11330655217170715, -0.02495737373828888, 0.08659765124320984, 0.08026758581399918, 0.31005507707595825, -0.06928418576717377, 0.13118132948875427], [-0.024246657267212868, -0.058501530438661575, -0.02209165319800377, 0.30984431505203247, 0.06443697214126587, -0.07752007991075516, -0.08568916469812393, -0.21298156678676605, -0.022359095513820648, 0.09135497361421585, -0.0239903274923563, -0.15486988425254822, 0.16227221488952637, -0.058741237968206406, -0.1621328592300415, -0.0014007565332576632, 0.15818680822849274, 0.15758830308914185, 0.033463314175605774, -0.13793332874774933, -0.16044354438781738, -0.1789092719554901, 0.33507290482521057, 0.07261551171541214, -0.11517525464296341, -0.15805207192897797, 0.10433094203472137, 0.0675211250782013], [-0.30428656935691833, -0.05849434807896614, -0.05229468271136284, 0.0381833054125309, 0.013493873178958893, -0.04054281488060951, 0.1614179164171219, 0.10847556591033936, -0.0436091385781765, -0.22586508095264435, 0.08588726073503494, 0.07155170291662216, 0.1403932124376297, -0.037191953510046005, 0.07324182987213135, -0.16854196786880493, 0.09008530527353287, -0.08826319873332977, 0.05245516449213028, -0.15792912244796753, 0.11006288230419159, -0.026553068310022354, -0.01991616003215313, -0.14533011615276337, 0.11370032280683517, 0.1888621747493744, -0.044900696724653244, 0.05600419640541077], [0.19509562849998474, 0.052899789065122604, -0.04551847279071808, 0.014399779960513115, -0.06243565306067467, 0.05883822217583656, -0.10646135360002518, 0.04557821527123451, 0.07758693397045135, -0.034865401685237885, 0.06290768831968307, 0.0009034971590153873, -0.17503659427165985, 0.1474430114030838, -0.06043185293674469, -0.09004506468772888, 0.10718493163585663, 0.06109216809272766, -0.1149493083357811, -0.24543306231498718, 0.08428731560707092, -0.16420389711856842, 0.288226455450058, 0.12585480511188507, -0.045923639088869095, 0.034135013818740845, -0.03134453669190407, 0.07792823761701584], [0.08431471139192581, -0.02356533333659172, 0.08393009752035141, -0.02970782481133938, 0.07629058510065079, 0.08862601220607758, -0.1682053953409195, -0.11782123148441315, 0.06417203694581985, 0.1502436250448227, -0.1041300818324089, 0.05317120626568794, 0.15288448333740234, -0.054420508444309235, 0.018651451915502548, 0.030340828001499176, -0.24653230607509613, -0.03339638561010361, -0.0033864136785268784, 0.18452468514442444, -0.033646758645772934, -0.10906806588172913, -0.14200545847415924, 0.13061495125293732, -0.07613629847764969, 0.29774177074432373, 0.03322308138012886, 0.1803109347820282], [-0.368697851896286, -0.2882314920425415, -0.03713969886302948, 0.3058280944824219, -0.27716588973999023, 0.05930955708026886, -0.24637190997600555, 0.09164027124643326, 0.10013309866189957, 0.06707526743412018, -0.07867169380187988, 0.07827071845531464, -0.034228600561618805, 0.13851603865623474, 0.04152015224099159, 0.13868340849876404, 0.07000525295734406, -0.09113242477178574, -0.14284051954746246, -0.05478997156023979, 0.08433260023593903, -0.06535549461841583, -0.16227880120277405, 0.0862150564789772, -0.16188447177410126, 0.052523426711559296, 0.06487914174795151, -0.03142229840159416], [-0.3810170888900757, 0.033145882189273834, 0.11979691684246063, -0.014098601415753365, -0.08515800535678864, 0.1533772200345993, -0.027012135833501816, 0.01857433095574379, 0.0009122641058638692, 0.08257928490638733, -0.01844978705048561, 0.07300791889429092, 0.04099658876657486, 0.02592957764863968, -0.0013620421523228288, 0.049097940325737, 0.0681617483496666, 0.011278434656560421, 0.008184562437236309, 0.06309979408979416, 0.13872022926807404, 0.016765575855970383, 0.019246535375714302, -0.011417265981435776, 0.03296829015016556, 0.08014598488807678, 0.11772658675909042, -0.005762071814388037], [0.2959686815738678, -0.17003017663955688, 0.1898847073316574, 0.13473555445671082, -0.005013114307075739, 0.003167211078107357, -0.10089951008558273, -0.006705965846776962, 0.05244101211428642, -0.19581380486488342, 0.038404081016778946, 0.0907711461186409, 0.26390406489372253, -0.20302270352840424, 0.008314124308526516, -0.21380820870399475, 0.10456886887550354, -0.07073625922203064, -0.02678443305194378, -0.11800695955753326, -0.029993964359164238, -0.3365771770477295, 0.14889277517795563, 0.07811791449785233, 0.0009029482025653124, -0.11008672416210175, -0.04558061435818672, 0.05300791561603546], [-0.2139015942811966, -0.10920517146587372, 0.1957557499408722, 0.11459749937057495, 0.0490245446562767, -0.07044142484664917, -0.03915513679385185, 0.012355716899037361, 0.003776522818952799, 0.2644638419151306, 0.15901368856430054, -0.04880919307470322, 0.0014647160423919559, 0.12716345489025116, -0.06177504360675812, -0.16708123683929443, 0.04709186404943466, 0.007746892049908638, 0.07060304284095764, 0.39412739872932434, -0.08288399875164032, 0.027425572276115417, -0.6149392127990723, 0.05705616995692253, 0.009665930643677711, -0.18385951220989227, -0.028078358620405197, 0.010063518770039082], [-0.4823528826236725, -0.0025238862726837397, -0.05635827034711838, -0.14018873870372772, 0.04008018225431442, -0.028976960107684135, -0.2999929189682007, -0.23505271971225739, 0.032098863273859024, 0.14930066466331482, -0.03521459922194481, 0.05231473594903946, 0.0576859712600708, -0.08486250787973404, 0.061531778424978256, -0.08884831517934799, -0.055389534682035446, -0.03966982662677765, 0.05660078674554825, -0.09394021332263947, -0.02608058974146843, 0.12698276340961456, 0.1526009887456894, -0.0847054123878479, 0.16085363924503326, 0.02462177351117134, 0.07983821630477905, 0.2089110165834427], [-0.33550116419792175, 0.03435494005680084, 0.27033406496047974, -0.29758602380752563, 0.012408226728439331, -0.0769324079155922, -0.3126099705696106, -0.09644801169633865, 0.07360262423753738, 0.35515865683555603, -0.025799106806516647, 0.14142374694347382, -0.08911620080471039, -0.05272628366947174, -0.029348112642765045, 0.13305482268333435, -0.020328432321548462, 0.024506013840436935, -0.06988111883401871, 3.192466465407051e-05, 0.04474012181162834, 0.0274964552372694, 0.00451654614880681, 0.06243390217423439, -0.4248669445514679, -0.017615212127566338, -0.1519569754600525, -0.017798373475670815], [-0.2687104344367981, 0.15285387635231018, -0.158271923661232, 0.06855407357215881, 0.14569352567195892, -0.014590900391340256, 0.10667417198419571, -0.03129564970731735, -0.059503939002752304, -0.10263161361217499, -0.10211107134819031, 0.13495975732803345, -0.13921639323234558, -0.03653111308813095, 0.03262351080775261, -0.030898181721568108, 0.033500220626592636, 0.07216659933328629, -0.1058908998966217, 0.019444499164819717, -0.01705400086939335, -0.2124560922384262, 0.012417944148182869, -0.018302254378795624, -0.04517402872443199, 0.024113217368721962, -0.03257015720009804, 0.1531466245651245], [-0.21504618227481842, -0.047089654952287674, 0.008015541359782219, -0.14424024522304535, 0.10129403322935104, -0.08169666677713394, -0.11285508424043655, -0.14603275060653687, 0.14689473807811737, -0.22677329182624817, -0.024030104279518127, -0.046667762100696564, 0.12629178166389465, -0.09346745908260345, 0.10453033447265625, -0.03144818916916847, 0.035698018968105316, 0.04966389387845993, 0.08895637840032578, -0.0014228328363969922, 0.033060621470212936, -0.026975123211741447, 0.005753711331635714, 0.02467646636068821, 0.05083271861076355, 0.020029615610837936, -0.0844111293554306, -0.12621602416038513], [0.4601674973964691, -0.28633737564086914, -0.039216525852680206, -0.21110446751117706, -0.2510519027709961, 0.01233735866844654, -0.008967519737780094, 0.111550472676754, 0.006029765121638775, -0.0726538747549057, 0.07363613694906235, -0.013633928261697292, -0.06904111057519913, -0.1463632583618164, 0.010206448845565319, 0.10616590827703476, -0.0794481411576271, 0.08042119443416595, -0.2847866415977478, -0.030141305178403854, -0.07187405228614807, -0.0008869962766766548, -0.008475681766867638, -0.04880886897444725, -0.2877978980541229, 0.10028905421495438, 0.016338663175702095, -0.14345195889472961], [-0.11518587172031403, -0.2777218222618103, -0.037819281220436096, 0.35805124044418335, -0.019955290481448174, 0.04411337524652481, -0.12579233944416046, -0.09355403482913971, 0.11119905859231949, 0.12755580246448517, 0.3943536877632141, 0.006382379215210676, -0.19492727518081665, -0.19751007854938507, 0.021473830565810204, 0.054286982864141464, -0.058111563324928284, 0.04583527520298958, -0.07885267585515976, 0.052541423588991165, -0.05259029567241669, -0.039388507604599, 0.16532377898693085, 0.03148964047431946, 0.000467491103336215, 0.2860032021999359, 0.11799678206443787, 0.005735886283218861], [-0.27980002760887146, 0.15111009776592255, 0.08108541369438171, -0.17293371260166168, 0.28107064962387085, 0.07324685901403427, -0.1766912341117859, 0.08655577152967453, -0.08386591076850891, -0.32504284381866455, 0.08092943578958511, 0.09733232855796814, 0.15119697153568268, 0.15250304341316223, 0.041834332048892975, -0.21163766086101532, 0.0993456095457077, -0.02429124154150486, 0.10377727448940277, -0.044743601232767105, -0.06166515499353409, -0.1828625500202179, -0.03891528770327568, -0.0009401302086189389, 0.22251319885253906, -0.04449545964598656, -0.20694470405578613, -0.00762163707986474], [0.27029797434806824, 0.042394593358039856, -0.027342140674591064, 0.08901486545801163, -0.08561588823795319, 0.03152564913034439, 0.08235648274421692, -0.1363172084093094, -0.03072301298379898, 0.2353326678276062, -0.00776853458955884, -0.06040645018219948, 0.1112343966960907, 0.15055450797080994, 0.04881568253040314, 0.037606656551361084, -0.09011243283748627, -0.08966783434152603, -0.12652353942394257, 0.054248783737421036, 0.06838709115982056, -0.03347538784146309, 0.13050013780593872, 0.06990889459848404, 0.30959030985832214, 0.08632389456033707, 0.10445912182331085, -0.2544347941875458], [-0.41050097346305847, -0.13114087283611298, 0.019857577979564667, 0.02348262444138527, 0.012991858646273613, -0.009230580180883408, -0.06753557175397873, 0.12845851480960846, -0.13508343696594238, -0.29850247502326965, -0.03134714812040329, 0.15585529804229736, 0.19746486842632294, 0.00516067910939455, 0.1168772429227829, 0.029457733035087585, -0.10936973243951797, -0.26513564586639404, 0.2401692271232605, 0.021923890337347984, 0.07106680423021317, -0.12505605816841125, -0.12392307072877884, -0.07712573558092117, 0.22596624493598938, -0.06444411724805832, -0.10521234571933746, -0.11435651779174805], [-0.24121488630771637, -0.14292128384113312, -0.013897347263991833, 0.1671573966741562, -0.08482248336076736, -0.050560757517814636, 0.05905541032552719, -0.1163887307047844, 0.00033100947621278465, -0.03769930824637413, 0.2630836069583893, -0.0043076928704977036, -0.15457604825496674, -0.003890451043844223, -0.07721364498138428, -0.22694021463394165, 0.16137489676475525, -0.003426527138799429, -0.14386583864688873, 0.004525074269622564, 0.12950462102890015, 0.06321302801370621, -0.108326755464077, 0.0799495205283165, 0.10404576361179352, 0.05274515226483345, 0.06514901667833328, -0.1511477380990982], [0.2281411588191986, 0.09924126416444778, 0.0012083064066246152, 0.13320021331310272, 0.04262310639023781, -0.040745437145233154, 0.0013182010734453797, -0.20436954498291016, 0.03840762749314308, 0.03866458684206009, -0.04875584691762924, -0.007757009007036686, -0.25857678055763245, -0.03080400638282299, -0.02638641744852066, -0.25347012281417847, -0.2174675613641739, 0.044475454837083817, -0.02203059010207653, -0.12477404624223709, -0.07786168903112411, -0.06510010361671448, 0.04087228327989578, -0.018070951104164124, 0.13655045628547668, -0.041623249650001526, 0.04147403687238693, 0.04361150786280632], [0.24927347898483276, -0.21407818794250488, -0.036312781274318695, 0.06113127991557121, -0.03933488950133324, -0.10660155117511749, 0.17512927949428558, 0.13162048161029816, -0.03602152690291405, -0.19404903054237366, 0.09712255746126175, -0.08466421812772751, 0.23184576630592346, 0.14177212119102478, -0.14793610572814941, -0.034099940210580826, -0.0804656520485878, 0.0033841386903077364, -0.10497553646564484, 0.03277019411325455, 0.059796594083309174, -0.14469872415065765, -0.12747424840927124, 0.10340177267789841, 0.20136244595050812, 0.09860097616910934, 0.0163968987762928, -0.0556652769446373], [-0.32288360595703125, -0.10093063861131668, 0.11403728276491165, -0.00420068996027112, -0.012549304403364658, -0.17392346262931824, 0.04450847953557968, -0.017912469804286957, 0.002130670240148902, -0.11263270676136017, 0.07591712474822998, -0.018072590231895447, 0.28529661893844604, -0.013322613202035427, -0.04150429740548134, -0.1719006597995758, -0.1033564954996109, -0.15955790877342224, -0.05830597132444382, 0.09497644007205963, -0.04550754651427269, -0.16692295670509338, 0.08603367954492569, -0.11572422087192535, 0.3478621542453766, 0.12161631137132645, 0.101511649787426, 0.16704818606376648], [-0.17979158461093903, -0.20242370665073395, -0.07613663375377655, 0.2394919991493225, 0.08192426711320877, 0.05828116461634636, 0.013734736479818821, 0.1517610102891922, 0.0689258724451065, -0.18935135006904602, 0.13925547897815704, 0.1092628464102745, -0.0469331331551075, -0.05557069927453995, 0.11576713621616364, 0.033951014280319214, -0.10689037293195724, 0.023642312735319138, -0.10457397252321243, -0.0010597073705866933, 0.04124906659126282, -0.20936447381973267, -0.06751377135515213, -0.10271064937114716, -0.22180987894535065, 0.2652241885662079, 0.03679291531443596, -0.37716373801231384], [-0.25669437646865845, -0.053215332329273224, -0.1663273572921753, 0.10799376666545868, -0.18001788854599, -0.09356626123189926, -0.10901165753602982, 0.04626888409256935, -0.05546332150697708, -0.16524600982666016, 0.03553105518221855, 0.033076729625463486, -0.08595728129148483, -0.15802299976348877, 0.12797625362873077, -0.09351207315921783, -0.018903840333223343, 0.0018364827847108245, -0.143373042345047, 0.10160630196332932, 0.16297778487205505, 0.09570847451686859, 0.09267891943454742, -0.17226409912109375, -0.05702873691916466, 0.00036290069692768157, 0.1266956627368927, -0.03243573009967804], [0.09271649271249771, 0.05151370167732239, -0.013060658238828182, -0.2014068067073822, -0.21331778168678284, -0.031721752136945724, 0.05631502717733383, -0.1484881490468979, 0.03288300707936287, 0.10581778734922409, -0.09908536821603775, 0.036858245730400085, 0.3917475938796997, -0.04074055701494217, 0.02821960486471653, 0.07993638515472412, 0.007159496191889048, 0.23300057649612427, 0.577192485332489, -0.030276669189333916, -0.11676234006881714, 0.06980729848146439, -0.024317651987075806, -0.12138786166906357, 1.0000059604644775, -0.01241335179656744, -0.04227372631430626, 0.13700081408023834], [-0.1167791336774826, 0.03986015543341637, 0.07090187817811966, -0.09651601314544678, -0.03739280253648758, -0.012678655795753002, -0.26177358627319336, 0.08086977154016495, 0.04648728668689728, -0.1691456437110901, -0.1543741226196289, -0.0493883416056633, 0.08669441938400269, 0.07107849419116974, -0.08337323367595673, -0.08225393295288086, -0.0698385089635849, 0.08182797580957413, 0.2589063346385956, -0.1393800526857376, 0.0635678768157959, -0.03956666216254234, 0.387060284614563, 0.12708108127117157, 0.00811318401247263, -0.2548019587993622, -0.03197798132896423, -0.1898513287305832], [-0.26540523767471313, 0.016293840482831, 0.1568150818347931, -0.121705062687397, 0.01289862859994173, -0.04378582164645195, 0.1099519357085228, 0.07286625355482101, -0.047092024236917496, 0.050321128219366074, 0.024704866111278534, 0.08498324453830719, 0.19911058247089386, 0.24452120065689087, 0.022601377218961716, 0.1359587013721466, 0.15513810515403748, -0.12637533247470856, -0.1265706568956375, -0.09972921758890152, -0.051339853554964066, 0.06425407528877258, 0.14819563925266266, -0.009667350910604, 0.12738332152366638, -0.03885793313384056, -0.0639774426817894, -0.1477091759443283], [-0.008669848553836346, -0.08873418718576431, 0.08395446836948395, 0.3519896864891052, -0.10833360254764557, 0.046771612018346786, -0.06589095294475555, 0.06114746630191803, -0.007080004550516605, -0.13279274106025696, -0.04917644336819649, -0.09740547835826874, 0.026380879804491997, 0.018642205744981766, -0.10381132364273071, -0.14781159162521362, -0.1329711526632309, 0.14372609555721283, 0.06464577466249466, -0.005295397713780403, -0.11883347481489182, -0.2343706637620926, -0.3987950086593628, 0.05435017868876457, -0.15163633227348328, 0.12122589349746704, -0.10281835496425629, 0.419012188911438], [-0.511567234992981, -0.14844992756843567, 0.19291754066944122, -0.05664705112576485, 0.03820943832397461, -0.12250738590955734, 0.1385917067527771, 0.15402384102344513, 0.031221114099025726, 0.0526030957698822, 0.05224519968032837, 0.19833602011203766, -0.15346355736255646, -0.017589135095477104, 0.048853445798158646, -0.27679961919784546, 0.01915593072772026, -0.14656957983970642, -0.1577739715576172, -0.18065549433231354, -0.021591302007436752, 0.04547494649887085, 0.048666343092918396, -0.07597179710865021, 0.12176480144262314, -0.04079247638583183, -0.044623956084251404, -0.11703450977802277], [0.41321876645088196, -0.07714232802391052, 0.03647773340344429, -0.13232459127902985, -0.1305309236049652, 0.109678253531456, 0.011503300629556179, 0.16216236352920532, 0.020364288240671158, -0.13316412270069122, -0.0975305363535881, 0.058454710990190506, -0.18558499217033386, -0.19543461501598358, 0.10670061409473419, 0.11024212092161179, 0.09092187881469727, 0.134035125374794, -0.11006170511245728, 0.02842685393989086, -0.06859555095434189, 0.10369659960269928, 0.10184482485055923, -0.04094482585787773, 0.09115666151046753, 0.035787433385849, -0.04226532578468323, -0.13893133401870728], [-0.3888588547706604, 0.08684011548757553, -0.11051589995622635, -0.035823021084070206, -0.14364153146743774, -0.09919583052396774, -0.02979619987308979, -0.10270780324935913, -0.10400542616844177, 0.2146930992603302, 0.05847281962633133, -0.039282314479351044, 0.015144100412726402, -0.18537844717502594, -0.08903082460165024, -0.10703095048666, 0.04773256555199623, -0.026495391502976418, -0.12199375778436661, 0.06915926933288574, 0.16760720312595367, 0.024285320192575455, -0.15806426107883453, 0.0597759373486042, -0.0040021310560405254, -0.1080133467912674, -0.04650820046663284, -0.033807359635829926], [-0.10505972802639008, 0.0865132287144661, -0.12586377561092377, 0.1349676549434662, 0.06403353065252304, 0.04073910787701607, -0.22684630751609802, -0.057145919650793076, -0.07615460455417633, 0.0814877450466156, 0.13218900561332703, -0.10607834160327911, -0.10943032056093216, 0.10289019346237183, -0.03121250681579113, 0.12951169908046722, 0.11440062522888184, 0.17601147294044495, -0.15161018073558807, 0.19863161444664001, -0.004172965418547392, 0.0963248461484909, 0.13651853799819946, 0.029907792806625366, 0.1328599750995636, 0.19569331407546997, -0.09593471139669418, 0.049843743443489075], [0.01588890142738819, 0.10470695048570633, 0.1677459329366684, -0.19314414262771606, 0.13796557486057281, 0.01386858057230711, -0.24852992594242096, -0.13025927543640137, 0.07469896972179413, -0.054996367543935776, 0.09134088456630707, -0.10888569802045822, 0.2227967530488968, 0.18803122639656067, -0.1496528536081314, -0.16163307428359985, 0.012050771154463291, 0.1866392195224762, -0.15547896921634674, 0.16805623471736908, -0.07546333968639374, 0.14697757363319397, -0.07575199007987976, 0.005802416708320379, 0.014171288348734379, 0.09021928161382675, -0.12161947786808014, -0.16746704280376434], [-0.20521648228168488, -0.2672991454601288, 0.10382026433944702, 0.11859927326440811, -0.09889906644821167, -0.011968011036515236, -0.09220170229673386, -0.10851147770881653, -0.04195576161146164, 0.10683178901672363, -0.04582725092768669, 0.08256973326206207, 0.012860782444477081, -0.1219622939825058, -0.020192015916109085, -0.06317992508411407, 0.06434425711631775, -0.18690703809261322, -0.14065900444984436, -0.10658151656389236, 0.015556670725345612, 0.05473717302083969, -0.006420184392482042, -0.08437509089708328, 0.08017042279243469, 0.22018305957317352, 0.09730826318264008, -0.07943618297576904], [-0.07866011559963226, 0.04030992090702057, 0.1399601548910141, 0.07870732992887497, -0.11863166093826294, 0.0562116801738739, 0.08820126205682755, -0.11641000211238861, -0.004084537737071514, 0.027708260342478752, -0.015963032841682434, -0.104214608669281, -0.051477253437042236, -0.13271300494670868, 0.06922011822462082, -0.13791517913341522, 0.02304236590862274, 0.14861533045768738, 0.08700186014175415, 0.16551941633224487, -0.03740254417061806, 0.11201496422290802, -0.14466997981071472, -0.01306526642292738, -0.08149830996990204, -0.06812456250190735, 0.05704749748110771, 0.1967591941356659], [-0.26692521572113037, 0.12202221155166626, -0.11275412887334824, 0.017037412151694298, 0.1129680946469307, 0.00019197857182007283, -0.18342986702919006, -0.009900427423417568, 0.13932295143604279, -0.35984909534454346, -0.016141647472977638, 0.05502667650580406, 0.08000589162111282, 0.08355003595352173, 0.024632684886455536, -0.053894102573394775, -0.02541106753051281, 0.048552777618169785, -0.062277913093566895, 0.03204869478940964, 0.027021614834666252, 0.047300707548856735, -0.0008566076285205781, 0.054984673857688904, -0.27459338307380676, 0.15980547666549683, 0.17164967954158783, -0.3389121890068054], [-0.08203499764204025, -0.07221115380525589, -0.25657981634140015, -0.21892669796943665, 0.06444797664880753, -0.011417103931307793, -0.128479465842247, 0.18461094796657562, -0.1539267748594284, 0.09527617692947388, -0.003258412005379796, -0.009687530808150768, -0.026035292074084282, -0.13126404583454132, 0.057721976190805435, 0.15284396708011627, 0.09102796763181686, -0.05354378744959831, 0.06991013884544373, -0.0364244244992733, 0.07890915870666504, -0.16142837703227997, 0.008573755621910095, 0.09635616838932037, 0.21792517602443695, -0.04628890007734299, -0.0562279187142849, -0.04077480733394623], [-0.12072870135307312, -0.02811548486351967, 0.18475614488124847, 0.16065049171447754, -0.2131665050983429, 0.03531455621123314, 0.044196173548698425, 0.21582689881324768, 0.017474820837378502, -0.006411959882825613, 0.1638561338186264, 0.1481161117553711, -0.13075478374958038, -0.24414034187793732, 0.06738252937793732, 0.025713089853525162, 0.05216363072395325, -0.005520080681890249, 0.1699811816215515, 0.26588812470436096, -0.1253688484430313, -0.31078267097473145, -0.061235539615154266, -0.012904166243970394, 0.10932285338640213, -0.23531240224838257, -0.07919744402170181, 0.2412174791097641], [-0.08681730180978775, -0.16253764927387238, -0.11180012673139572, 0.1521957665681839, 0.2030443251132965, -0.09899652004241943, -0.25003933906555176, 0.04398197680711746, 0.11088339239358902, 0.08943913877010345, -0.012307980097830296, 0.13954050838947296, -0.11471160501241684, -0.017153693363070488, -0.06671197712421417, -0.07448507100343704, 0.03103843331336975, -0.12173386663198471, 0.07453230768442154, -0.1487962305545807, -0.012493226677179337, 0.10085342824459076, 0.2971237003803253, -0.06730853766202927, 0.1314210444688797, 0.10967396944761276, -0.15284232795238495, -0.25022000074386597], [-0.39767882227897644, 0.1711805760860443, 0.11402367800474167, -0.12985838949680328, -0.034836169332265854, 0.04310077428817749, 0.005312993656843901, -0.11707387864589691, 0.08407267928123474, 0.08460815250873566, -0.016967812553048134, -0.11987558752298355, 0.023817753419280052, 0.06639045476913452, 0.07936308532953262, -0.06246602162718773, 0.18885396420955658, 0.05879145488142967, -0.07562004774808884, 0.06497837603092194, -0.03988160938024521, -0.20656970143318176, -0.07299225777387619, -0.20128726959228516, 0.06551602482795715, 0.07144931703805923, 0.105550117790699, 0.05971040204167366], [0.028252465650439262, 0.032437000423669815, -0.025644175708293915, 0.19912773370742798, 0.0092167928814888, 0.16325606405735016, -0.0324234813451767, 0.1260594129562378, 0.11010104417800903, 0.09425376355648041, 0.14029179513454437, -0.08511574566364288, 0.1391705870628357, 0.1420983374118805, 0.030857330188155174, -0.019842833280563354, 0.005638272035866976, 0.028126291930675507, 0.11756075173616409, 0.13414280116558075, -0.17422033846378326, -0.16225410997867584, -0.32402393221855164, 0.07799959927797318, -0.10982618480920792, -0.3376699984073639, 0.17917564511299133, -0.12932169437408447], [0.09937683492898941, 0.06526666134595871, 0.0013974597677588463, -0.01680254563689232, -0.12650500237941742, 0.07157150655984879, -0.1464541107416153, 0.09608089178800583, -0.07096720486879349, -0.1615598201751709, -0.10074476152658463, 0.012368587777018547, 0.1362002044916153, 0.03607811778783798, -0.003411100711673498, -0.027664776891469955, 0.2764104902744293, 0.03165854886174202, 0.24582064151763916, 0.12122559547424316, 0.057521771639585495, -0.13273458182811737, -0.00344266789034009, 0.02025546133518219, -0.13836942613124847, 0.04177284240722656, -0.04213089495897293, -0.09247517585754395], [0.016098598018288612, 0.1808895617723465, 0.10505448281764984, 0.2687446177005768, -0.1149648055434227, -0.06151744723320007, 0.03963739424943924, -0.12845300137996674, -0.033619873225688934, 0.3652370274066925, -0.1515861600637436, -0.13744470477104187, -0.2935599684715271, -0.04185553267598152, -0.1475137621164322, -0.04516448453068733, -0.26979368925094604, 0.030379706993699074, -0.016001196578145027, -0.16232392191886902, -0.014506323263049126, 0.04710689187049866, 0.004036878235638142, 0.04633284732699394, 0.047958169132471085, 0.5887003540992737, -0.060198016464710236, -0.057305242866277695], [0.13176748156547546, -0.16387057304382324, -0.11473925411701202, 0.1478574424982071, -0.196494922041893, 0.03996984660625458, -0.0790371298789978, 0.17306452989578247, 0.04956885054707527, 0.13814179599285126, 0.01777736283838749, 0.05555703863501549, 0.12479456514120102, 0.12221100181341171, 0.014903874136507511, 0.03855046629905701, 0.23248858749866486, 0.21358489990234375, -0.0564405731856823, -0.19588162004947662, 0.0893748477101326, 0.05686228349804878, -0.04781554639339447, 0.039612408727407455, -0.026268549263477325, 0.1653461456298828, -0.049288712441921234, -0.3979218900203705], [-0.4351930320262909, 0.00632481137290597, 0.03482596576213837, -0.18253928422927856, 0.1580135077238083, 0.07421039789915085, 0.014307480305433273, 0.107479989528656, -0.012569544836878777, -0.22803428769111633, 0.013500930741429329, -0.09193886071443558, 0.12946249544620514, 0.24747197329998016, 0.14600375294685364, -0.13877740502357483, -0.027552401646971703, 0.016600942239165306, 0.07315966486930847, 0.052995555102825165, 0.1461639255285263, 0.012136056087911129, -0.018018556758761406, -0.21025654673576355, -0.04520467296242714, -0.024498336017131805, -0.06591968983411789, -0.07568089663982391], [-0.08742231130599976, -0.12016846984624863, 0.21702541410923004, -0.20737306773662567, -0.08044315874576569, -0.12465408444404602, 0.015293962322175503, -0.06461626291275024, -0.06557484716176987, 0.047846220433712006, 0.13170519471168518, 0.007615313865244389, -0.37932801246643066, 0.0037136119790375233, -0.05797760933637619, 0.014387236908078194, 0.21427981555461884, 0.03602850064635277, 0.10842612385749817, -0.052493877708911896, -0.07918094843626022, 0.24943755567073822, -0.05691760778427124, -0.10786131024360657, -0.8523668050765991, 0.06549084931612015, -0.11796415597200394, 0.11596915870904922], [0.053468525409698486, -0.01482243649661541, 0.0308577511459589, 0.13033689558506012, 0.10867421329021454, 0.02687123790383339, -0.09240280836820602, -0.09515374898910522, -0.08508878201246262, 0.0880858302116394, 0.0625874474644661, -0.062229737639427185, 0.09171127527952194, -0.17887595295906067, 0.08565466850996017, -0.1908268928527832, 0.30956462025642395, 0.17724823951721191, -0.17202873528003693, 0.09333876520395279, 0.0011055367067456245, -0.195746511220932, 0.08585788309574127, -0.1515251100063324, 0.025458842515945435, -0.15871000289916992, -0.049260713160037994, 0.20607100427150726], [-0.16813349723815918, 0.08482099324464798, 0.05872092768549919, 0.1997281312942505, -0.020529329776763916, -0.03335950896143913, -0.2303575575351715, -0.15817824006080627, -0.015544957481324673, 0.1284625232219696, 0.2955249547958374, 0.018507786095142365, 0.10735450685024261, -0.02085290104150772, 0.03731652721762657, -0.1292216181755066, 0.19765408337116241, -0.0027419524267315865, -0.19548428058624268, 0.14071257412433624, -0.09362197667360306, 0.08864660561084747, 0.08055930584669113, 0.042446035891771317, -0.08684588968753815, 0.18782389163970947, 0.03935931995511055, 0.00859388243407011], [0.05231420695781708, 0.06870536506175995, -0.021051838994026184, -0.1498534083366394, 0.1648896187543869, 0.17351897060871124, -0.20740586519241333, 0.13352739810943604, 0.1341724991798401, 0.002786794910207391, -0.0828135535120964, -0.035348065197467804, 0.07886083424091339, -0.00859090592712164, 0.021860402077436447, -0.13155066967010498, -0.0316074900329113, -0.0925934687256813, 0.18770961463451385, -0.05186595767736435, 0.07470238953828812, -0.22962686419487, 0.026042452082037926, 0.02707688696682453, 0.13227197527885437, 0.0047683133743703365, -0.06482617557048798, -0.025406058877706528], [-0.3708138167858124, -0.0807061418890953, -0.008750603534281254, 0.24501249194145203, -0.16769208014011383, 0.0701245367527008, 0.17304718494415283, 0.01474700029939413, -0.024140169844031334, 0.18512392044067383, 0.20842570066452026, 0.08392339199781418, -0.06269001215696335, 0.044916898012161255, 0.09697721898555756, -0.14590007066726685, 0.03774689882993698, -0.22990639507770538, 0.21457970142364502, -0.03547050058841705, -0.008605544455349445, 0.0022076605819165707, -0.1360490620136261, 0.006557916756719351, -0.2006574273109436, 0.20916850864887238, 0.05406169965863228, 0.19023382663726807], [-0.2358139604330063, 0.0779915526509285, 0.1657143384218216, -0.12439754605293274, -0.1085081547498703, 0.03424399718642235, -0.07010137289762497, -0.09335705637931824, 0.028166094794869423, 0.18065038323402405, -0.13718244433403015, -0.061065204441547394, 0.12053978443145752, -0.11337148398160934, 0.09053345024585724, -0.2335473597049713, -0.011283664032816887, 0.08097728341817856, -0.050263237208127975, -0.09285745769739151, -0.03973124921321869, -0.1098228394985199, 0.19878743588924408, -0.08351118117570877, -0.13039293885231018, -0.10943929105997086, 0.03245188295841217, 0.00504689197987318], [-0.4402300715446472, 0.24234044551849365, -0.0870281457901001, -0.15351876616477966, -0.23360109329223633, -0.0049057877622544765, -0.06586992740631104, 0.01213904470205307, -0.0610995776951313, 0.019457826390862465, 0.05029970780014992, 0.19917309284210205, 0.17890888452529907, 0.14780716598033905, 0.11150748282670975, -0.14093944430351257, -0.1287650614976883, -0.006871022749692202, -0.10549434274435043, -0.04516969993710518, 0.15998101234436035, 0.08413401991128922, -0.052290819585323334, -0.04734047129750252, -0.011370565742254257, 0.04492805153131485, -0.14735601842403412, 0.05469486489892006], [0.33664369583129883, 0.06956767290830612, -0.07052003592252731, 0.010520466603338718, 0.10611660778522491, -0.0001359590096399188, -0.041798148304224014, 0.049487922340631485, 0.012452105060219765, 0.09928969293832779, -0.1430935561656952, -0.050509385764598846, 0.016727546229958534, -0.05784829333424568, -0.12443261593580246, -0.0887705609202385, -0.03694955259561539, 0.16327957808971405, 0.1785121113061905, 0.028147127479314804, 0.0976434126496315, 0.04757530987262726, -0.11405523121356964, 0.13001126050949097, 0.08549477159976959, -0.0027070052456110716, -0.058188799768686295, 0.06386950612068176], [-0.2712075412273407, 0.0017456464702263474, -0.16323301196098328, 0.04215715080499649, -0.28741443157196045, -0.09554530680179596, -0.13651308417320251, -0.13048915565013885, 0.028731079772114754, 0.014835594221949577, -0.11280161887407303, 0.11509235948324203, 0.0727090910077095, 0.04928663745522499, -0.01579412817955017, 0.1823723018169403, -0.08152830600738525, -0.13609953224658966, 0.20488621294498444, 0.10046245902776718, 0.02276165597140789, 0.04593280702829361, -0.08618433028459549, 0.03162907436490059, 0.33717554807662964, -0.011245574802160263, 0.11221089214086533, -0.05269196256995201], [-0.2102772444486618, 0.049713194370269775, -0.08071712404489517, -0.20976747572422028, 0.055410586297512054, 0.19576215744018555, -0.33875665068626404, -0.10556625574827194, 0.18755321204662323, 0.10183676332235336, -0.11931107193231583, -0.05699079483747482, 0.015762310475111008, 0.003724256530404091, -0.06874188780784607, 0.1470034420490265, 0.062024232000112534, -0.019782468676567078, 0.06516336649656296, -0.10128071159124374, 0.13901035487651825, -0.0808335393667221, -0.0853489488363266, -0.01863021031022072, 0.014822769910097122, 0.12048625946044922, -0.13186176121234894, -0.047675978392362595], [-0.12184194475412369, -0.026999643072485924, 0.11520732939243317, -0.07088865339756012, 0.062250565737485886, 0.06559089571237564, -0.10073306411504745, -0.3035736680030823, -0.04374407231807709, 0.27784043550491333, 0.1776631474494934, 0.00027961438172496855, 0.07987021654844284, -0.021348685026168823, -0.04897125065326691, -0.041740063577890396, -0.09128370881080627, -0.10647847503423691, -0.20995400846004486, 0.27307426929473877, -0.07415705919265747, 0.1408868134021759, -0.14648807048797607, -0.03061540052294731, -0.006254418753087521, -0.0602545291185379, -0.006599909160286188, -0.16230006515979767], [-0.39159104228019714, -0.12610302865505219, 0.024080345407128334, -0.13282598555088043, 0.04662609100341797, 0.09142672270536423, -0.18738771975040436, -0.2580586075782776, -0.130464568734169, 0.1602325588464737, 0.15107330679893494, -0.07709453999996185, -0.041781701147556305, -0.17213009297847748, -0.03314055874943733, 0.14779329299926758, 0.08219227939844131, -0.14401376247406006, 0.13788549602031708, -0.026891881600022316, 0.1117517501115799, -0.11821942776441574, 0.0256500281393528, 0.11336085200309753, 0.18164417147636414, 0.00673292949795723, -0.11435022950172424, 0.006136684212833643], [-0.3939268887042999, -0.03849676251411438, -0.07895547896623611, 0.20676882565021515, 0.08908041566610336, 0.10036143660545349, 0.1406407207250595, 0.007165085524320602, 0.06809922307729721, 0.018758920952677727, -0.08623403310775757, 0.042075760662555695, 0.1872837394475937, 0.025374935939908028, 0.04828716069459915, 0.012860030867159367, -0.11103560775518417, -0.11478494107723236, -0.047043655067682266, -0.030698804184794426, 0.16405966877937317, 0.05613410100340843, 0.23915685713291168, 0.06881041824817657, -0.2640511095523834, 0.018966320902109146, -0.0554027259349823, -0.02858791872859001], [0.08829629421234131, 0.13200370967388153, 0.1805022656917572, -0.25401756167411804, -0.09452872723340988, -0.08722327649593353, -0.02212139405310154, -0.04048639535903931, 0.0753571093082428, -0.007981046102941036, 0.09427779167890549, 0.0994848906993866, 0.3725408613681793, -0.15612205862998962, -0.06969176232814789, -0.0726400762796402, 0.06172357127070427, -0.009864559397101402, -0.21811321377754211, -0.04884674400091171, 0.032475266605615616, 0.046202369034290314, -0.014638517051935196, 0.054550137370824814, 0.3846035897731781, -0.04484957829117775, -0.15128958225250244, -0.33131760358810425], [-0.5072407126426697, -0.05390627682209015, 0.03130878880620003, 0.11323429644107819, -0.16206707060337067, 0.09970111399888992, 0.2284017950296402, 0.14104092121124268, -0.031831495463848114, 0.07287110388278961, -0.10543151199817657, 0.031910330057144165, -0.08109498769044876, -0.18107162415981293, 0.04116331785917282, 0.150108203291893, 0.05978797748684883, -0.31013956665992737, -0.09663306921720505, -0.055000584572553635, 0.11713738739490509, 0.06176980212330818, 0.056354276835918427, 0.1440778374671936, -0.06985887885093689, -0.03186380863189697, -0.003097916254773736, 0.05272657424211502], [-0.19919182360172272, -0.07647520303726196, -0.09377337992191315, -0.15114036202430725, 0.0374203696846962, 0.08134011179208755, -0.0723983570933342, 0.13240262866020203, -0.015945851802825928, 0.014148528687655926, 0.05171624943614006, -0.024870486930012703, 0.20317904651165009, 0.02005312219262123, 0.035479895770549774, 0.11005821079015732, 0.14878278970718384, -0.1266525536775589, 0.4402742385864258, -0.0033855189103633165, 0.07787834852933884, -0.06323512643575668, -0.13763613998889923, 0.0633457824587822, 0.4803091585636139, 0.08547091484069824, 0.06499099731445312, 0.03138037025928497], [0.18037328124046326, -0.20425871014595032, 0.002271258505061269, 0.05219174176454544, -0.06481901556253433, 0.015338826924562454, -0.09340803325176239, -0.0886678472161293, 0.004522561561316252, -0.05899824574589729, 0.12189733237028122, -0.011121613904833794, 0.01579982228577137, 0.053225453943014145, 0.056986451148986816, -0.10166339576244354, -0.09678133577108383, 0.1328713446855545, 0.08905331790447235, 0.06940839439630508, 0.021309632807970047, 0.03382750228047371, -0.06581530719995499, -0.08837447315454483, -0.18195028603076935, -0.0892600566148758, 0.10421054065227509, -0.0913197249174118], [-0.4209885001182556, -0.1829492598772049, 0.07405304163694382, 0.06815475225448608, -0.21223028004169464, -0.1341441571712494, 0.22634214162826538, 0.09935086220502853, -0.09227902442216873, 0.06758066266775131, -0.02973053604364395, 0.0774175375699997, 0.0032317477744072676, -0.07175090163946152, 0.04174631088972092, 0.08912530541419983, -0.03787446767091751, -0.1973048597574234, -0.10632463544607162, 0.21933375298976898, 0.12817782163619995, -0.061415690928697586, 0.095119409263134, -0.10578418523073196, 0.14609500765800476, -0.08133940398693085, -0.08355854451656342, -0.0798327699303627], [0.023503093048930168, -0.24972152709960938, 0.085475854575634, 0.28887617588043213, 0.007970474660396576, -0.020243115723133087, -0.15048417448997498, -0.015749264508485794, 0.0580807588994503, 0.29283568263053894, -0.1970202624797821, 0.17136266827583313, -0.1381700187921524, -0.3116883933544159, 0.005382846109569073, 0.28456905484199524, -0.008888013660907745, 0.07572729885578156, -0.013915888965129852, -0.03473154455423355, 0.07797154784202576, -0.05657969042658806, 0.12301266193389893, 0.1374964565038681, -0.2456679344177246, 0.0478331595659256, -0.13576427102088928, 0.09893873333930969], [-0.3344745934009552, 0.08584798872470856, 0.1977948248386383, -0.23134006559848785, 0.06911366432905197, -0.13320112228393555, -0.14315147697925568, -0.023741398006677628, 0.07796277850866318, 0.027247000485658646, -0.1282704472541809, 0.044212404638528824, 0.15990164875984192, 0.10980822890996933, -0.06482359766960144, -0.03608228638768196, 0.00874627847224474, -0.032518934458494186, -0.10532815009355545, 0.12186404317617416, -0.08652137964963913, 0.23266293108463287, -0.06893300265073776, -0.05148081108927727, 0.5202533006668091, 0.040142372250556946, 0.0016230475157499313, -0.09156987816095352], [0.3142150044441223, 0.15676045417785645, -0.11863908916711807, -0.1585947424173355, 0.0991934984922409, 0.07410701364278793, -0.2611731290817261, 0.029392367228865623, 0.06008906662464142, 0.06001799926161766, -0.007380749098956585, -0.033919136971235275, 0.02508130855858326, 0.05556944012641907, 0.02378842607140541, -0.36249423027038574, 0.24893908202648163, 0.15900321304798126, -0.1244286447763443, 0.009262690320611, -0.0005376661429181695, -0.227602019906044, 0.07111304253339767, 0.03301403298974037, -0.17010265588760376, 0.12619812786579132, -0.01609615609049797, 0.11909280717372894], [0.30675479769706726, -0.09952516853809357, 0.05816258117556572, 0.10357198864221573, -0.19553880393505096, -0.04677894711494446, 0.0013480144552886486, -0.013883505947887897, -0.09825793653726578, -0.022701671347022057, 0.1015147715806961, 0.04065240919589996, 0.08012672513723373, -0.07751431316137314, -0.1042376384139061, 0.08164942264556885, 0.020622650161385536, -0.030478836968541145, 0.01133218128234148, 0.049072328954935074, 0.10192609578371048, -0.011722768656909466, -0.026874655857682228, -0.12498051673173904, 0.10017143934965134, -0.002782384632155299, -0.055215492844581604, -0.18485592305660248], [-0.2893231511116028, -0.2065051794052124, 0.010202045552432537, 0.1079176813364029, 0.25147727131843567, -0.07107998430728912, -0.252010703086853, 0.009061682969331741, 0.03696637600660324, 0.18580056726932526, 0.3154197335243225, -0.06186148151755333, -0.1781286895275116, -0.3125576078891754, -0.08244932442903519, -0.2617095708847046, -0.2220054268836975, 0.05737315118312836, -0.0396086722612381, -0.0851261243224144, 0.022825662046670914, -0.05047726258635521, 0.06512761116027832, 0.007593532558530569, 0.06048811599612236, 0.104060597717762, 0.01340481173247099, 0.0791381374001503], [-0.30968719720840454, -0.37133973836898804, 0.1370643824338913, 0.3943672180175781, -0.28802037239074707, 0.05882507190108299, 0.19041743874549866, 0.08866492658853531, -0.1311507225036621, -0.10727032274007797, 0.13207319378852844, -0.04470374807715416, 0.061935894191265106, 0.2021796703338623, -0.007869808003306389, -0.19432510435581207, -0.13812905550003052, -0.13079209625720978, -0.04430393874645233, 0.005996335297822952, -0.03803021460771561, -0.09280252456665039, -0.04433545097708702, 0.05281718075275421, 0.07078249752521515, 0.022754138335585594, -0.08668792247772217, 0.09445969015359879], [-0.1712433397769928, 0.08090175688266754, -0.07247570902109146, 0.09912717342376709, 0.2685217559337616, 0.08278578519821167, -0.27956530451774597, 0.20627914369106293, -0.019597932696342468, -0.19380539655685425, 0.18400642275810242, -0.06843513250350952, 0.030100468546152115, 0.016201773658394814, -0.05107301101088524, -0.02428472228348255, 0.2237960249185562, 0.17469513416290283, 0.02201692946255207, 0.16912131011486053, 0.00876222550868988, -0.23221857845783234, 0.015709778293967247, 0.06554359197616577, 0.19910815358161926, 0.0019221939146518707, -0.06593462079763412, 0.23905156552791595], [-0.4477616548538208, 0.10727470368146896, 0.1718912571668625, 0.36236572265625, 0.0691756159067154, -0.0009301628451794386, 0.0006628039991483092, 0.14818811416625977, -0.021838057786226273, -0.263793021440506, -0.0929742157459259, 0.06533448398113251, 0.0380651131272316, 0.12637490034103394, -0.011150876991450787, -0.18393205106258392, 0.1688852459192276, -0.23562943935394287, 0.014885783195495605, -0.15739645063877106, 0.09780701249837875, 0.007020008750259876, 0.08809787780046463, 0.12014122307300568, -0.18514004349708557, 0.08003255724906921, -0.08133556693792343, 0.0427890345454216], [-0.052569594234228134, 0.1421058475971222, 0.11549679934978485, -0.14274939894676208, -0.08719126135110855, 0.0268140509724617, -0.05280086398124695, -0.08828064054250717, 0.10943932086229324, -0.14921875298023224, -0.1191238984465599, 0.06103917583823204, -0.4438115954399109, 0.10732577741146088, -0.008229319006204605, 0.04680931195616722, -0.13533401489257812, -0.01889934577047825, 0.08016220480203629, -0.041537050157785416, -0.007250676397234201, 0.109626404941082, -0.040070436894893646, 0.1270706057548523, -0.5983121395111084, -0.11959032714366913, -0.0033748215064406395, 0.10813819617033005], [0.07264994084835052, 0.07402604073286057, 0.015912039205431938, -0.10200463980436325, 0.10169336944818497, 0.062011320143938065, -0.25508034229278564, 0.010992745868861675, 0.1411886066198349, 0.010260529816150665, 0.19390204548835754, 0.04428533837199211, 0.0135696642100811, -0.005594483111053705, -0.10375416278839111, 0.10347696393728256, 0.09952094405889511, 0.10703480988740921, 0.10626678168773651, 0.09418688714504242, -0.04365080967545509, -0.17374981939792633, -0.12596584856510162, 0.1281799077987671, -0.1654926985502243, -0.039995234459638596, -0.1528521329164505, -0.11595238000154495], [0.42290160059928894, -0.06522175669670105, 0.03652990981936455, 0.12405364960432053, 0.12743929028511047, -0.08380373567342758, 0.29501116275787354, 0.028026936575770378, 0.06478647142648697, 0.018784387037158012, 0.023618994280695915, -0.07266592234373093, -0.17018333077430725, -0.08985202759504318, -0.1108410507440567, 0.10683241486549377, 0.1769629716873169, -0.10362227261066437, -0.2173103541135788, -0.00796932727098465, 0.125979483127594, 0.1805488020181656, 0.02152187190949917, 0.0867319405078888, -0.20861484110355377, 0.06554155796766281, 0.08629196137189865, -0.03421129658818245], [0.23006093502044678, -0.14623281359672546, 0.014096428640186787, 0.20360025763511658, -0.07390618324279785, -0.08843591064214706, -0.035220567137002945, -0.1667647510766983, 0.04534516856074333, 0.21887530386447906, -0.05708274617791176, -0.09697134047746658, -0.0965295359492302, -0.1938396543264389, -0.11146286875009537, -0.0969259962439537, 0.18441356718540192, 0.10129615664482117, 0.03053067997097969, -0.1864454448223114, 0.044158462435007095, -0.015609820373356342, 0.17620430886745453, 0.046549953520298004, 0.04214368388056755, -0.022632811218500137, 0.0033819011878222227, 0.07759003341197968], [-0.31237468123435974, 0.025913458317518234, 0.04197922348976135, 0.1223485991358757, 0.04064930975437164, 0.07620836794376373, -0.03158920630812645, -0.0168406181037426, 0.06470052897930145, 0.21087725460529327, 0.051430169492959976, 0.07225235551595688, -0.328860342502594, -0.12095765024423599, 0.0961226150393486, -0.06890332698822021, 0.2337597757577896, -0.04992968216538429, -0.17587223649024963, -0.08308053761720657, -0.07021007686853409, 0.05635669454932213, 0.2675747275352478, -0.054113809019327164, -0.014387222938239574, -0.14834699034690857, 0.03137335553765297, -0.12659868597984314], [-0.17884543538093567, 0.10071886330842972, -0.03727416694164276, -0.04416903853416443, -0.12695588171482086, 0.031806111335754395, -0.10917294025421143, -0.1564825177192688, 0.04682866483926773, 0.03509456291794777, -0.05158395692706108, 0.09236226230859756, 0.17081457376480103, 0.06945505738258362, 0.06792674958705902, 0.025461306795477867, 0.18596529960632324, -0.07226082682609558, -0.19671280682086945, -0.1722499430179596, 0.03681054338812828, -0.1768684983253479, -0.17868319153785706, -0.0368419848382473, -0.27109572291374207, 0.19282160699367523, -0.018402285873889923, -0.10815868526697159], [0.1288449764251709, 0.03924918174743652, -0.09851504862308502, 0.020223496481776237, -0.16023394465446472, -0.008991390466690063, 0.07645219564437866, 0.013072284869849682, 0.041842903941869736, 0.030316751450300217, 0.20690634846687317, 0.07073890417814255, 0.06692129373550415, 0.050308991223573685, -0.058779001235961914, -0.15043075382709503, -0.018249109387397766, 0.00539937661960721, 0.06930022686719894, 0.09433677792549133, 0.03880448266863823, 0.004492111038416624, -0.06927437335252762, -0.0947960913181305, -0.04853907227516174, 0.10057839751243591, -0.15322306752204895, -0.05950138717889786], [-0.18038420379161835, -0.2279995083808899, 0.10873579233884811, 0.15216755867004395, -0.18369434773921967, -0.014006194658577442, 0.03224373981356621, 0.08904602378606796, -0.1460261195898056, 0.16366511583328247, 0.29229918122291565, -0.11316437274217606, -0.13658465445041656, 0.11606855690479279, -0.1058393269777298, -0.3310721516609192, 0.03792264312505722, -0.0021455534733831882, -0.11836860328912735, 0.22678035497665405, 0.03700082376599312, 0.04469131678342819, -0.28429141640663147, 0.06757384538650513, -0.12059366703033447, -0.09781012684106827, -0.15968988835811615, -0.05000186711549759], [-0.09489911049604416, -0.12912188470363617, 0.1740303784608841, 0.15562127530574799, -0.12198618054389954, -0.007808830589056015, 0.05477755889296532, -0.19514448940753937, -0.05583755299448967, 0.3801383078098297, -0.041789695620536804, 0.06996794044971466, -0.012213677167892456, -0.2171241194009781, 0.011077413335442543, -0.01593010313808918, -0.2873622477054596, -0.0979461669921875, 0.13227824866771698, -0.29267197847366333, 0.00432589091360569, -0.046595584601163864, 0.03719596192240715, 0.019662780687212944, 0.010645558126270771, 0.49585065245628357, -0.08323211967945099, -0.10973981022834778], [0.20881927013397217, 0.08034241944551468, 0.023349694907665253, 0.07931935787200928, 0.07285643368959427, -0.15494555234909058, -0.16368839144706726, -0.10941723734140396, -0.02850881777703762, 0.21859405934810638, 0.011848116293549538, -0.0821099728345871, 0.007580817677080631, 0.2982688248157501, -0.10229338705539703, -0.15369457006454468, -0.015385844744741917, 0.15439164638519287, -0.19904278218746185, 0.017371904104948044, -0.08771508932113647, 0.12553314864635468, -0.37114545702934265, -0.14253775775432587, -0.26523974537849426, 0.21168772876262665, -0.018530454486608505, -0.08742369711399078], [-0.40713658928871155, -0.2831993103027344, 0.19258321821689606, 0.28412753343582153, -0.18443582952022552, -0.004696983844041824, 0.2015799582004547, -0.037740807980298996, 0.08554939180612564, -0.019919661805033684, -0.038219548761844635, -0.05509784445166588, -0.08573991805315018, -0.03623039647936821, -0.1002289354801178, 0.05622278153896332, -0.029441053047776222, -0.027562052011489868, 0.13609883189201355, 0.06308100372552872, -0.05163794010877609, -0.06636129319667816, 0.1142260804772377, 0.11990853399038315, 0.030793914571404457, 0.06665749102830887, 0.040884338319301605, -0.0799630805850029], [-0.4660412073135376, -0.19728881120681763, 0.08634242415428162, 0.2582904100418091, -0.13468880951404572, -0.20311826467514038, 0.011304745450615883, 0.20514033734798431, -0.04702435061335564, -0.06326765567064285, 0.06233958527445793, 0.045130468904972076, 0.03898443281650543, -0.08136222511529922, -0.07050002366304398, 0.13639794290065765, 0.016362085938453674, -0.12408964335918427, 0.007325826678425074, 0.013705737888813019, 0.016676120460033417, 0.09126342833042145, 0.04845576733350754, -0.1276281177997589, 0.02986641228199005, 0.044039543718099594, 0.002183417556807399, -0.10475002974271774], [-0.51347815990448, -0.12080738693475723, -0.18117983639240265, 0.17009137570858002, -0.16200250387191772, 0.0356319323182106, -0.010285139083862305, -0.19674858450889587, -0.12707990407943726, 0.1719551980495453, 0.1000584065914154, 0.005536400247365236, -0.08212975412607193, -0.2031831443309784, 0.09719540923833847, 0.01864493265748024, 0.05761374533176422, -0.18974021077156067, 0.00887297187000513, -0.028150439262390137, 0.05650496855378151, -0.06579296290874481, 0.07262758165597916, -0.10120755434036255, -0.08223524689674377, -0.09676621854305267, 0.03065764345228672, 0.10028354078531265], [-0.29206258058547974, 0.152336984872818, -0.14505049586296082, -0.12917999923229218, -0.04507195204496384, -0.025477195158600807, -0.1926327645778656, -0.023763542994856834, 0.12444397807121277, 0.0170435830950737, 0.14539065957069397, 0.07699736952781677, 0.02831057645380497, 0.07979699224233627, -0.08249630033969879, 0.05765494704246521, 0.0765778198838234, -0.09924924373626709, 0.13521593809127808, -0.03477635979652405, -0.0418766625225544, -0.1428467333316803, -0.025228960439562798, 0.11397962272167206, -0.08676041662693024, 0.017027786001563072, -0.10495609790086746, -0.019399655982851982], [-0.3009908199310303, 0.057027362287044525, 0.04347074404358864, 0.07661691308021545, -0.006083842366933823, -0.06363581120967865, -0.3357473909854889, 0.2867257297039032, 0.060940589755773544, -0.17780084908008575, 0.04704751819372177, 0.08791834115982056, -0.05607909709215164, -0.16916553676128387, -0.028256935998797417, -0.092026486992836, -0.05122700333595276, 0.019625699147582054, 0.2281654328107834, 0.09741371124982834, 0.13065390288829803, -0.11071392148733139, 0.006480987183749676, 0.0629969984292984, -0.4698675572872162, -0.04619424417614937, -0.08274082839488983, -0.03381058946251869], [0.010810652747750282, -0.20716124773025513, 0.049998849630355835, -0.028469672426581383, 0.0285202506929636, -0.0015170235419645905, -0.2176254838705063, -0.020852210000157356, 0.08297393471002579, 0.025100357830524445, 0.24884572625160217, 0.11894571036100388, -0.015058521181344986, -0.13630211353302002, 0.03181948512792587, 0.02406885288655758, 0.1244988813996315, 0.17474576830863953, -0.21504303812980652, 0.33857110142707825, -0.015146310441195965, -0.2547230124473572, -0.19298897683620453, 0.011760205961763859, -0.13674511015415192, -0.3934961259365082, -0.07019540667533875, -0.15896356105804443]], "b": [-0.033108435571193695, -0.02307458408176899, 0.2205272614955902, -0.10041282325983047, -0.023807968944311142, -0.043277937918901443, -0.14673225581645966, 0.07953247427940369, 0.09651193022727966, 0.002588337752968073, 0.04556431621313095, 0.1616847813129425, 0.02505582943558693, 0.22739219665527344, 0.18356186151504517, 0.0009428464691154659, -0.1114063486456871, -0.13049498200416565, -0.007387151475995779, 0.04189005121588707, -0.05629453435540199, -0.1255008727312088, -0.1992950588464737, -0.21574878692626953, 0.10651558637619019, 0.1267521232366562, 0.03166823461651802, -0.03916041925549507, -0.04121216759085655, -0.05161115527153015, 0.01113940216600895, 0.05087898671627045, 0.24462538957595825, -0.17320849001407623, 0.30117207765579224, -0.01729094795882702, -0.13228973746299744, 0.004276996478438377, -0.03542860969901085, -0.20387406647205353, 0.034350451081991196, -0.15983963012695312, -0.0004980727680958807, 0.027379263192415237, 0.09328199923038483, -0.11449093371629715, 0.06592603027820587, 0.09375473111867905, 0.1420971155166626, -0.16945891082286835, 0.14651748538017273, 0.025632735341787338, 0.033182889223098755, -0.14008833467960358, 0.05559324473142624, -0.00611522002145648, 0.05786416679620743, 0.0308377742767334, 0.05781456455588341, -0.03991546481847763, -0.023352928459644318, -0.07402675598859787, 0.07963046431541443, 0.1156793162226677, 0.0651843324303627, 0.04435724392533302, 0.05483178794384003, 0.14134353399276733, -0.0993635430932045, 0.25010597705841064, -0.010747245512902737, 0.2087610810995102, -0.15916302800178528, -0.19867105782032013, -0.05547237768769264, -0.09411101043224335, 0.05162542685866356, -0.011102737858891487, -0.1787840873003006, -0.17433376610279083, 0.10819634795188904, -0.024940283969044685, -0.04977068677544594, -0.13454341888427734, -0.09702251106500626, 0.007148465141654015, 0.024401014670729637, -0.09960578382015228, -0.09087640792131424, 0.049451861530542374, 0.04570157080888748, -0.11585375666618347, 0.12055522948503494, 0.018181612715125084, -0.09328436851501465, -0.08207601308822632, -0.15213355422019958, 0.16320045292377472, -0.03102204017341137, -0.06509768217802048, 0.13055768609046936, -0.004184134304523468, -0.07572975009679794, 0.13315007090568542, -0.03421870619058609, -0.003531381953507662, 0.08370555192232132, -0.041674721986055374, 0.052673984318971634, -0.03350439295172691, -0.02382238768041134, -0.05319373682141304, -0.15811708569526672, 0.016101032495498657, 0.003684631548821926, -0.1795007288455963, -0.037326399236917496, -0.12718196213245392, -0.14314912259578705, 0.040229681879282, -0.1363442838191986, -0.11503041535615921, 0.24522948265075684, 0.29458561539649963, 0.12879182398319244, -0.0463305227458477, -0.11729619652032852, -0.063931904733181]}, {"w": [[0.07213500887155533, 0.09300701320171356, -0.043975431472063065, 0.03976283594965935, 0.03341556340456009, 0.0782209038734436, -0.03813139721751213, 0.049550026655197144, -0.024205567315220833, -0.0419926717877388, -0.013804442249238491, -0.009529734961688519, 0.05338110402226448, -0.053096313029527664, -0.03259703889489174, -0.03040846809744835, 0.04207141697406769, 0.022144697606563568, -0.039202623069286346, 0.00861651636660099, 0.0391647145152092, -0.04845390468835831, -0.008371073752641678, 0.010806321166455746, -0.032272953540086746, 0.03798777610063553, -0.003969275392591953, 0.03771562874317169, -0.025040777400135994, 0.054396603256464005, -0.0051279026083648205, -0.03771520033478737, 0.0024719354696571827, -0.06784556061029434, 0.05566383898258209, -0.008012758567929268, -0.10739965736865997, 0.04205445200204849, -0.010909081436693668, 0.028989780694246292, -0.025854112580418587, -0.008822853676974773, -0.07652521133422852, -0.01780717261135578, 0.08477526903152466, -0.04713242128491402, 0.05404281988739967, 0.05126483365893364, 0.03853745758533478, -0.0875980406999588, -0.013842535205185413, 0.036285415291786194, -0.01771385781466961, 0.0034227296710014343, 0.019143644720315933, 0.01911698654294014, 0.012345791794359684, -0.0008263241034001112, 0.006838972680270672, 0.10354363173246384, -0.0853412002325058, 0.10117363184690475, -0.03058878518640995, -0.04281487688422203, -0.03733613342046738, 0.04975173622369766, 0.07099416851997375, 0.023669974878430367, -0.028030218556523323, 0.10373062640428543, -0.07799547165632248, -0.0950636938214302, 0.0016363291069865227, -0.025776367634534836, 0.03413081169128418, 0.041133590042591095, -0.005064396653324366, 0.027722513303160667, -0.13295209407806396, -0.12298170477151871, 0.06871109455823898, -0.021835681051015854, 0.015468595549464226, 0.10543038696050644, 0.03664473444223404, -0.0068029058165848255, -0.009185930714011192, -0.02157425321638584, 0.026647301390767097, -0.005251964088529348, -0.07635556161403656, -0.016396567225456238, -0.07203497737646103, 0.02339937537908554, -0.03481593355536461, -0.07191412150859833, -0.08433561027050018, 0.0022834129631519318, -0.0016988678835332394, 0.03503284230828285, 0.05388140305876732, -0.008220423944294453, 0.12981107831001282, -0.04568910226225853, 0.07229594886302948, -0.0977705642580986, 0.06922227144241333, 0.03803505375981331, 0.03610490635037422, 0.01675770804286003, -0.02257539890706539, -0.05530403554439545, -0.06435550004243851, 0.029348576441407204, -0.050935789942741394, -0.03911570459604263, -0.029612045735120773, 0.010062060318887234, 0.07824291288852692, 0.08169006556272507, -0.08532803505659103, -0.0052770874463021755, 0.030002698302268982, -0.11443901807069778, -8.048327435972169e-05, -0.028186244890093803, 0.0025850492529571056, 0.06365253031253815], [-0.1960088461637497, 0.1522454470396042, -0.01023936364799738, -0.03019743598997593, -0.218968003988266, -0.09420944005250931, -0.15778698027133942, -0.09943895041942596, -0.146470844745636, -0.027810659259557724, -0.35683465003967285, -0.03949214145541191, -0.0994933545589447, -0.0276260357350111, 0.0643114224076271, 0.004851554520428181, -0.1111387237906456, 0.10453274101018906, -0.19544637203216553, -0.15585054457187653, 0.08589016646146774, -0.21359790861606598, 0.08095370978116989, 0.2518889009952545, -0.04490835964679718, 0.043213795870542526, -0.10371672362089157, -0.008630714379251003, -0.04673238843679428, 0.023320259526371956, 0.11177480220794678, -0.14262880384922028, 0.08465372771024704, -0.284225732088089, 0.046526022255420685, -0.02203797549009323, 0.009936925955116749, -0.021779583767056465, -0.08628976345062256, 0.024753089994192123, -0.015889683738350868, -0.09467969834804535, 0.1622602492570877, -0.12608087062835693, -0.002483026124536991, -0.009524808265268803, -0.43017399311065674, -0.04649903252720833, 0.029846981167793274, -0.46717607975006104, 0.057184234261512756, 0.1261981725692749, 0.2100810706615448, 0.023534702137112617, -0.05325914919376373, -0.22567126154899597, 0.028626590967178345, -0.08510208129882812, -0.028911501169204712, 0.061236172914505005, 0.12092206627130508, -0.13594074547290802, 0.09293053299188614, -0.16282878816127777, 0.05886882543563843, -0.06924454867839813, 0.025319209322333336, -0.16347092390060425, -0.22536197304725647, -0.15170574188232422, -0.08946248143911362, -0.01740310899913311, 0.037761032581329346, -0.0778229609131813, 0.015914523974061012, -0.03290025517344475, -0.10614509880542755, 0.04189588874578476, 0.10720416158437729, -0.32021385431289673, 0.02079402469098568, -0.0022756680846214294, -0.1941407024860382, -0.22890634834766388, 5.475980125903877e-40, -0.03472153842449188, 0.1444459706544876, 0.16584014892578125, 0.002106317551806569, -0.03346531093120575, -0.34396272897720337, 0.03857782483100891, -0.05195368081331253, -0.019368071109056473, -0.04775915667414665, -0.024192770943045616, -0.21252627670764923, 0.009646649472415447, 0.16123008728027344, -0.3170289695262909, -0.11703040450811386, 0.004249402321875095, -0.022255882620811462, 0.09718696773052216, -0.08161111921072006, -0.09547195583581924, -0.04890633374452591, -0.05714712664484978, -0.12841378152370453, -0.12971727550029755, -0.037201881408691406, -0.0234590582549572, 0.2548618018627167, 0.025954704731702805, -0.00706508569419384, 0.027907202020287514, 0.12190411239862442, -0.34057536721229553, -0.12822532653808594, -0.34375640749931335, -0.06367958337068558, -0.3118842840194702, -0.0595359168946743, 0.04802362993359566, 0.06498081237077713, -0.015772579237818718, 0.07818206399679184, -0.34842556715011597], [0.21246632933616638, -0.14407813549041748, -0.11083252727985382, -0.0931069627404213, 0.08415662497282028, -0.3544355630874634, 0.19170156121253967, 0.021362099796533585, -0.08463131636381149, -0.0488271564245224, -0.15392325818538666, -0.2621057331562042, 0.017873678356409073, -0.168282151222229, -0.17026592791080475, -0.009233045391738415, -0.003031771630048752, -0.01992562785744667, 0.04936149716377258, 0.011315759271383286, -0.10485702008008957, 0.03184255212545395, -0.1386725902557373, 0.028957370668649673, -0.049766190350055695, -0.01856621913611889, 0.2647172212600708, 0.18038363754749298, -0.09111760556697845, 0.029103389009833336, 0.09754540771245956, 0.02191249281167984, 0.06605052202939987, -0.10588519275188446, -0.0751010999083519, -0.011109385639429092, -0.028327634558081627, -0.21358957886695862, -0.12013761699199677, 0.04092036932706833, 0.034260280430316925, 0.006933419965207577, -0.10086043179035187, -0.00439155288040638, 0.10591400414705276, -0.03930795192718506, -0.20957309007644653, 0.037411704659461975, -0.09200870245695114, 0.02271593175828457, 0.2087947577238083, -0.483220636844635, -0.12676864862442017, 0.003702479414641857, -0.10944949835538864, -0.07243188470602036, -0.029987862333655357, 0.05939239636063576, 0.1290741264820099, -0.003217780962586403, -0.03795015439391136, 0.02657155692577362, -0.07906389981508255, -0.23716802895069122, -0.16908513009548187, 0.3163102865219116, -0.13303504884243011, 0.06675218790769577, 0.030550960451364517, -0.10120946913957596, 0.10592524707317352, -0.07039285451173782, 0.017471620813012123, -0.05704325810074806, 0.11176969110965729, 0.13352583348751068, -0.0625467598438263, -0.04181308671832085, 0.06699135899543762, -0.19368314743041992, -0.2831072509288788, 0.026252243667840958, -0.07042981684207916, -0.19351762533187866, 0.11524225026369095, 0.050865210592746735, -0.297500342130661, -0.1731395274400711, -0.09436096996068954, 0.004609651397913694, 0.009126920253038406, -0.08226338773965836, -0.11383692920207977, -0.019801700487732887, 0.15581201016902924, -0.007607867009937763, -0.022604556754231453, 0.1057407483458519, -0.10357269644737244, 0.1074673980474472, -0.18560382723808289, 0.18085110187530518, -0.03907354548573494, -0.03749346733093262, -0.24035078287124634, 0.19429101049900055, -0.02066117525100708, 0.03191373124718666, 0.10729441791772842, -0.015357705764472485, 0.05773194879293442, 0.043776024132966995, -0.09181851893663406, 0.04872344061732292, -0.13890357315540314, -0.03801542893052101, -0.1122547909617424, -0.11082082986831665, 0.09954635798931122, -0.03245338425040245, -0.017748402431607246, -0.21021002531051636, 0.05007625371217728, -0.0055279782973229885, -0.15677064657211304, -0.06255491077899933, -0.19916211068630219, 0.07465451210737228], [-0.04552266374230385, -0.06573279947042465, 0.0023232644889503717, -0.07066211104393005, -0.08234165608882904, -0.13729174435138702, 0.007842128165066242, -0.048244964331388474, -0.013382049277424812, -0.0645497664809227, 0.10730032622814178, 0.14513765275478363, -0.04392446577548981, 0.07983603328466415, 0.051967717707157135, 0.024055512621998787, 0.10535065829753876, 0.024303467944264412, -0.02489909715950489, -0.08663716912269592, 0.034119874238967896, 0.07817835360765457, -0.10743015259504318, -0.08241439610719681, 0.09197602421045303, 0.0032152256462723017, -0.028596889227628708, -0.07131834328174591, 0.03904426470398903, 0.07737163454294205, 0.039264701306819916, 0.007000465411692858, 0.06668583303689957, -0.045037753880023956, 0.04839291796088219, -0.029707428067922592, -0.11244037002325058, -0.03691593557596207, 0.04570521041750908, 0.013784637674689293, -0.07587886601686478, -0.019813107326626778, 0.11035480350255966, -0.03402673080563545, 0.008188880980014801, -0.09073161333799362, -0.05581728741526604, -0.08797333389520645, -0.024189939722418785, -0.1655082106590271, 0.04619315639138222, -0.014570987783372402, -0.04474831372499466, -0.08381548523902893, 0.033607546240091324, -0.00029274082044139504, 0.035011954605579376, 0.013708238489925861, -0.04805561527609825, -0.08545047044754028, -0.0482746884226799, -0.04292001202702522, 0.015475231222808361, 0.1343718320131302, 0.08957503736019135, 0.048782069236040115, 0.035501305013895035, 0.07708513736724854, 0.07690823823213577, -0.03264748305082321, -0.1596808284521103, 0.06533811241388321, -0.1149303987622261, -0.02872958593070507, -0.14791817963123322, 0.011405638419091702, -0.005566177424043417, 0.09981894493103027, 0.0550655834376812, 0.11106458306312561, 0.055654291063547134, -0.17618735134601593, 0.005467040464282036, 0.01961418427526951, -0.0627400130033493, -0.00037590216379612684, 0.017052439972758293, -0.02681325189769268, -0.10594575852155685, -0.033274199813604355, 0.024905450642108917, -0.03824659436941147, 0.22423343360424042, -0.029093923047184944, 0.0609021931886673, 0.061062756925821304, 0.07621356844902039, 0.02418963797390461, 0.06011568009853363, -0.08396663516759872, -0.02982921525835991, -0.0359649695456028, 0.004264857620000839, 0.08287659287452698, -0.031197503209114075, -0.012725571170449257, 0.1390056312084198, -0.06630177795886993, -0.06639117747545242, 0.04996248334646225, 0.05726875364780426, 0.021972522139549255, -0.020823020488023758, 0.06087654456496239, -0.08189798146486282, 0.06492121517658234, -0.1112634614109993, 0.05603434145450592, -0.07232888042926788, -0.0630863681435585, -0.2112506628036499, 0.1050989031791687, 0.03956214338541031, 0.13095490634441376, 0.10540735721588135, 0.08467631787061691, -0.13370387256145477, -0.07756194472312927], [-0.05317936837673187, 0.06304511427879333, 0.0698569044470787, 0.12336239963769913, 0.1541517823934555, -0.03553258627653122, 0.04538825899362564, 0.02440742217004299, 0.04122675210237503, -0.026335464790463448, 0.015473073348402977, -0.05980893597006798, 0.017055338248610497, 0.0016038821777328849, 0.006971601862460375, -0.052863866090774536, -0.007013542577624321, -0.06522224843502045, 0.03035888634622097, -0.08370187878608704, -0.10933411121368408, 0.010462332516908646, 0.025130288675427437, -0.04192395880818367, 0.07667893916368484, 0.051641449332237244, 0.053411584347486496, -0.06534726172685623, -0.07905681431293488, 0.028210537508130074, 0.012844881042838097, -0.046241018921136856, 0.04829900711774826, -0.08713657408952713, 0.12780331075191498, 0.0770488902926445, 0.0029221344739198685, -0.1054333820939064, -0.03817974776029587, -0.06288155913352966, 0.04875757545232773, 0.11862514168024063, -0.053201429545879364, 0.05423758551478386, 0.016122277826070786, 0.0038217599503695965, 0.12110242992639542, 0.024784637615084648, -0.11797334998846054, 0.003427833551540971, -0.06218697130680084, -0.10281158983707428, 0.02259095385670662, 0.024369964376091957, -0.06045824661850929, 0.025354692712426186, -0.09012562781572342, 0.04632168263196945, -0.10790155827999115, 0.014787658117711544, 0.06226309388875961, -0.025337927043437958, 0.046108558773994446, -0.041323356330394745, -0.08982854336500168, 0.05167311802506447, -0.13224230706691742, 0.024872003123164177, 0.10021056234836578, 0.07132016122341156, -0.10477790236473083, 0.06552986055612564, -0.058570388704538345, -0.03450886532664299, 0.0950617864727974, -0.080286905169487, 0.09212060272693634, 0.031446680426597595, 0.17614410817623138, -0.14549729228019714, 0.04526842013001442, 0.01609165407717228, -0.04586203768849373, 0.021855851635336876, 0.0753253698348999, -0.039506711065769196, -0.032318245619535446, -0.023062758147716522, -0.05798087269067764, 0.04438900202512741, 0.039297789335250854, -0.0956292673945427, -0.018724927678704262, 0.05407058075070381, 0.09539870172739029, 0.020653055980801582, -0.04928240552544594, -0.020737307146191597, -0.016979539766907692, -0.08357401937246323, 0.015790730714797974, 0.011631425470113754, -0.09848229587078094, 0.061311617493629456, -0.16384410858154297, 0.058974601328372955, 0.09322283416986465, -0.06888958811759949, -0.027537981048226357, -0.003903668839484453, 0.026306819170713425, 0.16934601962566376, 0.015290494076907635, -0.09206218272447586, -0.0926261618733406, -0.07726527005434036, -0.02838403545320034, 0.08521956950426102, -0.05160060524940491, -0.014895488508045673, 0.09094256162643433, 0.07132450491189957, -0.00563135277479887, -0.035160474479198456, 0.020345931872725487, -0.05258496105670929, -0.07287213951349258, 0.03447067737579346], [-0.041677072644233704, -0.049848031252622604, -0.013093925081193447, 0.01672842539846897, 0.05880684405565262, -0.07266517728567123, 0.04724100977182388, -0.060623619705438614, 0.08702966570854187, -0.018375221639871597, -0.02137448824942112, 0.022108694538474083, -0.04177147150039673, 0.011976074427366257, 0.1387585997581482, 0.1565566509962082, 0.07341030240058899, 0.016258349642157555, 0.015981435775756836, -0.1010458916425705, -0.07382155954837799, 0.07188289612531662, 0.012735019437968731, 0.15449419617652893, -0.06521125882863998, 0.1256483942270279, -0.16250410676002502, -0.013844559900462627, 0.009921325370669365, 0.10204727947711945, 0.07370718568563461, -0.20381519198417664, 0.02608770877122879, -0.06799501925706863, 0.034936174750328064, 0.03519382327795029, 0.007123754825443029, 0.06292372196912766, 0.016238780692219734, -0.07906685024499893, -0.00898035429418087, 0.06887821853160858, 0.004479702096432447, 0.04019063711166382, -0.1316804438829422, 0.1639581173658371, -0.060256700962781906, 0.07713411748409271, -0.016180042177438736, -0.18589675426483154, 0.02289479970932007, 0.04817608371376991, 0.0883917286992073, 0.08501484245061874, -0.005813521798700094, 0.0435839407145977, -0.01892448402941227, -0.05979784205555916, 0.0033956326078623533, 0.03613878786563873, -0.016168350353837013, -0.14983530342578888, 0.071009561419487, -0.0027822016272693872, 0.12163364142179489, 0.05192350596189499, 0.10806836187839508, -0.09336172789335251, -0.044415656477212906, 0.07757638394832611, -0.025776486843824387, 0.0025186454877257347, -0.07790274173021317, 0.08526676893234253, 0.04854610189795494, -0.11115644872188568, -0.02815404161810875, -0.16281092166900635, 0.06298860907554626, 0.18905995786190033, 0.11880175769329071, -0.11131157726049423, -0.1404453068971634, -0.10935841500759125, -0.046543896198272705, -0.04831858351826668, 0.13576900959014893, 0.011539198458194733, 0.11386919766664505, -0.14782822132110596, 0.15502877533435822, -0.01908257231116295, 0.07393054664134979, 0.04357598349452019, -0.05391602963209152, -0.08720643073320389, -0.05752672255039215, 0.03609573468565941, 0.026306355372071266, -0.040662720799446106, 0.1050790324807167, -0.029233921319246292, -0.01701885648071766, 0.057781144976615906, -0.13586461544036865, -0.1056283712387085, -0.11131875216960907, -0.10377072542905807, 0.07996456325054169, -0.025390826165676117, 0.06441792100667953, -0.006587714422494173, 0.004562354646623135, -0.06097174808382988, 0.027882752940058708, -0.026295572519302368, 0.031233182176947594, -0.09591303020715714, 0.03348900005221367, -0.03884114697575569, 0.17476001381874084, -0.0318351574242115, 0.07213376462459564, -0.07755846530199051, 0.1378650814294815, 0.014591670595109463, 0.026838013902306557, 0.08516411483287811], [0.05195878446102142, -0.020141813904047012, 0.04401080310344696, -0.010938231833279133, -0.03886358439922333, 0.04134301096200943, -0.005878387484699488, -0.07572311908006668, 0.010666356422007084, 0.0186366755515337, -0.012202356941998005, -0.019856341183185577, -0.01886668987572193, -0.031716808676719666, 0.04923718795180321, -0.02794797532260418, -0.011699333786964417, -0.08701187372207642, 0.0409202054142952, 0.013098187744617462, -0.020721562206745148, 0.0005290976259857416, 0.026367003098130226, -0.043257903307676315, -0.005243236664682627, 0.00729443971067667, 0.03726085647940636, -0.012485641054809093, -0.02667056769132614, -0.009806710295379162, 0.044795922935009, 0.003388651879504323, 0.056561462581157684, 0.0536891371011734, 0.10641561448574066, 0.023857200518250465, -0.01445172168314457, 0.03745708614587784, -0.03243381530046463, 0.007663431577384472, 0.04332250356674194, 0.034712694585323334, -0.050173401832580566, -0.019834404811263084, 0.018212636932730675, 0.010683798231184483, -0.009697497822344303, -0.038915686309337616, 0.027340862900018692, 0.06100872904062271, 0.013378038071095943, -0.008436041884124279, 0.044304024428129196, 0.005794696509838104, -0.03375975415110588, -0.004464701283723116, -0.06699087470769882, -0.018476590514183044, 0.013511838391423225, 0.009863466024398804, -0.02255554124712944, -0.05256393924355507, -0.02366843819618225, -0.03190154954791069, 0.033362213522195816, -0.011718062683939934, 0.03082176297903061, 0.00711421063169837, 0.008371222764253616, 0.0925457552075386, -0.007061545737087727, 0.10632216930389404, -0.0030629143584519625, -0.042112648487091064, 0.014777883887290955, -0.03509759530425072, -0.013166447170078754, -0.04676656424999237, -0.0035193623043596745, -0.005504687782377005, -0.040473125874996185, -0.03884165734052658, 0.04593439772725105, -0.014542930759489536, 0.0009734766208566725, 0.026652252301573753, -0.019719108939170837, -0.026575656607747078, -0.009871948510408401, 0.05535449832677841, -0.011256788857281208, 0.0043925074860453606, 0.03527164086699486, -0.022615382447838783, 0.05421670526266098, 0.09377515316009521, 0.05795099586248398, 0.003719804110005498, -0.029153410345315933, -0.012094895355403423, -0.07598523050546646, 0.02476354129612446, 0.015826907008886337, 0.0168696828186512, -0.06689663231372833, -0.04022752121090889, -0.0031240321695804596, 0.0006454536342062056, -0.005356824956834316, -0.004213942214846611, -0.028897807002067566, -0.020983533933758736, -0.012074228376150131, 0.0017602868610993028, -0.0662187933921814, -0.017329558730125427, -0.050429314374923706, 0.000851531105581671, -0.007571839727461338, 0.00666864775121212, 0.02288675494492054, 0.026766296476125717, -0.005776622798293829, -0.02880539558827877, 0.0393449105322361, 0.027902860194444656, 0.08402176946401596, 0.014340604655444622], [0.11684278398752213, -0.057987280189991, 0.10688205063343048, -0.052831634879112244, 0.005431918893009424, 