{"pga_max": 0.6600000262260437, "n_freq": 4, "layers": [{"w": [[-0.10678496211767197, 0.01705467328429222, -0.2425864338874817, -0.1470971554517746, -0.1484384536743164, 0.02132856845855713, 0.07527556270360947, 0.05190610513091087, -0.02379687875509262, -0.04872667044401169, 0.0105940792709589, 0.0026314440183341503, -0.12253657728433609, -0.14091035723686218, -0.15665757656097412, 0.06199519708752632, -0.003017677925527096, 0.12377382069826126, -0.16979120671749115, -0.04291227087378502, -0.042685411870479584, 0.18593348562717438, -0.03658389300107956, 0.1401996612548828, -0.04805651679635048, 0.018839413300156593, 0.08045430481433868, -0.10885237157344818], [-0.27009156346321106, -0.12278084456920624, 0.050821058452129364, 0.16074451804161072, -0.10669898241758347, -0.021302983164787292, -0.23065172135829926, -0.261730432510376, -0.046523239463567734, 0.32142922282218933, 0.2853763997554779, 0.06782357394695282, -0.01933514140546322, -0.11126438528299332, 0.045503973960876465, -0.1592324823141098, -0.08066854625940323, -0.18201301991939545, 0.008040975779294968, 0.02319749817252159, 0.01966622658073902, 0.07509060949087143, 0.0823560506105423, 0.07844004780054092, 0.0189575906842947, 0.11990512162446976, 0.051582541316747665, 0.016557136550545692], [-0.07384584099054337, -0.031034082174301147, -0.008696184493601322, -0.18192672729492188, 0.19775564968585968, -0.017696714028716087, -0.1879480928182602, 0.08225380629301071, 0.07568643242120743, -0.17448844015598297, 0.14179793000221252, -0.0060415626503527164, 0.2242017686367035, 0.14560627937316895, -0.03454481437802315, -0.10775070637464523, 0.17018671333789825, 0.15241874754428864, 0.1833750605583191, 0.08473008126020432, 0.01834690570831299, -0.27708524465560913, -0.022325394675135612, -0.0337362103164196, -0.3193588852882385, 0.12310486286878586, 0.08766373991966248, -0.296527236700058], [-0.08468592166900635, 0.02725883573293686, -0.012138384394347668, -0.07267743349075317, 0.19406090676784515, -0.08331836760044098, 0.01782900281250477, 0.047939691692590714, 0.08354392647743225, 0.14240992069244385, -0.15479858219623566, -0.08075468242168427, 0.181132972240448, 0.08332369476556778, -0.11698897182941437, -0.24343028664588928, 0.2524016797542572, 0.13953855633735657, -0.09917891025543213, 0.018482709303498268, -0.11995326727628708, -0.25729286670684814, -0.09559803456068039, -0.10038302093744278, 0.0894770547747612, 0.01804940216243267, -0.032872263342142105, 0.1523553729057312], [-0.2613614499568939, 0.14085298776626587, 0.18504002690315247, -0.0359296016395092, -0.09113674610853195, -0.02891509048640728, -0.13416874408721924, -0.05207451432943344, 0.04100123047828674, 0.08892424404621124, 0.04695037752389908, 0.09082967787981033, -0.2648165822029114, 0.02026813104748726, 0.02873956598341465, -0.078125, -0.0789535790681839, -0.19634467363357544, -0.044001441448926926, 0.09939675033092499, -0.07769986242055893, -0.11277641355991364, 0.04560578614473343, 0.005169190466403961, -0.33571961522102356, -0.02640666253864765, 0.04150713235139847, 0.05123939737677574], [0.23436075448989868, 0.05184822902083397, 0.18129903078079224, 0.04357398673892021, -0.32695475220680237, -0.033304307609796524, 0.12393323332071304, 0.010014945641160011, -0.0640067532658577, -0.04900438338518143, -0.09367938339710236, -0.06983830779790878, 0.030489012598991394, 0.13282908499240875, -0.0028113764710724354, -0.1712518334388733, 0.014128302223980427, -0.056309349834918976, -0.007101924158632755, 0.08940043300390244, -0.09388186037540436, -0.03945427015423775, -0.20217280089855194, -0.12957309186458588, -0.03314824029803276, 0.12717854976654053, -0.07595532387495041, 0.07018735259771347], [-0.4176686108112335, -0.019100844860076904, 0.11700157821178436, -0.0029023545794188976, 0.20938898622989655, 0.06478732824325562, -0.11641637235879898, 0.11102032661437988, -0.0267730001360178, -0.0740276351571083, 0.09354782849550247, -0.003415450919419527, 0.08810743689537048, 0.07359020411968231, 0.03573877364397049, -0.04047904536128044, 0.1034611240029335, -0.07621289789676666, -0.04155605658888817, -0.08401449769735336, -0.08187136054039001, -0.06279466301202774, 0.09038930386304855, 0.06184126436710358, -0.06596988439559937, -0.012975312769412994, -0.1355680227279663, -0.16814100742340088], [-0.4645412564277649, 0.21099263429641724, 0.0201369971036911, -0.22372032701969147, 0.03208974376320839, 0.025451650843024254, -0.22505880892276764, -0.22149786353111267, -0.09409867227077484, 0.08826891332864761, -0.03744738921523094, 0.09861242026090622, 0.019251909106969833, 0.11875799298286438, 0.1069316416978836, 0.07684408128261566, 0.0016777387354522943, -0.07600484788417816, 0.06782297790050507, 0.06451932340860367, -0.11197725683450699, 0.05841409042477608, 0.06970447301864624, -0.09512034803628922, 0.14507868885993958, 0.016411224380135536, 0.01793852634727955, 0.13179519772529602], [-0.3733155429363251, 0.12330757826566696, -0.14513590931892395, 0.11465765535831451, -0.09654727578163147, -0.02183859795331955, -0.08863270282745361, 0.11205724626779556, -0.005579911172389984, 0.2968127429485321, -1.1460890164016746e-05, -0.03456155210733414, 0.03631949424743652, -0.215274378657341, -0.059854406863451004, 0.0518825501203537, 0.07816768437623978, 0.06271770596504211, -0.16277454793453217, -0.0268718171864748, 0.1280221790075302, -0.055657438933849335, 0.17774975299835205, -0.1384018361568451, 0.037628449499607086, -0.03792273998260498, -0.07696041464805603, 0.02894389070570469], [0.17854510247707367, -0.025788838043808937, -0.08927882462739944, 0.048671647906303406, -0.12191041558980942, 0.057648856192827225, -0.058264654129743576, 0.003609542502090335, -0.04615138843655586, 0.21865658462047577, 0.07811836898326874, 0.010287303477525711, 0.12580835819244385, -0.17963357269763947, 0.07493966817855835, -0.20931299030780792, 0.22482776641845703, 0.1353907436132431, -0.21593855321407318, 0.1602669656276703, -0.16583439707756042, 0.02281228080391884, -0.28126609325408936, -0.14162877202033997, 0.3251491189002991, -0.30706149339675903, -0.022954368963837624, -0.020864376798272133], [-0.2711409628391266, -0.31553202867507935, -0.11784769594669342, 0.32623621821403503, -0.07295495271682739, 0.12103799730539322, -0.0687081441283226, -0.052611418068408966, -0.01116945780813694, 0.10728153586387634, 0.005671952851116657, 0.023053081706166267, 0.1352919042110443, 0.08889713883399963, 0.03945329040288925, -0.22628851234912872, 0.07972098141908646, -0.18534404039382935, 0.1100718304514885, -0.07152612507343292, 0.013104895129799843, -0.028877440840005875, -0.034715183079242706, 0.016916975378990173, 0.06575217843055725, -0.005584449041634798, -0.003079682355746627, 0.01923861913383007], [-0.04408295080065727, -0.0865224301815033, 0.06126879155635834, 0.19102224707603455, -0.08206400275230408, -0.11896796524524689, -0.04460008069872856, 0.16293427348136902, -0.048593420535326004, 0.05328350141644478, -0.052707940340042114, -0.036722537130117416, 0.13078951835632324, -0.06341038644313812, -0.07939450442790985, -0.14365868270397186, -0.14040052890777588, 0.22017933428287506, 0.12090800702571869, 0.0038625639863312244, 0.007469937205314636, -0.1952342540025711, -0.3826930522918701, -0.06430086493492126, 0.3892141878604889, 0.30691295862197876, -0.13157221674919128, 0.1541660577058792], [0.029986802488565445, 0.038028206676244736, 0.21607312560081482, 0.3212103843688965, -0.21679170429706573, -0.025954773649573326, 0.11433691531419754, -0.07257654517889023, -0.043015193194150925, 0.2841777503490448, 0.06607477366924286, 0.008255337364971638, -0.031439684331417084, -0.06445112824440002, -0.04341493546962738, 0.030678965151309967, 0.26745086908340454, 0.15841205418109894, 0.1958366483449936, 0.35976460576057434, -0.09390069544315338, 0.11406543105840683, -0.210514634847641, 0.005302537232637405, 0.04948197677731514, -0.3010694980621338, -0.15831023454666138, 0.10920927673578262], [0.4734684228897095, 0.1742698848247528, 0.012768047861754894, -0.14704617857933044, -0.17403008043766022, 0.03521706908941269, -0.15392239391803741, 0.02261255495250225, -0.07502347975969315, 0.003913015127182007, -0.1204240545630455, -0.04439611732959747, 0.04573078081011772, 0.06347038596868515, -0.007711004000157118, 0.07023907452821732, 0.11009097844362259, -0.028364282101392746, 0.01688997820019722, 0.19228506088256836, 0.003969732206314802, 0.17673087120056152, 0.02515522576868534, 0.05550190433859825, -0.0354117825627327, -0.03477730602025986, -0.04512004181742668, -0.1411581188440323], [-0.43361371755599976, -0.1489333063364029, -0.09966196864843369, 0.27846232056617737, 0.09507332742214203, -0.037291835993528366, -0.2612273395061493, 0.26983216404914856, 0.09827619045972824, 0.02089882269501686, -0.2486780881881714, 0.26185882091522217, 0.0414157435297966, -0.31765180826187134, 0.13578107953071594, 0.23693884909152985, -0.1363212615251541, -0.023126333951950073, -0.05179527774453163, -0.08427651971578598, 0.1672779619693756, 0.039232805371284485, -0.02351756952702999, -0.04468214511871338, -0.1284831017255783, 0.03141583129763603, -0.02739836275577545, 0.02327268011868], [-0.13849759101867676, -0.020727232098579407, 0.07699491828680038, 0.17016901075839996, -0.002575203776359558, -0.05928314849734306, -0.07740656286478043, -0.22059045732021332, -0.0017550517804920673, 0.1760520488023758, -0.32632380723953247, -0.01432851143181324, 0.25677454471588135, -0.033583030104637146, -0.014372913166880608, -0.08502630889415741, 0.05010088533163071, -0.06155816838145256, 0.11107420176267624, -0.2894425392150879, -0.05975400656461716, -0.10999755561351776, 0.09036334604024887, 0.023560522124171257, -0.17372161149978638, 0.3247080445289612, -0.032762911170721054, -0.1985679715871811], [-0.02732633240520954, -0.044732388108968735, 0.1510971188545227, 0.017693353816866875, 0.2501339316368103, 0.08361349999904633, -0.18820618093013763, 0.21426327526569366, 0.04477598890662193, 0.0976407453417778, 0.010044761933386326, -0.016224397346377373, -0.15151290595531464, 0.20946647226810455, -0.02150452882051468, 0.0039043999277055264, -0.04855310544371605, 0.04449781775474548, -0.04653777927160263, -0.24653667211532593, -0.12814341485500336, 0.028840549290180206, 0.2875860035419464, 0.08236010372638702, 0.3170050084590912, 0.035477425903081894, -0.001582758268341422, -0.33394739031791687], [-0.4922991693019867, -0.04842042550444603, -0.07937921583652496, 0.15673713386058807, -0.2417864203453064, -0.04799407720565796, -0.09770424664020538, 0.18188558518886566, -0.039694223552942276, 0.022586803883314133, 0.07545871287584305, 0.11801350116729736, 0.021740546450018883, -0.025113675743341446, -0.028047995641827583, -0.01144727598875761, 0.0551469586789608, -0.21686650812625885, 0.18727871775627136, 0.08050476014614105, -0.024563157930970192, -0.16318227350711823, 0.14762720465660095, 0.11196205765008926, -0.04139517992734909, 0.022725407034158707, 0.10440564900636673, 0.07976045459508896], [0.2677687108516693, -0.1901196390390396, 0.017200279980897903, 0.3736935257911682, -0.13557443022727966, 0.0393652580678463, 0.0514419861137867, 0.12457547336816788, 0.03220057114958763, 0.12146252393722534, -0.007927707396447659, 0.003745920956134796, -0.19973739981651306, 0.04388691857457161, 0.05803794413805008, -0.108964703977108, 0.05077837035059929, -0.029015831649303436, 0.020883886143565178, -0.13683593273162842, -0.16089437901973724, -0.17499037086963654, 0.2431493103504181, -0.04593968018889427, 0.12405942380428314, 0.07502562552690506, 0.096524178981781, 0.18610556423664093], [-0.4284401535987854, -0.29457008838653564, -0.11077968776226044, 0.18344882130622864, -0.07925225794315338, -0.182950958609581, -0.09407670050859451, 0.13247108459472656, -0.0462518148124218, 0.06184983253479004, -0.020528454333543777, -0.0806424543261528, 0.11714880913496017, 0.09174097329378128, -0.11795046180486679, 0.019616929814219475, -0.04855538159608841, 0.014027051627635956, -0.1927347481250763, -0.17127589881420135, 0.19410766661167145, -0.07620144635438919, -0.09407561272382736, -0.0033371446188539267, -0.05662990361452103, 0.0067274863831698895, 0.013379178009927273, 0.09216973930597305], [-0.4610859751701355, -0.29186367988586426, -0.0167227890342474, 0.2671993672847748, -0.17514877021312714, 0.11086605489253998, 0.00617701280862093, -0.0018155068391934037, 0.04473580792546272, 0.1532418429851532, 0.1755785197019577, 0.10948074609041214, -0.19427695870399475, -0.22942644357681274, 0.11341782659292221, 0.06701871007680893, -0.064918152987957, -0.23977622389793396, 0.023676998913288116, 0.2451212853193283, 0.04151241108775139, -0.15573884546756744, -0.17715786397457123, 0.07983162999153137, -0.03496091440320015, -0.13326621055603027, 0.08145210891962051, 0.01972394995391369], [0.5070896744728088, 0.0892522931098938, -0.00994069967418909, -0.012125816196203232, -0.14301857352256775, 0.09382999688386917, 0.07371436059474945, 0.040650494396686554, -0.07176518440246582, 0.1701042205095291, 0.0735306367278099, 0.015411951579153538, -0.1856774389743805, -0.14891614019870758, 0.009940057061612606, 0.07254970073699951, -0.033033598214387894, -0.017470452934503555, 0.0475701242685318, 0.013347172178328037, -0.12691251933574677, -0.10107748210430145, -0.040414806455373764, -0.09907066076993942, 0.20788712799549103, -0.0033165235072374344, -0.006360990926623344, 0.1201164722442627], [0.19002869725227356, -0.10104604065418243, 0.13559609651565552, 0.04992222413420677, -0.17596828937530518, 0.14854799211025238, -0.047769155353307724, -0.03860664367675781, 0.022087933495640755, -0.09032673388719559, 0.16903901100158691, -0.0611746609210968, -0.11972025036811829, -0.020731408149003983, 0.043847355991601944, 0.0946359857916832, 0.08424732834100723, 0.07606279850006104, 0.0965343788266182, 0.010882046073675156, -0.12961459159851074, -0.2611713111400604, -0.043071288615465164, 0.06700031459331512, -0.31054288148880005, -0.03455821052193642, -0.010021967813372612, -0.18718932569026947], [-0.40335583686828613, 0.0989578515291214, -0.07973992824554443, 0.19869352877140045, -0.1762053668498993, -0.018503401428461075, 0.10423531383275986, 0.07568619400262833, 0.01953154429793358, -0.18009495735168457, -0.09303751587867737, -0.0018838610267266631, 0.14207392930984497, 0.1283174753189087, -0.07797583937644958, 0.07867824286222458, -0.08432670682668686, -0.08566463738679886, 0.044997911900281906, -0.07372037321329117, 0.13840873539447784, 0.12142220884561539, -0.06664633750915527, 0.10965551435947418, -0.00025000105961225927, 0.13590210676193237, -0.06463522464036942, -0.03824892267584801], [-0.16153624653816223, -0.02594323642551899, 0.08777254819869995, 0.2302190661430359, -0.11070428043603897, -0.025139475241303444, 0.1395680457353592, -0.08433634042739868, 0.10174103826284409, 0.032699089497327805, -0.06166402995586395, -0.03468480706214905, 0.26750144362449646, 0.2239549309015274, 0.031240006908774376, -0.020817017182707787, 0.12170860171318054, 0.07351081818342209, 0.07135920971632004, -0.2448633909225464, 0.10119704157114029, 0.08896918594837189, 0.2314813733100891, -0.12791000306606293, 0.035047177225351334, -0.07257425040006638, 0.05965401604771614, -0.15825793147087097], [-0.28109535574913025, 0.07697353512048721, -0.20647867023944855, 0.09888294339179993, -0.13635241985321045, 0.00031476051663048565, -0.05713450163602829, 0.24143503606319427, -0.0593281090259552, 0.07410594820976257, 0.0634438544511795, -0.009774763137102127, -0.1589755266904831, -0.08465983718633652, 0.1290188431739807, 0.08709271252155304, 0.07535391300916672, -0.04270368441939354, 0.016071869060397148, 0.14527097344398499, 0.1338331252336502, -0.20302128791809082, -0.019718166440725327, -0.09153749793767929, -0.19528299570083618, 0.04066462442278862, 0.12156407535076141, -0.20988960564136505], [0.1432400643825531, -0.1980736255645752, -0.015776362270116806, 0.319540798664093, -0.17616091668605804, 0.06998761743307114, -0.004332841373980045, 0.22146601974964142, 0.026914751157164574, -0.1312095820903778, 0.1781902313232422, -0.026810983195900917, -0.12491755932569504, 0.013579663820564747, 0.005328288767486811, -0.0904507040977478, -0.0789521336555481, 0.22170612215995789, 0.17186196148395538, -0.10208646953105927, -0.10811641812324524, -0.14363151788711548, -0.0586770623922348, -0.0030284859240055084, 0.4079000651836395, 0.07435423135757446, -0.029359085485339165, 0.1139194518327713], [-0.3259197175502777, 0.208201065659523, -0.15817567706108093, -0.09075227379798889, 0.07637754827737808, 0.037285443395376205, -0.23548023402690887, 0.08073026686906815, 0.07219570875167847, -0.31228962540626526, -0.03005073219537735, 0.10366704314947128, -0.11500348895788193, -0.0651930421590805, 0.09699765592813492, -0.16482071578502655, -0.15478913486003876, 0.08389298617839813, 0.16192811727523804, -0.17766892910003662, 0.12523812055587769, -0.30226054787635803, 0.07997554540634155, -0.10148999840021133, -0.28795379400253296, 0.10408113151788712, -0.04662083834409714, -0.18312758207321167], [-0.2898765206336975, -0.1094544380903244, -0.03318261727690697, -0.0670277327299118, -0.03222952410578728, -0.030201934278011322, -0.10946182906627655, -0.11478526890277863, 0.09541523456573486, 0.13149675726890564, -0.06715745478868484, 0.021219732239842415, -0.015701567754149437, -0.02482646517455578, -0.06833477318286896, -0.08983410894870758, 0.04537256434559822, -0.08499984443187714, 0.16944946348667145, -0.14703772962093353, -0.03668960556387901, 0.02819482609629631, 0.21386533975601196, -0.0320882573723793, 0.09466813504695892, -0.0665978193283081, -0.0553671270608902, -0.18199732899665833], [-0.19468601047992706, -0.310612291097641, 0.039469070732593536, 0.17938458919525146, -0.2497052252292633, 0.08167491108179092, 0.1370631605386734, 0.15681712329387665, 0.10551492869853973, 0.004121961072087288, 0.1624952107667923, 0.03816869854927063, 0.03929276019334793, 0.09651625901460648, -0.03127214312553406, -0.07180190086364746, -0.07718515396118164, -0.01760167069733143, 0.19257308542728424, 0.14452393352985382, 0.0173285324126482, -0.22402143478393555, -0.02196776121854782, 0.08503033220767975, -0.020392371341586113, -0.006020511034876108, -0.03227701783180237, -0.032155826687812805], [-0.15579754114151, 0.013630872592329979, 0.011132783256471157, 0.08106262981891632, 0.01901310868561268, -0.055625032633543015, 0.020866461098194122, 0.2047906070947647, 0.00727632874622941, 0.08077491074800491, 0.009378040209412575, 0.15361446142196655, -0.10292002558708191, -0.18852567672729492, 0.06098639965057373, -0.1939781904220581, 0.0203314870595932, -0.10391172766685486, 0.09065758436918259, -0.3007117211818695, 0.10423266887664795, 0.30087634921073914, 0.0863841325044632, -0.02204585075378418, 0.2408827394247055, -0.11488115042448044, -0.038986075669527054, -0.12917359173297882], [-0.2103264033794403, 0.09230352938175201, 0.05908244103193283, 0.028240351006388664, -0.1612119823694229, 0.011684681288897991, -0.07455931603908539, -0.1094440370798111, 0.09360504895448685, 0.22093994915485382, -0.1900915950536728, -0.011379781179130077, -0.10553089529275894, -0.17476090788841248, -0.06680235266685486, 0.1096513494849205, 0.10098345577716827, 0.09678234159946442, 0.1546841263771057, -0.03315630555152893, 0.07005462050437927, 0.2332267463207245, -0.11934556066989899, 0.13913768529891968, 0.21640212833881378, 0.1646762639284134, -0.040503498166799545, -0.008179041557013988], [-0.3601960837841034, -0.12737755477428436, 0.17210453748703003, 0.03938658535480499, 0.04179009795188904, 0.1523570418357849, 0.1118105873465538, 0.17589086294174194, 0.04624202102422714, -0.07284516096115112, -0.19165922701358795, 0.020713157951831818, -0.007483935449272394, -0.0776342824101448, 0.07036387175321579, 0.12132082134485245, -0.06356058269739151, 0.020107680931687355, 0.3080345094203949, 0.11291071027517319, -0.07156235724687576, -0.2767309248447418, 0.1447480022907257, 0.03250952437520027, 0.24425022304058075, -0.1788465827703476, -0.10332261025905609, 0.229083850979805], [0.193670853972435, -0.2268049120903015, 0.13726414740085602, -0.010295974090695381, -0.014564883895218372, 0.016191327944397926, 0.08574334532022476, -0.06145311892032623, -0.134545236825943, 0.23871949315071106, 0.2959471046924591, 0.0866318866610527, 0.17922812700271606, -0.14166311919689178, 0.08441680669784546, -0.15897701680660248, 0.010835464112460613, -0.04314618557691574, -0.08075976371765137, 0.2814458906650543, -0.1376899927854538, -0.05446887016296387, -0.2908068895339966, -0.11049940437078476, 0.11796604841947556, -0.2518705129623413, -0.13298353552818298, -0.2447108030319214], [-0.36421555280685425, -0.20041534304618835, -0.004781886003911495, 0.22918389737606049, -0.09964708983898163, -0.022599460557103157, 0.06508083641529083, 0.028950760141015053, -0.08250099420547485, 0.17314790189266205, 0.04719378054141998, -0.02304333820939064, -0.17216283082962036, 0.09414146095514297, 0.028474021703004837, -0.11182410269975662, 0.009729049168527126, 0.016077235341072083, 0.02974873222410679, 0.05330716446042061, 0.16649942100048065, 0.00020413512538652867, -0.11678064614534378, -0.03177189081907272, -0.009528526104986668, 0.051944177597761154, -0.21184493601322174, 0.04991139844059944], [-0.2833560109138489, -0.08037637174129486, 0.08437128365039825, 0.03132329136133194, 0.036146607249975204, -0.06827297061681747, -0.19713987410068512, -0.09640184044837952, -0.04584311693906784, 0.14320018887519836, 0.022652145475149155, 0.1742514967918396, 0.00545791070908308, -0.10362719744443893, 0.09126345813274384, 0.0027697046753019094, 0.08213910460472107, -0.11542908847332001, 0.005300373304635286, -0.021818893030285835, 0.041404444724321365, -0.1263515204191208, -0.02333500050008297, -0.22116106748580933, -0.048286162316799164, 0.05198867619037628, -0.13883408904075623, -0.15771186351776123], [-0.3333524465560913, -0.23130850493907928, 0.12080761045217514, 0.10641728341579437, -0.013823914341628551, -0.10157574713230133, -0.1279868185520172, 0.08142450451850891, 0.058353036642074585, 0.12284424901008606, -0.22313056886196136, 0.04709332436323166, 0.17169508337974548, -0.14720696210861206, -0.028834249824285507, -0.02787458896636963, -0.026913737878203392, -0.16905926167964935, -0.17702709138393402, 0.046562306582927704, 0.05123160779476166, 0.09878093004226685, 0.10629764199256897, 0.010253800079226494, 0.09564372152090073, -0.1445363610982895, 0.05950365960597992, -0.021147381514310837], [-0.4020264446735382, -0.04004281014204025, -0.11977240443229675, 0.3640187382698059, -0.029383854940533638, 0.035732682794332504, -0.013149603269994259, 0.08260462433099747, 0.05497177317738533, 0.06550639122724533, 0.1623472273349762, 0.10791695863008499, -0.3507121503353119, -0.015308146364986897, 0.07034597545862198, -0.10127947479486465, 0.1981755495071411, 0.01895785890519619, -0.2852208912372589, -0.10376401245594025, 0.13294048607349396, 0.06620839983224869, 0.12361212074756622, 0.038122959434986115, -0.1745763123035431, -0.022870199754834175, -0.009070790372788906, 0.20765705406665802], [-0.042721912264823914, -0.184163898229599, 0.12060349434614182, -0.1879889816045761, -0.04013125225901604, 0.18285125494003296, 0.08396309614181519, 0.15368328988552094, 0.05456243082880974, -0.045044802129268646, 0.1527412086725235, -0.1528310477733612, -0.48886895179748535, 0.0026624889578670263, 0.13120414316654205, -0.002599826781079173, 0.025229496881365776, -0.04868520051240921, 0.10776247829198837, 0.04200989753007889, 0.09372010082006454, 0.09773130714893341, 0.02162063494324684, -0.05243938788771629, -0.41983720660209656, 0.02584494836628437, -0.01010594516992569, 0.06826025992631912], [-0.25534412264823914, -0.033306755125522614, -0.03711120784282684, -0.04057611525058746, -0.14344745874404907, -0.13993075489997864, 0.12160848826169968, 0.08079668134450912, 0.049938347190618515, 0.13575515151023865, 0.08471117168664932, 0.09601146727800369, -0.1449982225894928, 0.054242733865976334, -0.09319769591093063, -0.19345971941947937, -0.06234052777290344, -0.022031037136912346, -0.22869598865509033, -0.18106041848659515, -0.05302276089787483, 0.0903310775756836, -0.12725144624710083, -0.13272260129451752, -0.14915023744106293, -0.10184533149003983, -0.14655613899230957, -0.0021701615769416094], [-0.32509317994117737, -0.20125436782836914, -0.009194734506309032, -0.00034992548171430826, -0.13623464107513428, -0.05285477638244629, -0.34666433930397034, 0.1513136625289917, 0.02902761474251747, 0.11691286414861679, -0.04204411432147026, 0.07108648866415024, 0.175042062997818, 0.08964560925960541, 0.0334860198199749, -0.09125593304634094, -0.04061254858970642, -0.05323587357997894, 0.22897756099700928, -0.29112279415130615, 0.003435518592596054, -0.054588161408901215, -0.1660071313381195, -0.0428975410759449, 0.08506163954734802, -0.1154567152261734, 0.04067391902208328, -0.12465493381023407], [-0.18527768552303314, -0.15814447402954102, 0.2004874348640442, -0.08531972765922546, -0.06196867302060127, 0.033085137605667114, 0.00500496057793498, -0.14358538389205933, 0.00829558540135622, 0.2858423590660095, 0.041911639273166656, -0.017677780240774155, -0.15459993481636047, -0.00405588885769248, -0.025968657806515694, 0.36150288581848145, 0.07482259720563889, -0.04033700004220009, -0.023372527211904526, 0.2995900809764862, -0.06582887470722198, -0.21896487474441528, -0.012452039867639542, 0.08349135518074036, -0.10797694325447083, -0.2841761112213135, -0.05673857033252716, -0.3699076473712921], [0.22383952140808105, -0.17093536257743835, -0.04429737105965614, 0.0209436547011137, -0.09034062922000885, -0.0006935736746527255, 0.1796516329050064, -0.19794097542762756, -0.02672668918967247, -0.06372163444757462, 0.022198079153895378, 0.029347626492381096, 0.12038382142782211, -0.19772930443286896, -0.04409969970583916, 0.04146187752485275, 0.10906578600406647, 0.19125793874263763, -0.06187484413385391, -0.026110880076885223, 0.06888971477746964, -0.028728006407618523, 0.09179716557264328, -0.09646187722682953, 0.01254388876259327, 0.08050656318664551, 0.09514637291431427, -0.035222750157117844], [-0.16679556667804718, -0.18960294127464294, 0.018215162679553032, 0.0158231258392334, -0.04604360833764076, -0.06283137947320938, 0.026811357587575912, -0.06267018616199493, 0.09324881434440613, -0.26260146498680115, -0.017967233434319496, -0.17481373250484467, -0.12865495681762695, 0.01773134060204029, -0.14365102350711823, 0.05409742891788483, 0.16699662804603577, 0.07985831052064896, -0.3222466707229614, 0.10379598289728165, -0.015161569230258465, 0.10943545401096344, -0.10142534226179123, 0.0464843325316906, -0.4424908757209778, 0.06076103076338768, 0.13385948538780212, 0.20169083774089813], [-0.23657524585723877, 0.024882236495614052, -0.11240782588720322, -0.14607509970664978, 0.06736543774604797, 0.007165060378611088, -0.15880224108695984, -0.06046293303370476, -0.0843278244137764, 0.04787961021065712, 0.12082499265670776, -0.20434284210205078, -0.14929120242595673, -0.16754496097564697, -0.076082244515419, 0.1075654998421669, 0.16765698790550232, -0.0559387281537056, 0.17327073216438293, 0.1512928009033203, 0.0766134187579155, -0.16237811744213104, 0.03903704136610031, 0.06311065703630447, 0.3984990119934082, 0.03858518227934837, 0.05025295168161392, 0.2107597291469574], [-0.5141289830207825, -0.07073506712913513, 0.08150667697191238, -0.008984861895442009, 0.09349147975444794, 0.04148658737540245, -0.028241431340575218, 0.10193463414907455, 0.17330704629421234, 0.1874316781759262, -0.0008325569797307253, 0.18971070647239685, -0.12967215478420258, -0.0864839106798172, -0.07425838708877563, -0.036310989409685135, 0.11376848071813583, -0.0626385435461998, 0.10407200455665588, 0.1329949051141739, -0.09500136226415634, 0.006044428795576096, -0.021170834079384804, 0.03818344324827194, 0.08122223615646362, -0.03017367608845234, -0.14040279388427734, 0.09912749379873276], [-0.15503741800785065, -0.10388103872537613, 0.06523784250020981, 0.10836843401193619, -0.009398259222507477, 0.011397832073271275, -0.35349181294441223, -0.17008259892463684, 0.08403338491916656, 0.1930343508720398, 0.24403659999370575, -0.089652419090271, 0.02153015322983265, -0.03716112673282623, 0.03931943327188492, -0.014133438467979431, -0.022820519283413887, 0.07717370241880417, -0.01571027562022209, -0.06571545451879501, -0.11554945260286331, -0.050758909434080124, 0.19022038578987122, -0.05565568059682846, -0.08618445694446564, -0.08689936995506287, 0.017317824065685272, 0.11295249313116074], [-0.4663945436477661, -0.1510893553495407, 0.1236034482717514, 0.27206239104270935, -0.1451611965894699, -0.04791441932320595, -0.01073334738612175, -0.23986493051052094, -0.15010888874530792, 0.3159382939338684, -0.03730171546339989, -0.04014899581670761, -0.07007646560668945, -0.0020325772929936647, -0.005208571441471577, -0.14768409729003906, 0.11885473877191544, -0.1228475347161293, -0.07835102081298828, -0.03438398614525795, 0.11913792788982391, -0.03296807035803795, 0.029714468866586685, 0.04937775433063507, -0.08039350807666779, 0.012762047350406647, -0.02917446568608284, 0.032963428646326065], [-0.16607801616191864, -0.02497018128633499, 0.16342082619667053, -0.09629390388727188, 0.1274198740720749, 0.08118054270744324, -0.25081866979599, -0.05724741891026497, 0.09468839317560196, 0.24720580875873566, 0.1499980390071869, 0.0615522563457489, -0.14721271395683289, -0.09755519032478333, 0.10621947050094604, -0.04279430955648422, 0.0331207811832428, 0.14936982095241547, -0.06260327249765396, 0.00013177678920328617, 0.04450356587767601, 0.0022045711521059275, 0.1682952344417572, -0.012465773150324821, -0.1636083722114563, 0.12400795519351959, -0.05906497687101364, -0.053477704524993896], [-0.473829060792923, 0.011947732418775558, 0.05757441371679306, 0.09636063873767853, -0.07763518393039703, 0.05462908744812012, -0.030567670240998268, 0.18650636076927185, 0.18560390174388885, -0.21107223629951477, 0.06738907098770142, -0.16825929284095764, 0.13230057060718536, 0.12354136258363724, 0.10274770110845566, -0.09865040332078934, -0.03065209649503231, -0.013732518069446087, 0.0581338070333004, 0.07059334963560104, 0.19458402693271637, 0.04921777918934822, 0.1131947785615921, -0.1697627454996109, 0.09889773279428482, 0.02415921725332737, 0.0557742603123188, -0.039172735065221786], [-0.11491715162992477, -0.3065589964389801, -0.04226745292544365, 0.23428484797477722, -0.05008181557059288, 0.01804746314883232, 0.0052695684134960175, 0.11435995995998383, 0.03801940381526947, 0.0860704630613327, 0.10299654304981232, 0.07720667868852615, 0.1435755044221878, 0.30041927099227905, 0.09557792544364929, 0.010373200289905071, 0.12452732026576996, -0.20340575277805328, -0.2515431046485901, -0.08299335092306137, -0.007168081123381853, -0.23048870265483856, -0.15998391807079315, -0.04793538525700569, -0.2143367975950241, 0.23294495046138763, 0.12450143694877625, -0.13279683887958527], [-0.25159016251564026, -0.07997854053974152, -0.09042029827833176, 0.06340239942073822, 0.13164053857326508, -0.0473264679312706, -0.15533363819122314, 0.07888500392436981, -0.01744532585144043, -0.09784113615751266, -0.029701728373765945, 0.14901100099086761, -0.02672921121120453, -0.06044173240661621, -0.03579610586166382, -0.12157644331455231, -0.035101957619190216, 0.017122427001595497, 0.06146726384758949, -0.12392507493495941, 0.0335988774895668, -0.24076266586780548, 0.3595225512981415, 0.10801803320646286, -0.14022976160049438, -0.030416935682296753, 0.06764738261699677, -0.11455215513706207], [-0.29337334632873535, -0.12223538756370544, -0.0007318928255699575, 0.14357797801494598, -0.17969168722629547, 0.020506251603364944, 0.15576939284801483, -0.16029563546180725, 0.008985502645373344, -0.032458968460559845, 0.09316857904195786, 0.04373830556869507, 0.2772974371910095, 0.043116938322782516, 0.036869585514068604, -8.107214853225742e-06, 0.27747642993927, 0.10278738290071487, -0.12936554849147797, -0.0791747197508812, -0.06708704680204391, -0.23413178324699402, 0.203001007437706, -0.002599000697955489, 0.17403174936771393, 0.13372372090816498, -0.023459363728761673, -0.19235597550868988], [0.48223814368247986, 0.08494124561548233, 0.02615376003086567, -0.052851203829050064, 0.10422251373529434, 0.07117154449224472, 0.07118729501962662, 0.06341356039047241, 0.09380412846803665, -0.10026444494724274, 0.015688778832554817, 0.13110880553722382, -0.02740447036921978, -0.10972331464290619, 0.10482165217399597, -0.03783701732754707, 0.06281591951847076, -0.10384109616279602, 0.04374117776751518, -0.08181077241897583, -0.06366831809282303, -0.02691451460123062, -0.06590966135263443, 0.059618011116981506, -0.120393767952919, 0.11135979741811752, 0.044006939977407455, -0.06493492424488068], [-0.44868266582489014, 0.01715110056102276, 0.012036028318107128, -0.2339434027671814, 0.04040626063942909, -0.002448174636811018, -0.1518334597349167, -0.2218090146780014, 0.13531678915023804, 0.05161159858107567, -0.021828411146998405, -0.2116919606924057, 0.24745939671993256, 0.07577476650476456, -0.007962961681187153, 0.0265896525233984, -0.0018858506809920073, -0.10480618476867676, 0.12797629833221436, 0.13233590126037598, 0.23252750933170319, -0.021430719643831253, 0.0043633864261209965, -0.1341531127691269, 0.11979425698518753, 0.061966292560100555, 0.0478881411254406, -0.02029658481478691], [0.23919738829135895, -0.21933504939079285, 0.024012954905629158, 0.22085784375667572, -0.16475045680999756, 0.022398779168725014, 0.057314809411764145, -0.021136309951543808, -0.09964382648468018, 0.19084250926971436, -0.012892231345176697, 0.03346237540245056, 0.2983989119529724, -0.03450385853648186, 0.028923911973834038, 0.21769165992736816, -0.12122577428817749, -0.10624875873327255, -0.11956082284450531, -0.13729210197925568, -0.042292214930057526, -0.004196659661829472, -0.03536241129040718, -0.05554882064461708, 0.20251359045505524, -0.02649032324552536, -0.06284607201814651, -0.42830026149749756], [-0.5478836297988892, 0.23996920883655548, -0.046788908541202545, -0.18447288870811462, 0.1489953100681305, -0.12215101718902588, -0.1767377257347107, -0.010638616979122162, 0.07149388641119003, -0.11043497920036316, 0.06731070578098297, 0.0705055445432663, 0.09583155065774918, 0.0304387379437685, -0.03504854813218117, 0.07726132869720459, 0.07572730630636215, -0.1369112879037857, -0.10810648649930954, 0.014182241633534431, 0.18991045653820038, -0.10597793757915497, 0.0658448189496994, 0.05917048081755638, -0.034163862466812134, -0.028235848993062973, 0.0838606208562851, -0.02124389074742794], [-0.4078570306301117, 0.049246661365032196, 0.02774542011320591, 0.01807013712823391, -0.15349765121936798, 0.13646754622459412, 0.009710509330034256, -0.17325793206691742, 0.06885318458080292, 0.1252789944410324, 0.038448601961135864, -0.04599450156092644, -0.0996362641453743, 0.12290585786104202, 0.018751004710793495, 0.06712780892848969, -0.09671981632709503, -0.03597830981016159, -0.22042910754680634, -0.026249799877405167, 0.12196338176727295, -0.07085137814283371, -0.023212311789393425, -0.038170233368873596, -0.10283247381448746, -0.022852782160043716, -0.17239844799041748, 0.23106196522712708], [0.445453941822052, 0.08883263170719147, 0.025780899450182915, 0.12651404738426208, 0.09273677319288254, 0.1361798495054245, -0.23890799283981323, -0.018303820863366127, 0.12869562208652496, -0.0189888384193182, -0.15708735585212708, -0.03895317763090134, 0.13264600932598114, 0.08397474139928818, 0.0379183404147625, 0.0559757836163044, 0.0014881007373332977, -0.08592330664396286, -0.11299417912960052, -0.08331027626991272, 0.09166693687438965, 0.024796301499009132, 0.02141091413795948, 0.05229199305176735, -0.0021624222863465548, 0.015934906899929047, 0.054453279823064804, -0.08210477977991104], [-0.40578046441078186, -0.27494579553604126, 0.17471325397491455, 0.22851289808750153, -0.13408693671226501, -0.10116130858659744, 0.20327423512935638, 0.18390865623950958, -0.12817873060703278, -0.17097686231136322, 0.14928746223449707, 0.08628491312265396, 0.07628417760133743, -0.004000293090939522, -0.012127317488193512, 0.1013282909989357, -0.02772054634988308, -0.03674693778157234, 0.2337883859872818, -0.007701867260038853, -0.003034549066796899, -0.03599037602543831, 0.021855151280760765, -0.0704067125916481, 0.30934759974479675, 0.008382420986890793, -0.21104253828525543, -0.18012644350528717], [-0.3676183521747589, 0.1441175639629364, -0.06366927921772003, -0.09733067452907562, -0.009569438174366951, -0.09510530531406403, -0.27751368284225464, -0.05976589769124985, -0.087189681828022, 0.16234512627124786, 0.01881675235927105, 0.07289674878120422, 0.05616210401058197, -0.14687664806842804, 0.04740406572818756, 0.17964892089366913, 0.17425255477428436, 0.03167938068509102, -0.18846145272254944, -0.16309261322021484, 0.02320917882025242, -0.22366246581077576, 0.1484399437904358, -0.09442992508411407, -0.04522432014346123, -0.1249297559261322, -0.004574575461447239, -0.24669964611530304], [-0.08535270392894745, -0.01211549062281847, 0.1394883245229721, 0.05039668455719948, -0.06392814964056015, -0.0767938420176506, 0.1029248982667923, 0.1038799062371254, 0.13366611301898956, -0.02166600525379181, 0.062179382890462875, -0.0825880914926529, 0.2014533132314682, -0.0850774347782135, -0.04874777793884277, 0.08298289030790329, -0.02294468879699707, -0.0038934550248086452, 0.48423728346824646, 0.0047505819238722324, 0.07906937599182129, -0.06735300272703171, 0.008638129569590092, 0.07555826008319855, 0.4611286520957947, 0.15955622494220734, 0.07321323454380035, 0.15789081156253815], [-0.17350976169109344, -0.220778226852417, 0.08790716528892517, 0.33088651299476624, -0.23839229345321655, 0.1415695995092392, 0.15246358513832092, -0.024941325187683105, -0.04973078519105911, 0.08344987779855728, 0.004684151615947485, -0.09027329087257385, -0.27750998735427856, 0.029882336035370827, -0.03281523287296295, 0.1940351277589798, 0.035461604595184326, -0.09950463473796844, 0.03898399695754051, -0.004178231116384268, -0.09264278411865234, -0.07400429993867874, 0.011409281753003597, 0.09532635658979416, -0.33646154403686523, 0.01607768051326275, -0.08100820332765579, -0.14265334606170654], [0.41478368639945984, -0.08998946100473404, -0.07875379174947739, 0.4373660981655121, -0.05879232659935951, -0.08838200569152832, -0.1422896534204483, -0.07577227801084518, -0.006566696800291538, 0.1465662568807602, -0.0416305847465992, 0.08075994998216629, -0.18661783635616302, -0.049500394612550735, 0.038392048329114914, 0.08687973022460938, 0.19176696240901947, 0.09700636565685272, 0.035791680216789246, -0.10856044292449951, 0.04980476573109627, -0.09824711829423904, 0.14757071435451508, -0.12182080000638962, -0.28595831990242004, 0.017632268369197845, -0.021932335570454597, 0.26469963788986206], [0.420945942401886, 0.049194853752851486, 0.021993014961481094, -0.08191417902708054, -0.06955749541521072, 0.023620961233973503, -0.029775459319353104, 0.05284920334815979, 0.09014054387807846, 0.11576840281486511, -0.12584897875785828, -0.0321822389960289, -0.0699462890625, 0.07279256731271744, -0.05671572685241699, -0.09464570134878159, -0.028705822303891182, 0.14013516902923584, -0.1719488650560379, 0.03780557960271835, 0.059509530663490295, 0.11126427352428436, 0.06684697419404984, 0.11346525698900223, 0.25427117943763733, 0.05616715922951698, -0.010307647287845612, -0.20578475296497345], [-0.30696892738342285, -0.054667770862579346, -0.007578774355351925, 0.04765695333480835, -0.22581546008586884, 0.01767287217080593, 0.07545007020235062, 0.2809019088745117, -0.07220810651779175, 0.12079747021198273, -0.1300232857465744, -0.12973369657993317, 0.04013196378946304, 0.15954826772212982, -0.05243128538131714, -0.1933196485042572, 0.23477013409137726, 0.12268844991922379, 0.05502030625939369, 0.3127330243587494, -0.11852975189685822, -0.13620468974113464, -0.16293010115623474, -0.049849651753902435, -0.15227828919887543, -0.25308316946029663, -0.020015519112348557, -0.19657425582408905], [0.3999324142932892, -0.2793552875518799, 0.07966836541891098, -0.011137226596474648, -0.029129425063729286, -0.03186778351664543, 0.11263036727905273, 0.09209933131933212, 0.1701546460390091, 0.12071820348501205, 0.07799503207206726, 0.17551620304584503, -0.08009645342826843, 0.13504470884799957, 0.08424092829227448, 0.20387932658195496, -0.03845779970288277, -0.04310762882232666, 0.06253331899642944, 0.04909481480717659, 0.013401231728494167, 0.0372491292655468, 0.09545864909887314, -0.0028175257612019777, -0.11608589440584183, -0.0029822704382240772, 0.01669187843799591, -0.24931758642196655], [0.14637020230293274, -0.06857722997665405, -0.1020796149969101, -0.0947510153055191, 0.1696992963552475, -0.0839327797293663, -0.08114717900753021, -0.043508678674697876, 0.012465570122003555, -0.004344940185546875, 0.04261214658617973, -0.08440220355987549, -0.16112345457077026, -0.03450298681855202, -0.017892180010676384, 0.1111544668674469, 0.15081976354122162, 0.04523485153913498, -0.1124228909611702, -0.2039758414030075, -0.0384824275970459, -0.11530888825654984, 0.08195275813341141, 0.05042736604809761, 0.026514464989304543, -0.16295325756072998, -0.004665571264922619, -0.03681414946913719], [0.10257843881845474, -0.1201678141951561, 0.07246687263250351, 0.05920850485563278, -0.07314584404230118, 0.10385153442621231, -0.10186047852039337, -0.18972866237163544, 0.06605786085128784, -0.0735238641500473, 0.10749543458223343, 0.11753952503204346, 0.08185040950775146, 0.02110116370022297, 0.07498885691165924, 0.1480514407157898, -0.04671693593263626, 0.018157800659537315, 0.0254793930798769, 0.1660613715648651, -0.03175843134522438, 0.18056179583072662, 0.07463845610618591, 0.08039505779743195, 0.1850406378507614, 0.01719043403863907, -0.07370216399431229, -0.4132125973701477], [-0.26034125685691833, 0.018099047243595123, -0.008569536730647087, -0.10215796530246735, -0.032352667301893234, -0.0022813905961811543, -0.488317608833313, -0.09366083145141602, -0.10431372374296188, -0.058161742985248566, 0.027073565870523453, -0.03357738256454468, 0.1906423419713974, 0.044533442705869675, -0.017698301002383232, 0.1725802719593048, 0.0635821521282196, -0.010643049143254757, 0.5356568098068237, -0.05281498655676842, 0.053302545100450516, -0.07718820124864578, -0.018613344058394432, -0.012368159368634224, 0.7759836912155151, -0.0011899818200618029, -0.11405186355113983, 0.10531041026115417], [0.4229966402053833, -0.074162557721138, -0.10212574154138565, 0.07523766905069351, -0.09201952069997787, -0.01913376897573471, -0.21995794773101807, -0.0006141450139693916, -0.09696391969919205, -0.16271644830703735, -0.1030646339058876, -0.05579314008355141, 0.05079824849963188, -0.10432448983192444, -0.041185975074768066, 0.05162344127893448, 0.09755554795265198, 0.20442906022071838, 0.029559867456555367, 0.009104317985475063, -0.13829220831394196, -0.12016305327415466, 0.07050898671150208, -0.006368088535964489, 0.08344405889511108, 0.021323412656784058, 0.07111512124538422, -0.07597200572490692], [-0.012866501696407795, 0.2608877420425415, -0.10074777901172638, 0.04011191055178642, 0.18091844022274017, 0.008334971964359283, -0.22622881829738617, 0.05784620717167854, 0.09522700309753418, 0.20928966999053955, 0.031294360756874084, 0.0727066919207573, 0.17306843400001526, 0.05278106778860092, -0.021740322932600975, -0.02952730283141136, 0.019297679886221886, -0.015031644143164158, -0.030362920835614204, 0.15118302404880524, -0.1213197335600853, 0.026824697852134705, -0.3156633675098419, 0.0387415885925293, -0.07024945318698883, 0.008152779191732407, 0.016108930110931396, -0.07969944924116135], [0.15635406970977783, 0.06957155466079712, -0.15631885826587677, -0.1629694551229477, -0.1849839687347412, -0.08770015835762024, 0.10925948619842529, -0.09928598254919052, 0.03643918037414551, -0.0008667260408401489, 0.16097737848758698, -0.06398763507604599, -0.30087992548942566, 0.07756388187408447, -0.06531920284032822, 0.15415523946285248, -0.0353914350271225, 0.019485389813780785, -0.25471022725105286, -0.007836392149329185, 0.05817151442170143, -0.12442901730537415, -0.018077587708830833, -0.01839069463312626, -0.3908519148826599, 0.10899967700242996, 0.15083765983581543, 0.19242683053016663], [0.21452303230762482, 0.11363052576780319, 0.13486693799495697, -0.08588851988315582, -0.09541496634483337, -0.1306343376636505, -0.14786840975284576, 0.02012898586690426, 0.04467438906431198, 0.050916265696287155, -0.13323530554771423, -0.030719172209501266, 0.1154528558254242, 0.23807302117347717, -0.11562938988208771, -0.009904838167130947, 0.05913206934928894, 0.10178472846746445, -0.03411628678441048, 0.1020226776599884, -0.02925916388630867, 0.09263388067483902, -0.28789302706718445, 0.01417559664696455, -0.14502838253974915, -0.007770123891532421, -0.028055105358362198, -0.012559380382299423], [-0.4269164502620697, 0.13341325521469116, 0.1190449595451355, -0.1303684115409851, -0.018095090985298157, -0.11426147818565369, -0.04146011918783188, 0.07219390571117401, -0.05239067226648331, 0.03650480881333351, -0.054187070578336716, 0.0924941673874855, 0.03848865255713463, 0.011861611157655716, -0.01018784660845995, 0.07584664225578308, -0.06163094565272331, -0.11948417127132416, -0.29633548855781555, -0.12578459084033966, 0.16538242995738983, -0.1776634156703949, -0.06148376315832138, -0.029378648847341537, -0.042253527790308, 0.08119643479585648, -0.15562164783477783, 0.16519679129123688], [-0.4538828432559967, 0.06972391158342361, 0.01923544518649578, -0.1376410573720932, 0.09939253330230713, 0.043810684233903885, -0.06631879508495331, -0.14880503714084625, 0.07400648295879364, 0.1352822631597519, 0.03789186850190163, 0.04917464405298233, 0.1023106500506401, 0.08429475873708725, 0.04311021417379379, -0.09565100073814392, -0.0673055648803711, -0.21689417958259583, 0.1818213164806366, -0.0757521241903305, -8.50869037094526e-05, 0.0666273906826973, -0.026878846809267998, 0.06566451489925385, 0.1632695496082306, 0.02736486680805683, 0.11291155964136124, 0.04670529440045357], [0.06409689038991928, -0.15438756346702576, -0.06891970336437225, 0.025686567649245262, -0.0924491435289383, 0.014904731884598732, -0.06732647866010666, 0.14428667724132538, 0.14877979457378387, -0.17704787850379944, 0.15676303207874298, 0.02772866003215313, -0.09182094782590866, 0.18687133491039276, -0.08537018299102783, -0.13174742460250854, -0.048161283135414124, 0.04925697669386864, 0.15946254134178162, -0.08773346990346909, -0.15482403337955475, 0.07903832942247391, -0.016206786036491394, 0.12128671258687973, -0.07192771881818771, 0.0892152264714241, -5.387148848967627e-05, -0.2282545417547226], [0.06696820259094238, -0.3060835003852844, -0.008456648327410221, 0.0011966443853452802, 0.15417751669883728, -0.0877980887889862, -0.16749724745750427, 0.00448231678456068, -0.10483508557081223, -0.07436724752187729, 0.1850014477968216, -0.04947666451334953, -0.04829778894782066, 0.1863003373146057, -0.08686652034521103, 0.0015962038887664676, 0.09487738460302353, 0.025799304246902466, -0.05502684786915779, 0.0337064266204834, 0.056793421506881714, -0.10247986018657684, -0.06573519855737686, 0.03676874563097954, -0.1277756541967392, -0.027096912264823914, 0.037663254886865616, -0.3526914119720459], [-0.35034826397895813, 0.07564587146043777, 0.12540076673030853, -0.016039228066802025, 0.06370089203119278, -0.03475187346339226, -0.23166942596435547, 0.07953230291604996, -0.058827560395002365, -0.2042410522699356, 0.08045143634080887, 0.05566280335187912, 0.036995165050029755, -0.15654748678207397, 0.025358276441693306, -0.20531585812568665, 0.19862790405750275, -0.2326560616493225, 0.11830675601959229, -0.09413915127515793, -0.02602248638868332, 0.025562623515725136, -0.10668956488370895, -0.045559126883745193, -0.19534987211227417, 0.029214242473244667, 0.010623638518154621, -0.18057414889335632], [0.017251266166567802, -0.1570073515176773, 0.09928342700004578, 0.22292941808700562, 0.054418448358774185, -0.039293911308050156, -0.13088387250900269, -0.15651746094226837, 0.15991604328155518, -0.04665354639291763, -0.03799108415842056, 0.044758327305316925, 0.15503297746181488, -0.11118785291910172, 0.006569556426256895, -0.15460337698459625, -0.08425382524728775, -0.03433999791741371, -0.003589821048080921, 0.16558346152305603, -0.052499331533908844, -0.04378488287329674, -0.28844153881073, 0.12211067229509354, 0.17786763608455658, 0.2590557038784027, 0.08526764810085297, 0.043962910771369934], [-0.018699519336223602, -0.12729111313819885, -0.06542309373617172, -0.09684929251670837, 0.00856038834899664, 0.04307430610060692, -0.24021489918231964, 0.03331863135099411, 0.049774497747421265, -0.07276208698749542, -0.10937261581420898, 0.09613482654094696, 0.12338405847549438, 0.2268221229314804, -0.004284828435629606, -0.04636387899518013, 0.1384737491607666, -0.013223743997514248, -0.11143108457326889, 0.07302664965391159, -0.06264545768499374, -0.18951816856861115, 0.15279969573020935, 0.04649984464049339, -0.06832587718963623, -0.05203855037689209, -0.04386957734823227, 0.16073201596736908], [-0.39714327454566956, -0.22004157304763794, 0.1481899917125702, 0.1762087047100067, -0.017269527539610863, -0.011505277827382088, -0.02192855067551136, 0.14354848861694336, -0.0336952805519104, -0.08541476726531982, 0.053073637187480927, 0.0676637813448906, 0.07081179320812225, -0.006146059837192297, 0.02528335154056549, -0.08580701798200607, 0.003919614013284445, -0.24498602747917175, -0.11190971732139587, 0.05861572548747063, -0.06706196814775467, -0.1385784149169922, -0.04834863916039467, 0.039333052933216095, 0.03178633749485016, -0.027644161134958267, -0.022050006315112114, -0.03912428021430969], [-0.14226387441158295, 0.13401617109775543, 0.03172079101204872, -0.1639934927225113, -0.03165924549102783, -0.0648384764790535, -0.0719224140048027, 0.15857242047786713, -0.11011882871389389, -0.17983359098434448, 0.05402517318725586, -0.12076616287231445, 0.2191597819328308, 0.03226062282919884, 0.04568399861454964, 0.13794496655464172, -0.10398926585912704, 0.17727623879909515, 0.18140850961208344, -0.03691418468952179, 0.01323755644261837, -0.13885729014873505, 0.035868238657712936, -0.023213477805256844, -0.1469445675611496, 0.08684086054563522, 0.10740354657173157, -0.21043792366981506], [-0.5685823559761047, -0.08777134865522385, -0.017607713118195534, 0.13053026795387268, -0.11502021551132202, -0.022284217178821564, 0.08687532693147659, -0.04695995897054672, -0.1042543351650238, -0.05808490142226219, -0.00816995371133089, 0.05481121316552162, 0.031580884009599686, 0.16247166693210602, 0.04948762059211731, -0.15148909389972687, 0.04060056060552597, -0.18097393214702606, 0.02072654478251934, 0.07356324791908264, 0.052079472690820694, 0.10206392407417297, -0.008214740082621574, -0.041183944791555405, 0.1332579404115677, 0.0023596445098519325, -0.050283703953027725, -0.030049579218029976], [0.09995169937610626, -0.13082116842269897, -0.04008661210536957, 0.06654424965381622, 0.023116013035178185, 0.022056803107261658, 0.060405030846595764, 0.24053587019443512, 0.01627689227461815, 0.059155311435461044, 0.2017296552658081, -0.1632610559463501, -0.15629929304122925, -0.06200210005044937, -0.0896095484495163, 0.07102985680103302, 0.20770029723644257, 0.05397607758641243, -0.1845398098230362, 0.06275781989097595, 0.0848848894238472, -0.06557726114988327, -0.07983069121837616, 0.09971978515386581, -0.06876397877931595, -0.24748896062374115, 0.08665486425161362, 0.02073564939200878], [0.5543879270553589, 0.05707443878054619, -0.09018005430698395, -0.12837521731853485, -0.0040913899429142475, 0.004261673428118229, 0.057613734155893326, -0.010547472164034843, -0.06253325194120407, 0.05196257308125496, 0.08132380992174149, -0.07980320602655411, -0.07207822054624557, 0.010080507025122643, -0.07798206061124802, -0.12838433682918549, 0.1356590837240219, 0.15020735561847687, -0.09489833563566208, -0.06074367091059685, 0.12319602817296982, -0.035583049058914185, -0.1115124449133873, 0.07120758295059204, -0.10433292388916016, 0.08502058684825897, -0.09585320204496384, -0.18215122818946838], [-0.41198185086250305, -0.2211402952671051, -0.06264980882406235, 0.3199456036090851, -0.07529080659151077, -0.0995115265250206, 0.020734751597046852, -0.14548081159591675, -0.04233628883957863, 0.14032992720603943, -0.14845646917819977, 0.04718098044395447, 0.03298713639378548, -0.039931487292051315, -0.05293731018900871, 0.03349487483501434, 0.08820222318172455, -0.16019052267074585, -0.16989611089229584, -0.0848103016614914, 0.08472505956888199, 0.05387059971690178, 0.11326488107442856, 0.004892896395176649, 0.03219970315694809, 0.04416498914361, 0.06689955294132233, -0.06359408050775528], [0.10774050652980804, -0.11182189732789993, -0.033373985439538956, 0.07353033125400543, 0.04881501570343971, 0.11675424128770828, -0.28267163038253784, -0.07161775231361389, -0.045328184962272644, 0.33605095744132996, -0.10417180508375168, -0.09607906639575958, -0.0911162719130516, -0.04662160575389862, 0.01611155830323696, 0.07859299331903458, 0.1688571572303772, 0.01724250800907612, 0.13204661011695862, -0.16010630130767822, -0.15140767395496368, -0.11743735522031784, 0.3658469319343567, -0.022127991542220116, 0.25558629631996155, -0.010461168363690376, 0.038049764931201935, 0.025446128100156784], [0.3389088213443756, 0.007355079986155033, 0.039045996963977814, 0.10638602823019028, -0.07600666582584381, 0.08775346726179123, 0.014124407432973385, -0.10166555643081665, -0.19185462594032288, -0.11337543278932571, 0.2147834599018097, -0.1364542543888092, 0.14726068079471588, -0.08717022836208344, -0.038333430886268616, 0.11154362559318542, -0.07032204419374466, 0.05370577797293663, -0.14147287607192993, -0.04141416400671005, -0.14123988151550293, -0.13036447763442993, -0.03684171289205551, 0.015134433284401894, -0.11422701179981232, -0.003851428162306547, -0.07046659290790558, -0.04836183786392212], [0.24835295975208282, 0.09468072652816772, -0.10968782007694244, -0.1389860361814499, 0.03370528668165207, 0.08612743020057678, -0.27828243374824524, 0.04795221611857414, 0.15697194635868073, 0.16216379404067993, -0.08817525953054428, 0.01747872307896614, 0.1741931289434433, -0.08759383857250214, 0.05628351867198944, 0.16589507460594177, -0.046374570578336716, 0.14033913612365723, 0.24458369612693787, 0.020248515531420708, 0.06991162151098251, -0.001399243134073913, -0.04872431606054306, -0.009982406161725521, 0.41956761479377747, 0.029820511117577553, -0.07014363259077072, -0.15826734900474548], [-0.007231324911117554, 0.1703173816204071, -0.061733875423669815, 0.004235018976032734, 0.2216072827577591, -0.025758616626262665, -0.012485533952713013, -0.21096032857894897, 0.05545611307024956, 0.08209831267595291, -0.2209506630897522, -0.08786047250032425, -0.007287847809493542, 0.08237916231155396, 0.00581524521112442, -0.13944537937641144, -0.05113188177347183, 0.14501728117465973, 0.08220018446445465, -0.353889524936676, -0.1717730164527893, -0.06682001799345016, 0.43543294072151184, -0.14379754662513733, -0.26284366846084595, -0.3074357807636261, 0.035031650215387344, 0.016390642151236534], [-0.4745956063270569, -0.08721136301755905, -0.007740185596048832, 0.22596141695976257, -0.2581057548522949, -0.014754869975149632, 0.28548043966293335, 0.228932723402977, -0.08665412664413452, -0.12095227837562561, 0.001051157247275114, 0.04067320004105568, -0.13748636841773987, -0.04017237201333046, 0.028035860508680344, -0.106868676841259, -0.04607313126325607, -0.1265161782503128, -0.08333266526460648, 0.01624191366136074, 0.07981252670288086, -0.12255941331386566, -0.003415305633097887, -0.02555650845170021, 0.00010793064575409517, 0.1375485360622406, -0.07463464140892029, 0.023760024458169937], [-0.4309224784374237, -0.030363989993929863, 0.06282364577054977, 0.05650944262742996, -0.22999627888202667, 0.05954672768712044, -0.10972827672958374, 0.06728418916463852, -0.03531971573829651, 0.21612559258937836, 0.22513052821159363, 0.152423694729805, -0.056771207600831985, 0.13108614087104797, 0.08224053680896759, -0.06658031046390533, -0.1565612256526947, -0.13873104751110077, -0.25151073932647705, 0.2530652582645416, 0.16093750298023224, 0.08671075850725174, 0.045546308159828186, 0.09804204106330872, 0.15862292051315308, 0.08229359239339828, -0.12480109930038452, -0.055489152669906616], [-0.15221312642097473, 0.037030186504125595, 0.06204936280846596, -0.10837545245885849, 0.09100019931793213, -0.07696425169706345, -0.2297668308019638, -0.026586009189486504, -0.09529171139001846, 0.07174260914325714, -0.08849044889211655, -0.030254632234573364, 0.10174853354692459, -0.22063493728637695, 0.027872979640960693, 0.1654287427663803, -0.0875881165266037, 0.035908669233322144, 0.1887541562318802, 0.1447117030620575, -0.06816408783197403, -0.20658031105995178, 0.12145137041807175, -0.16853438317775726, -0.1669226735830307, 0.016194194555282593, -0.1087019294500351, -0.21351933479309082], [-0.5296716094017029, -0.13730089366436005, -0.059286460280418396, 0.30013930797576904, -0.20998552441596985, 0.015139349736273289, 0.04890876263380051, 0.003801829181611538, -0.03157719597220421, 0.009100852534174919, -0.08118528127670288, 0.012240915559232235, 0.040147311985492706, 0.0330079048871994, 0.0377345010638237, 0.10077308863401413, 0.056551750749349594, -0.12751993536949158, 0.042817890644073486, 0.002627395559102297, 0.17403998970985413, -0.06059673801064491, 0.058726463466882706, 0.06664019823074341, 0.010109329596161842, -0.02808959223330021, 0.0444185845553875, 0.015600592829287052], [-0.4534139633178711, 0.07036563754081726, 0.2276272177696228, 0.023879438638687134, -0.059874918311834335, 0.07173606008291245, -0.12301868945360184, -0.22254393994808197, -0.008103912696242332, 0.20248638093471527, 0.040625013411045074, 0.004738588351756334, 0.11530766636133194, -0.023584075272083282, -0.06245797872543335, 0.11010992527008057, 0.30893972516059875, -0.03386247530579567, -0.11043941974639893, 0.32735976576805115, -0.04422839358448982, -0.08975961804389954, -0.2860242426395416, 0.15985645353794098, -0.12985441088676453, 0.000533296843059361, -0.16057197749614716, 0.02603146806359291], [-0.13993488252162933, -0.1423872858285904, 0.23630180954933167, 0.0726868063211441, -0.1710260659456253, -0.03343223035335541, 0.05080389603972435, 0.050218045711517334, 0.09796509146690369, -0.003805869957432151, 0.049706701189279556, 0.10927318036556244, 0.27399808168411255, 0.09684372693300247, 0.028103942051529884, -0.10761820524930954, -0.12342363595962524, 0.03156182914972305, -0.09217985719442368, 0.0403800830245018, 0.030975667759776115, -0.00924081914126873, -0.10617691278457642, -0.03959457203745842, -0.12130552530288696, 0.25106361508369446, -0.13902461528778076, -0.5451728105545044], [-0.29259246587753296, -0.06274373829364777, -0.011590485461056232, 0.1036212220788002, -0.031138131394982338, 0.16433851420879364, 0.15718290209770203, 0.37943777441978455, -0.033443063497543335, -0.09857487678527832, 0.09586086869239807, -0.10507018864154816, -0.09723757952451706, 0.1891903430223465, -0.008416373282670975, -0.29474014043807983, 0.3701719045639038, 0.02163068763911724, -0.10857599973678589, -0.2039235681295395, -0.0776180624961853, -0.3135484755039215, 0.2197573035955429, 0.10297416895627975, 0.06347112357616425, -0.12185356020927429, 0.006059738341718912, -0.05089028179645538], [0.3721015453338623, -0.08055038005113602, -0.012123672291636467, -0.025269078090786934, 0.07194113731384277, 0.09383738040924072, -0.0971110463142395, 0.03223997727036476, -0.02231227047741413, 0.04799245670437813, -0.18907630443572998, 0.08981171250343323, -0.07644423842430115, 0.1231485903263092, 0.011114859953522682, -0.11056723445653915, 0.04886588081717491, -0.061330631375312805, -0.008477600291371346, -0.17495983839035034, 0.03950070962309837, -0.04736867919564247, 0.17302823066711426, 0.15651071071624756, -0.07438500225543976, -0.019111325964331627, -0.03650202229619026, 0.05637100338935852], [-0.2005985677242279, -0.095834881067276, -0.05264303833246231, 0.23047813773155212, 0.13769522309303284, 0.08298597484827042, -0.11043880879878998, 0.08599086850881577, -0.1247357726097107, 0.03390815481543541, 0.09926748275756836, 0.0609310157597065, -0.010265263728797436, -0.16997961699962616, -0.07643085718154907, 0.10680508613586426, -0.05501168221235275, -0.044432468712329865, 0.045042168349027634, -0.14637066423892975, -0.1073586642742157, -0.1692749708890915, 0.001719524385407567, 0.1353757381439209, -0.03508157655596733, 0.15793366730213165, 0.08141431957483292, -0.07132641971111298], [-0.40647029876708984, -0.31056123971939087, 0.08626039326190948, 0.12659086287021637, -0.09265617281198502, 0.06514091044664383, 0.03773823007941246, 0.07474305480718613, -0.0463106743991375, 0.06965910643339157, -0.005627098493278027, 0.06997174769639969, -0.027359405532479286, 0.07640798389911652, 0.022053224965929985, -0.11287577450275421, -0.09617745876312256, -0.18295343220233917, 0.04019494727253914, -0.05734993889927864, -0.02114882692694664, 0.030192159116268158, -0.012529822066426277, 0.06661820411682129, 0.10597790777683258, 0.0734337791800499, -0.05707801133394241, -0.08152337372303009], [-0.3606506288051605, -0.2376270890235901, 0.009407231584191322, 0.23989003896713257, 0.12166821211576462, 0.07669554650783539, 0.16766302287578583, 0.09189537167549133, -0.02212465927004814, 0.04899571090936661, 0.041543181985616684, -0.05794752016663551, -0.07343794405460358, -0.07082223147153854, -0.017607714980840683, 0.07861290127038956, 0.08165868371725082, -0.08501696586608887, -0.1859363317489624, 0.206550732254982, 0.007719149347394705, -0.06992442160844803, -0.1868261992931366, 0.09896549582481384, -0.036871571093797684, -0.20360371470451355, 5.795290053356439e-05, 0.047319743782281876], [-0.09420827031135559, -0.05475587025284767, 0.03968239575624466, 0.32428085803985596, 0.1041366457939148, 0.03217870369553566, -0.1605222076177597, 0.16772939264774323, 0.04381991922855377, -0.15082034468650818, 0.26449114084243774, -0.1713056117296219, -0.2128257155418396, 0.002602340653538704, -0.028743181377649307, -0.1073920875787735, -0.2359429895877838, 0.047697652131319046, 0.06740272790193558, -0.05667862296104431, -0.026960376650094986, -0.016428669914603233, 0.045065492391586304, -0.08594762533903122, -0.14045116305351257, 0.0365288108587265, 0.046961408108472824, 0.060693129897117615], [0.15898853540420532, 0.06146177649497986, -0.009196490049362183, 0.16263991594314575, -0.014002921059727669, -0.1039213016629219, -0.038240671157836914, 0.18371586501598358, 0.020824739709496498, 0.16228900849819183, -0.0069535658694803715, 0.12067358940839767, 0.14825130999088287, -0.1687527596950531, 0.045917198061943054, 0.019203785806894302, 0.2290019392967224, 0.08321011066436768, 0.05187365412712097, 0.08697762340307236, -0.019873550161719322, 0.03776786848902702, 0.18055523931980133, -0.1423765867948532, 0.006647639442235231, 1.1979549526586197e-05, -0.031707294285297394, -0.28883540630340576], [0.19771385192871094, -0.1190355122089386, 0.022850848734378815, 0.10001954436302185, -0.17056776583194733, 0.0993584617972374, -0.09235702455043793, -0.002832511905580759, 0.12179281562566757, -0.09276541322469711, 0.1477014720439911, -0.12328077107667923, 0.1195625588297844, -0.042605191469192505, -0.06478048861026764, 0.1528971642255783, 0.06824593245983124, 0.09696122258901596, 0.12353117018938065, -0.0639055147767067, 0.06345234811306, -0.01462951023131609, -0.01163796428591013, -0.08455756306648254, 0.17332398891448975, 0.04881824180483818, 0.040457602590322495, -0.06630690395832062], [-0.48135820031166077, -0.12257678061723709, 0.016965482383966446, 0.13374386727809906, -0.1176866888999939, -0.06679287552833557, 0.1649496704339981, 0.08512575924396515, -0.008288701996207237, 0.04170108959078789, -0.05813990905880928, 0.06468326598405838, 0.09612500667572021, -0.1327734738588333, 0.10946197807788849, 0.0869050845503807, 0.029179157689213753, -0.25017550587654114, 0.03572573512792587, -0.05241771042346954, 0.1368706226348877, -0.0009790874319151044, 0.00457849120721221, -0.21411682665348053, 0.061798419803380966, 0.025783447548747063, 0.04439903795719147, -0.021196136251091957], [0.14290209114551544, 0.08500362187623978, 0.1045033410191536, 0.16751566529273987, -0.0977318286895752, -0.03525283560156822, -0.139928936958313, -0.04674734175205231, 0.17166350781917572, -0.07931853830814362, 0.09652428328990936, 0.047532856464385986, 0.31844213604927063, 0.18888849020004272, -0.05093492195010185, -0.16605670750141144, -0.1688540279865265, 0.10542351752519608, 0.12087900936603546, -0.16117921471595764, -0.008988304063677788, 0.21782071888446808, 0.03800251707434654, 0.02551117353141308, 0.18083065748214722, -0.10772592574357986, 0.007053075823932886, -0.16017869114875793], [0.245043084025383, -0.12320389598608017, -0.02895500138401985, -0.15791834890842438, 0.04763706028461456, 0.032600995153188705, -0.24155837297439575, 0.09254103153944016, 0.1475042998790741, -0.1943558007478714, 0.058764129877090454, 0.08983684331178665, 0.7432833909988403, 0.014651155099272728, 0.013646088540554047, -0.0451681911945343, 0.05058383569121361, 0.11864036321640015, 0.15654785931110382, 0.08918105810880661, 0.1253688633441925, -0.10747671127319336, 0.006681786850094795, 0.11942495405673981, 0.7192284464836121, 0.042942799627780914, 0.004179843235760927, -0.06435716152191162], [0.07953700423240662, -0.15460167825222015, 0.09951178729534149, 0.027762413024902344, -0.012158391997218132, 0.021532392129302025, -0.08081930130720139, 0.04659457132220268, 0.11618229746818542, -0.009171787649393082, -0.022059347480535507, 0.009812692180275917, -0.07880401611328125, -0.10437046736478806, -0.00642481679096818, -0.17190183699131012, 0.11163845658302307, 0.08362726122140884, -0.11293276399374008, -0.16389551758766174, -0.11881613731384277, -0.1730484664440155, 0.38530850410461426, 0.030172845348715782, 0.10440991073846817, -0.2767757773399353, 0.054318979382514954, -0.013005110435187817], [-0.129677414894104, 0.11157625168561935, 0.14684775471687317, 0.019346071407198906, 0.06579078733921051, 0.08248023688793182, -0.1363169550895691, -0.05539172887802124, 0.15972110629081726, -0.0217050202190876, 0.08687804639339447, -0.03536438196897507, 0.019130099564790726, 0.0448535718023777, 0.07763584703207016, -0.17728176712989807, 0.10943495482206345, 0.0553242489695549, 0.1384247988462448, 0.08538564294576645, 0.1136494129896164, 0.06315170228481293, -0.1803579330444336, -0.052152082324028015, 0.1430024951696396, 0.02925725094974041, -0.007916281931102276, -0.18768200278282166], [0.0753650963306427, -0.042754463851451874, 0.14621677994728088, 0.1705336719751358, -0.11184471845626831, 0.06292890012264252, 0.041387513279914856, -0.04646620899438858, -0.037648480385541916, 0.32280072569847107, -0.17582780122756958, 0.013238075189292431, 0.042464785277843475, -0.10881002992391586, -0.025843793526291847, -0.004070631694048643, -0.04557675123214722, 0.10401224344968796, -0.0028158738277852535, 0.1025121808052063, -0.13652749359607697, 0.09530884027481079, 0.2989744544029236, 0.01458302978426218, 0.23908378183841705, -0.2209906131029129, -0.16924147307872772, 0.18353153765201569], [0.3297397494316101, 0.10205212980508804, -0.09581552445888519, -0.01620025932788849, -0.054815515875816345, -0.008150719106197357, 0.02937968261539936, -0.06762149184942245, -0.01809152401983738, 0.019488781690597534, 0.14951367676258087, -0.0921473354101181, 0.1467454880475998, -0.1477338671684265, -0.05684927478432655, -0.21880567073822021, 0.08705536276102066, 0.01627066358923912, 0.13532303273677826, -0.07742660492658615, 0.09037694334983826, -0.08787579834461212, -0.020901774987578392, 0.0693865492939949, 0.11978058516979218, -0.1438930481672287, 0.04267848655581474, 0.08265408128499985], [0.15533660352230072, -0.060468025505542755, -0.0449705608189106, 0.08356191217899323, -0.17142751812934875, 0.09449876844882965, 0.15670301020145416, 0.07402493804693222, -0.0017451000167056918, -0.08068567514419556, 0.05198959633708, 0.09260112047195435, -0.0910269096493721, -0.14608381688594818, -0.007491705939173698, -0.03436607867479324, -0.12909838557243347, -0.07999517023563385, -0.028650812804698944, 0.026498235762119293, 0.015186633914709091, 0.08364538103342056, -0.10466849058866501, -0.08318877220153809, 0.028487345203757286, 0.019914161413908005, -0.12998364865779877, 0.08110611140727997], [-0.33220183849334717, 0.2891389727592468, -0.01243109442293644, -0.3187257945537567, -0.0669611394405365, 0.047458548098802567, -0.35305944085121155, -0.06367228180170059, 0.01782253384590149, -0.1879250407218933, 0.15096522867679596, -0.010470532812178135, 0.2160687893629074, 0.2207360714673996, 0.014891981147229671, -0.17136850953102112, -0.11637073755264282, 0.02215474098920822, -0.06917840987443924, 0.08626329153776169, -0.010435485281050205, 0.10904092341661453, -0.1503867655992508, 0.03451447933912277, 0.09012172371149063, -0.015648143365979195, 0.02100868709385395, -0.14803053438663483], [0.40524983406066895, 0.10960016399621964, -0.0072537935338914394, 0.22503934800624847, -0.1940363496541977, 0.04063913971185684, -0.0832311287522316, -0.1815328150987625, -0.016273245215415955, -0.05943360924720764, -0.07654006779193878, -0.1376500278711319, -0.1910652220249176, 0.03821677714586258, -0.05927031487226486, -0.24008914828300476, 0.04056265205144882, 0.04904898628592491, 0.16293562948703766, 0.24842306971549988, -0.14176815748214722, -0.21169351041316986, -0.15355555713176727, -0.0002289243129780516, 0.13735362887382507, -0.06810756772756577, 0.04871070384979248, 0.11701833456754684], [-0.3695008456707001, -0.19020232558250427, 0.13200713694095612, 0.14104685187339783, -0.36959928274154663, -0.04789497330784798, 0.12397102266550064, 0.09731927514076233, 0.08151910454034805, 0.08796378970146179, 0.000673757225740701, 0.1246735230088234, 0.2180943638086319, -0.058427829295396805, -0.009614023379981518, -0.12344720959663391, -0.011797306127846241, 0.01857517845928669, 0.14986078441143036, -0.03611581772565842, 0.08139573037624359, 0.026887912303209305, 0.15075574815273285, 0.10750136524438858, 0.0967724472284317, -0.10702075064182281, -0.07583325356245041, 0.2310032695531845], [-0.3503212630748749, 0.018782606348395348, 0.2082735151052475, 0.11280423402786255, -0.1544182449579239, -0.14294655621051788, 0.15301038324832916, 0.2048841267824173, -0.06139049306511879, -0.14822794497013092, -0.2151479572057724, 0.02239229902625084, 0.17264848947525024, 0.07585923373699188, -0.0802094042301178, -0.11503882706165314, 0.13065029680728912, 0.010657855309545994, -0.10888126492500305, -0.07357243448495865, -0.030346952378749847, -0.04190806671977043, -0.11266577243804932, -0.02904927171766758, 0.06444776803255081, -0.0673832818865776, -0.12825420498847961, -0.2177705466747284], [-0.35685479640960693, 0.17864951491355896, -0.05681556463241577, -0.05736863240599632, 0.0040474883280694485, 0.2255890965461731, -0.17226697504520416, 0.23232385516166687, -0.13857297599315643, -0.2981701195240021, -0.07541923224925995, -0.026030108332633972, 0.26674023270606995, -0.0469462014734745, 0.051304880529642105, 0.1719573736190796, 0.010098298080265522, -0.01569628156721592, 0.4256601333618164, 0.1445436179637909, -0.07582282274961472, -0.07348045706748962, -0.10411100834608078, 0.07855077087879181, 0.40034884214401245, -0.022808216512203217, -0.11711807548999786, -0.1059124767780304], [0.11719059944152832, 0.19065669178962708, -0.040045011788606644, -0.023758241906762123, 0.19685937464237213, 0.1171874850988388, -0.18437045812606812, 0.09064929187297821, 0.06408068537712097, 0.17307628691196442, 0.04445456340909004, -0.1355259120464325, 0.05266754329204559, 0.10672489553689957, 0.06524209678173065, -0.15958203375339508, 0.1662050485610962, -0.03161350637674332, -0.05882095545530319, 0.11062326282262802, -0.0005613781977444887, -0.07898935675621033, 0.1563216894865036, -0.036680255085229874, -0.2728690505027771, -0.03965308889746666, 0.07674901187419891, 0.21977899968624115], [-0.3612508475780487, -0.0007902951329015195, -0.15689125657081604, -0.16388434171676636, 0.005316858645528555, -0.11150671541690826, 0.11028220504522324, -0.16416595876216888, 0.04371022805571556, -0.11764343082904816, -0.10966642946004868, -0.05254977196455002, -0.12317868322134018, 0.021808646619319916, -0.03454696387052536, -0.06886819750070572, -0.1374109387397766, 0.059719305485486984, 0.11601966619491577, 0.03242714703083038, -0.11960744857788086, 0.039801906794309616, -0.03415380418300629, 0.11897385120391846, -0.1688295155763626, -0.008501647971570492, -8.146903564920649e-05, -0.023680951446294785], [-0.2935672402381897, -0.09717773646116257, -0.17860737442970276, -0.15188036859035492, -0.04770045727491379, 0.038175053894519806, 0.06482429057359695, 0.08575931191444397, 0.016297966241836548, -0.12408026307821274, 0.16807958483695984, -0.11127757281064987, -0.22094058990478516, -0.0889536514878273, -0.004640513099730015, -0.06493468582630157, -0.07376916706562042, 0.15736831724643707, -0.18272139132022858, 0.06918580830097198, 0.040509212762117386, 0.1255279779434204, -0.017138581722974777, -0.011002583429217339, -0.4777108132839203, 0.03594537824392319, 0.08501899987459183, -0.07519438862800598], [0.15280665457248688, -0.044062260538339615, -0.03298676386475563, 0.14605914056301117, -0.3151908218860626, 0.0783446803689003, 0.08263211697340012, -0.09065291285514832, 0.05381705239415169, 0.24195587635040283, 0.07726533710956573, 0.028462795540690422, 0.08586867898702621, -0.12883886694908142, -0.047327298671007156, -0.2084929496049881, -0.09275645762681961, 0.13972552120685577, 0.023973850533366203, 0.1081036850810051, 0.028775503858923912, -0.019697682932019234, 0.09358549863100052, 0.021307704970240593, 0.051830559968948364, 0.2076006978750229, -0.047804705798625946, 0.08335071057081223], [0.06673424690961838, -0.1566404104232788, -0.0754217654466629, 0.27099496126174927, -0.11664436757564545, -0.1350182592868805, 0.07458413392305374, -0.05414765700697899, 0.10196813195943832, 0.2073434442281723, 0.1261436492204666, 0.09916568547487259, 0.316672682762146, -0.03243021294474602, 0.0010408929083496332, 0.3052564263343811, 0.015860024839639664, 0.2219507098197937, -0.07318979501724243, 0.031565383076667786, 0.07438041269779205, -0.12264473736286163, -0.021875375881791115, -0.0863146036863327, 0.17839016020298004, -0.0369337722659111, -0.0058160098269581795, -0.5145728588104248], [-0.16129858791828156, 0.0861399918794632, 0.189242884516716, 0.0706571415066719, -0.07700357586145401, 0.08641640096902847, -0.25181421637535095, -0.38251248002052307, -0.07566625624895096, 0.13697540760040283, 0.16559526324272156, 0.03427266329526901, -0.033830706030130386, -0.07882294803857803, -0.041691042482852936, -0.16460268199443817, -0.17668583989143372, 0.11276861280202866, -0.06076016277074814, -0.10913380235433578, -0.14723517000675201, -0.05338913947343826, -0.14366218447685242, -0.03951767459511757, 0.055360935628414154, 0.23773083090782166, -0.09029313921928406, 0.005876185372471809], [-0.27460977435112, -0.0466461181640625, -0.08223623037338257, 0.023083215579390526, 0.03294016420841217, -0.11863570660352707, -0.06493983417749405, 0.25518497824668884, 0.0935790091753006, -0.11073664575815201, 0.009653877466917038, -0.059117913246154785, 0.13425873219966888, -0.08164910227060318, -0.18200136721134186, -0.26861846446990967, -0.1573127657175064, 0.024152038618922234, 0.0482880175113678, 0.16022123396396637, -0.05735244229435921, -0.15263786911964417, -0.14945457875728607, -0.04401220753788948, -0.16588935256004333, 0.1599128544330597, -0.06842338293790817, -0.0367446094751358], [0.3243386447429657, -0.051098261028528214, -0.07550270110368729, -0.0671611875295639, -0.13175804913043976, 0.0016061142086982727, -0.07440369576215744, 0.07561282813549042, 0.012174095958471298, 0.0423596054315567, -0.16058965027332306, -0.036675482988357544, -0.1018359586596489, -0.16142062842845917, -0.0074793198145926, -0.06453071534633636, -0.18039818108081818, 0.10245859622955322, 0.10537392646074295, 0.09246283024549484, 0.0960279330611229, 0.04217659309506416, -0.12620645761489868, 0.012528969906270504, -0.09926579892635345, 0.051933903247117996, -0.02852836437523365, 0.08858662843704224], [0.06963369995355606, -0.12346480041742325, -0.010496256873011589, -0.1825762242078781, 0.02901582047343254, 0.033961087465286255, -0.10570158064365387, -0.20702697336673737, -0.11255045980215073, 0.14992587268352509, -0.1388823390007019, -0.10477689653635025, 0.05381762236356735, 0.150721475481987, -0.07854748517274857, -0.16921466588974, -0.20353738963603973, 0.15002641081809998, 0.030121881514787674, -0.05969814956188202, -0.022872604429721832, 0.04038955643773079, 0.18129727244377136, 0.05407179147005081, 0.3896961510181427, 0.06488959491252899, -0.14230452477931976, -0.030087865889072418], [0.36906614899635315, -0.16718456149101257, -0.06618501991033554, -0.2013474404811859, -0.010735607706010342, -0.12599119544029236, -0.1095954105257988, 0.1119118258357048, 0.06480757147073746, 0.04821585491299629, -0.012136210687458515, -0.11935186386108398, -0.1526135802268982, -0.07249671965837479, -0.15419265627861023, 0.005788519512861967, -0.021596437320113182, 0.21836410462856293, -0.2373443990945816, -0.26922184228897095, 0.14790776371955872, -0.23158131539821625, 0.02838064171373844, 0.03803010657429695, -0.15531158447265625, 0.05563364550471306, -0.026893001049757004, -0.26918211579322815]], "b": [-0.17929665744304657, -0.034529902040958405, 0.0331222303211689, -0.19284774363040924, 0.13291171193122864, -0.12931981682777405, 0.20492194592952728, -0.005370096769183874, 0.12862984836101532, -0.09014884382486343, 0.1192377433180809, -0.1527106612920761, -0.2194194495677948, -0.018293874338269234, -0.0001888369588414207, -0.14537350833415985, -0.14689502120018005, 0.0762951523065567, -0.17259708046913147, 0.2618742287158966, 0.2342391461133957, -0.034597042948007584, 0.06157448887825012, 0.18100595474243164, -0.17858661711215973, 0.026652174070477486, -0.12401235103607178, -0.11081130802631378, 0.07031895220279694, -0.02133740298449993, -0.06890609115362167, 0.0006357679376378655, -0.06332097202539444, 0.06581906974315643, 0.1773570030927658, 0.2284257858991623, 0.0006795760127715766, 0.16380250453948975, -0.057495735585689545, -0.10949006676673889, 0.13222403824329376, -0.21218617260456085, -0.1485435515642166, -0.12752102315425873, -0.16991952061653137, 0.1510452777147293, -0.004509878344833851, 0.12033883482217789, 0.10340604186058044, 0.1472819298505783, 0.008281689137220383, -0.05265995115041733, -0.05723993107676506, -0.062223874032497406, -0.02837875857949257, -0.15968529880046844, 0.09918653219938278, 0.036352407187223434, -0.1774757355451584, 0.1825113296508789, 0.22702965140342712, -0.08431477844715118, 0.07405680418014526, -0.1632508784532547, -0.047060586512088776, 0.15380047261714935, -0.04542326554656029, -0.20328198373317719, 0.058156080543994904, -0.11553782969713211, -0.15346287190914154, -0.16670773923397064, 0.13663287460803986, -0.04607272520661354, 0.15634089708328247, 0.23915334045886993, -0.14270246028900146, 0.008275751024484634, -0.0008919822284951806, 0.08440591394901276, -0.13727346062660217, 0.22579607367515564, -0.03725665807723999, 0.24339692294597626, -0.20853182673454285, -0.07811076939105988, 0.20947235822677612, -0.10256832093000412, -0.06208464875817299, 0.01274819578975439, -0.24008862674236298, 0.07004809379577637, 0.13323144614696503, 0.054951585829257965, 0.29183465242385864, 0.0458248034119606, -0.015383545309305191, -0.08362697809934616, -0.10563728213310242, -0.059443164616823196, 0.20332884788513184, 0.025852268561720848, 0.03938126936554909, 0.03910226374864578, -0.06301528960466385, 0.1449887901544571, -0.09398793429136276, -0.1835961937904358, -0.10171172767877579, -0.0619867742061615, -0.21394199132919312, 0.03408754989504814, -0.11595738679170609, -0.04134835675358772, -0.17282535135746002, -0.05305144563317299, 0.12614040076732635, -0.0362124964594841, -0.16990597546100616, -0.12687449157238007, 0.1392076462507248, -0.0903971791267395, 0.047653403133153915, 0.05593409389257431, -0.13185609877109528, 0.0579879954457283, -0.09602967649698257, 0.1269839107990265]}, {"w": [[-0.06421208381652832, -0.03922666609287262, 0.13575251400470734, -0.05448482930660248, 0.007262200117111206, -0.00612485408782959, 0.02149920165538788, 0.06942180544137955, -0.14280955493450165, -0.0394674614071846, 0.1191166415810585, 0.017031513154506683, 0.005637684836983681, -0.20995572209358215, 0.030174531042575836, -0.019801920279860497, 0.16996367275714874, 0.09804651886224747, -0.041597116738557816, -0.03851965814828873, 0.11319619417190552, -0.19557222723960876, -0.012321358546614647, 0.16398775577545166, -0.15517166256904602, -0.0016088151605799794, -0.00020350517297629267, -0.03320729732513428, 0.08634503930807114, 0.03876509517431259, 0.033541467040777206, -0.05013450235128403, 0.17145667970180511, 0.04362848028540611, -0.0395255871117115, -0.009414481930434704, 0.03323773294687271, 0.03876899182796478, 0.08241890370845795, -0.011312962509691715, 0.1553175151348114, 0.1030847355723381, -0.23393891751766205, 0.03051549755036831, -0.09364131093025208, 0.05354863405227661, -0.12775632739067078, -0.0028445085044950247, -0.07935408502817154, 0.16081205010414124, 0.07164997607469559, -0.0602501817047596, -0.037073902785778046, -0.11134015768766403, 0.0954250767827034, -0.05802762135863304, 0.18633168935775757, -0.03564656525850296, -0.15807059407234192, 0.1325826495885849, -0.05938781425356865, -0.008619261905550957, 0.022005872800946236, 0.0024868235923349857, -0.2001541256904602, 0.14907264709472656, -0.01984310708940029, -0.061143286526203156, -0.12530602514743805, 0.10581453144550323, -0.09358038753271103, 0.05281448736786842, -0.09097198396921158, -0.006468719802796841, 0.16628330945968628, 0.09471336007118225, 0.11973537504673004, 0.09427812695503235, 0.1736728847026825, -0.15316547453403473, 0.0840553343296051, 0.09900858253240585, 0.04015926271677017, 0.030808240175247192, 0.0558704137802124, -0.03495732694864273, -5.021163815399632e-05, -0.012565471231937408, -0.061474114656448364, 0.026180449873209, -0.06359967589378357, 0.05443236976861954, 0.11888778954744339, 0.0016915068263188004, 0.11871154606342316, 0.10603921115398407, -0.06962518393993378, -0.05196506902575493, -0.04206099361181259, -0.07663282006978989, 0.07967254519462585, 0.16049431264400482, 0.15012450516223907, 0.033688899129629135, -0.06518103927373886, 0.0925605446100235, -0.026491623371839523, 0.018675994127988815, 0.0038233904633671045, 0.008722487837076187, -0.0966319888830185, -0.009124940261244774, 0.04091441631317139, 0.008079170249402523, -0.13996946811676025, -0.014220253564417362, -0.08525896817445755, 0.1193390041589737, 0.11025834828615189, 0.11838582903146744, 0.11709392070770264, -0.06946545094251633, -0.01466234028339386, -0.07558747380971909, 0.022076785564422607, -0.04870571941137314, 0.0657670721411705, -0.12921081483364105], [-0.022353561595082283, 0.07567642629146576, -0.08310680091381073, -0.03569044545292854, -0.034730419516563416, -0.1465427428483963, 0.04481157660484314, 0.06630270928144455, 0.06064671277999878, -0.020563026890158653, 0.01951059326529503, -0.04040498659014702, -0.04344451054930687, 0.03414984419941902, 0.1755439043045044, 0.007450935430824757, -0.08946576714515686, 0.02973901480436325, -0.06771790981292725, 0.11130084097385406, -0.13025102019309998, 0.0170889962464571, -0.09954472631216049, 0.03249340504407883, -0.008930540643632412, 0.010988064110279083, -0.08609554916620255, -0.02206924930214882, 0.007866485975682735, -0.07452912628650665, 0.11399462074041367, 0.07842619717121124, 0.02168111875653267, -0.02454422600567341, -0.033532071858644485, 0.026850689202547073, 0.08114051818847656, -0.23434104025363922, -0.1173427402973175, 0.05266778916120529, -0.07461121678352356, -0.02317596971988678, -0.061511747539043427, -0.1605210304260254, -0.04140821099281311, -0.07852041721343994, 0.0014861848903819919, -0.05215267837047577, 0.1374167650938034, -0.07351011782884598, 0.03846149146556854, -0.0594608336687088, 0.09129266440868378, -0.014494537375867367, -0.009556368924677372, -0.05119183659553528, -0.040349330753088, 0.053017862141132355, -0.025950362905859947, 0.008100613951683044, 0.018096299842000008, 0.03919347748160362, -0.0773916244506836, -0.20844659209251404, 0.12657380104064941, 0.015205617994070053, -0.08201787620782852, -0.16172555088996887, -0.015693144872784615, -0.02855510823428631, -0.00260304962284863, -0.024524206295609474, -0.01016501896083355, -0.1592126488685608, 0.007732942700386047, 0.0735270231962204, -0.05257426202297211, -0.009536724537611008, 0.009418783709406853, 0.042493391782045364, 0.03639806807041168, 0.01683814823627472, -0.08966358751058578, -0.0024132223334163427, -0.01355681661516428, 0.0552707314491272, 0.14535179734230042, -0.126128688454628, -0.05261820927262306, 0.01394210197031498, 0.11332541704177856, -0.024326933547854424, 0.07192666083574295, -0.02627183496952057, 0.0014154227683320642, -0.019050387665629387, 0.1071910560131073, -0.07855987548828125, 0.01777883991599083, -0.1333523839712143, -0.08665845543146133, -0.06907004863023758, 5.3009393013780937e-05, 0.07278496026992798, -0.07965989410877228, -0.05448009818792343, -0.0516311377286911, -0.0004572331381496042, -0.08905356377363205, -0.025314563885331154, 0.05723651498556137, -0.016202205792069435, -0.04469572752714157, 0.18236279487609863, -0.041659776121377945, 0.06852279603481293, 0.06430011987686157, -0.026532946154475212, -0.09367024153470993, -0.08690222352743149, -0.12317119538784027, 0.12267397344112396, -0.12336036562919617, 0.02384742721915245, 0.037077076733112335, -0.02855589985847473, 0.060831230133771896, -0.06544794142246246], [-0.013766954652965069, 0.03217584639787674, 0.03418536111712456, 0.10618682950735092, 0.12621554732322693, -0.13312479853630066, 0.08380407840013504, 0.041897956281900406, 0.04719597101211548, -0.07955009490251541, -0.06931334733963013, 0.06518290936946869, -0.06105973944067955, 0.06276467442512512, 0.12011055648326874, 0.05285331606864929, -0.03360557556152344, 0.008311978541314602, -0.0813995823264122, 0.08255428820848465, 0.10245245695114136, -0.008089029230177402, -0.01239424291998148, 0.0034946564119309187, -0.03907576575875282, 0.06822080910205841, -0.06347864866256714, 0.10426103323698044, 0.06458654999732971, 0.00475739361718297, 0.05338788405060768, 0.11395655572414398, 0.12485085427761078, -0.054433733224868774, 0.060281094163656235, 0.06388034671545029, 0.07358189672231674, 0.16788531839847565, -0.06039820984005928, -0.05768600106239319, 0.05635453015565872, 0.03897540643811226, -0.0051133232191205025, -0.04444030672311783, 0.06688487529754639, 0.10523469746112823, 0.0019164582481607795, 0.06276991963386536, 0.023585770279169083, 0.10682767629623413, 0.12996052205562592, 0.04051978513598442, 0.02691851742565632, -0.03685598075389862, 0.04202548786997795, -0.11227553337812424, 0.03446430712938309, 0.060733992606401443, -0.043439339846372604, 0.17484629154205322, 0.13275592029094696, -0.017879396677017212, 0.014830258674919605, -0.10313455760478973, 0.030523445457220078, -0.08879847079515457, 0.03713557496666908, -0.05463571473956108, 0.027693772688508034, 0.2194400578737259, -0.06901019811630249, 0.03329154849052429, -0.09331300854682922, -0.0050856368616223335, 0.10486535727977753, 0.11342715471982956, -0.004549065604805946, 0.01248911488801241, 0.0717308297753334, -0.06224561482667923, -0.0387420691549778, 0.1763542741537094, 0.02967834658920765, 0.040811967104673386, -0.07069183140993118, -0.08386632800102234, 0.06868846714496613, -0.08485588431358337, -0.05998237431049347, -0.021372927352786064, 0.06335490942001343, 0.03525810316205025, 0.12046550959348679, -0.003292884211987257, 0.047779180109500885, 0.10292775928974152, 0.03753649815917015, 0.02366837114095688, 0.02790621854364872, 0.10920995473861694, 0.11560510843992233, 0.08307980000972748, -0.01074797660112381, 0.001463946420699358, 0.04487629607319832, 0.1231209933757782, -0.08102468401193619, -0.04129965975880623, -0.004270839970558882, -0.0025168810971081257, 0.04552992060780525, 0.08245088905096054, -0.046976570039987564, 0.10318636894226074, -0.07018955051898956, 0.06879384815692902, 0.031232407316565514, 0.15007807314395905, 0.10420393198728561, 0.05671323090791702, -0.035635605454444885, -0.16114488244056702, -0.002191258128732443, -0.06547071784734726, -0.04702438414096832, 0.007129970006644726, 0.013096512295305729, -0.09652270376682281], [0.03179803863167763, 0.07016876339912415, -0.09843463450670242, 0.08720854669809341, 0.10025787353515625, -0.07479079812765121, -0.0078013064339756966, 0.07346247136592865, -0.0013372566318139434, 0.028685133904218674, 0.1069255843758583, -0.09096859395503998, -0.17036816477775574, -0.1266080141067505, -0.06969578564167023, -0.061789534986019135, -0.11633621901273727, 0.11613073199987411, -0.048277661204338074, 0.17177627980709076, 0.16483554244041443, 0.03951563686132431, 0.05861040577292442, 0.03708150237798691, 0.03104100376367569, 0.07721501588821411, -0.19287116825580597, 0.12136442959308624, 0.0247003473341465, 0.054927900433540344, -0.06335184723138809, -0.09435439109802246, 0.151765376329422, -0.12754176557064056, 0.015081850811839104, 0.0691966712474823, 0.02241636998951435, 0.021543003618717194, 0.11741138249635696, 0.04803609475493431, 0.09700574725866318, 0.06650740653276443, -0.05039770528674126, 0.03144397214055061, 0.12047626078128815, 0.10953770577907562, -0.046244844794273376, 0.12055782973766327, -0.014440520666539669, 0.10128726065158844, 0.0024935624096542597, 0.08172334730625153, -0.04076045751571655, -0.10488566756248474, -0.023794634267687798, -0.026421228423714638, 0.03284034505486488, 0.06514483690261841, -0.07989504188299179, 0.1585426926612854, 0.05919578671455383, 0.09529004991054535, 0.10185354948043823, -0.11293374747037888, -0.13395336270332336, 0.02013435587286949, -0.050491269677877426, 0.059960782527923584, 0.12478659301996231, 0.21560628712177277, -0.11810775846242905, -0.13420788943767548, -0.050153475254774094, -0.05590793117880821, -0.03665868937969208, 0.08030875772237778, 0.032170649617910385, 0.06123875454068184, 0.03315361961722374, 0.040834203362464905, -0.09218493103981018, 0.1716667264699936, -0.035224732011556625, 0.17538931965827942, 0.028126554563641548, -0.1201753169298172, 0.09544513374567032, 0.034361086785793304, -0.0992320328950882, -0.15534546971321106, 0.055957190692424774, 0.025975516065955162, 0.07978024333715439, -0.05135417729616165, 0.330230176448822, 0.10728287696838379, -0.02285175211727619, 0.05974985286593437, -0.1412789672613144, 0.07622233033180237, 0.1086745411157608, 0.18697123229503632, -0.034294843673706055, -0.03646064177155495, 0.06632700562477112, 0.09772837907075882, -0.07179673761129379, -0.09294809401035309, -0.16970577836036682, 0.02010483667254448, -0.035364195704460144, -0.0929480493068695, 0.0159721951931715, 0.10081274807453156, -0.10005689412355423, -0.029428228735923767, 0.08519858121871948, 0.0224702637642622, -0.05018077418208122, -0.021337756887078285, -0.16589652001857758, 0.02767777629196644, 0.08634926378726959, 0.05341754108667374, -0.04112299904227257, -0.003162254812195897, 0.13354086875915527, -0.15990157425403595], [-0.08352813869714737, 0.10740478336811066, 0.1525513231754303, 0.11353431642055511, 0.15579336881637573, -0.04417739808559418, 0.09820829331874847, 0.14951485395431519, 0.1597874015569687, -0.06211866810917854, -0.020055286586284637, -0.07619540393352509, -0.11341506242752075, -0.09123464673757553, 0.34842395782470703, 0.03224307671189308, 0.0019526781979948282, 0.10494191199541092, -0.07164039462804794, 0.15903151035308838, 0.19618096947669983, -0.04095160961151123, -0.012722519226372242, 0.08784965425729752, 0.020821962505578995, 0.007165350019931793, -0.16223669052124023, 0.09339309483766556, 0.06894022226333618, 0.1264282613992691, 0.0845528095960617, 0.12748944759368896, 0.09585653990507126, -0.07341580837965012, 0.07348406314849854, 0.14038319885730743, 0.052228234708309174, 0.13495300710201263, -0.05101465806365013, 0.04418281838297844, -0.03918397054076195, 0.08096857368946075, 0.007552557624876499, 0.07301173359155655, 0.192580446600914, 0.044968798756599426, 0.16224484145641327, 0.10514792799949646, -0.009119492955505848, 0.005682308226823807, 0.05764466151595116, 0.07243645191192627, 0.0067955506965518, -0.041119176894426346, 0.08258305490016937, -0.09001746028661728, 0.1233268454670906, -0.012601404450833797, -0.08678249269723892, 0.2217216044664383, 0.18480567634105682, 0.06681124866008759, 0.02998162992298603, -0.12649226188659668, -0.14618083834648132, 0.007731591816991568, -0.11827103048563004, -0.018927207216620445, 0.06367751210927963, 0.16696494817733765, -0.12843981385231018, -9.109154780162498e-05, -0.1152338758111, 0.011956642381846905, 0.16047710180282593, 0.18482699990272522, -0.05548661947250366, -0.009662956930696964, 0.1482778787612915, 0.018308257684111595, 0.011540108360350132, 0.20333324372768402, 0.10990367829799652, 0.1825101375579834, -0.06943682581186295, -0.08238834142684937, 0.16841787099838257, 0.06803026050329208, 0.02355048432946205, -0.009202036075294018, 0.02158210054039955, 0.10156117379665375, 0.0186509657651186, 0.01434209942817688, 0.10945016145706177, 0.1804400384426117, 0.025891395285725594, 0.11904498189687729, -0.023528477177023888, 0.08928724378347397, 0.08281464874744415, 0.09457294642925262, 0.14288944005966187, -0.013788728043437004, -0.056376975029706955, 0.08452535420656204, -0.1001337319612503, -0.08274409919977188, -0.1063058152794838, 0.02259129472076893, 0.08785675466060638, 0.046727340668439865, -0.05652438476681709, 0.08038520812988281, -0.09662628173828125, 0.11678709089756012, 0.16664567589759827, 0.21321438252925873, 0.03647143766283989, 0.06958462297916412, -0.07569301128387451, -0.11651214212179184, -0.02134661003947258, 0.05604816600680351, 0.07947193086147308, -0.027727218344807625, -0.1024794951081276, -0.09140707552433014], [-0.02713329903781414, -0.04277847334742546, 0.05830109491944313, 0.027050217613577843, 0.03256937488913536, -0.08939871191978455, 0.016620876267552376, -0.07832267135381699, 0.050282977521419525, -0.2517344653606415, -0.009600873105227947, 0.02935626171529293, -0.2369660884141922, -0.043865203857421875, 0.05856078118085861, 0.038639944046735764, -0.00015714809705968946, 0.02928021363914013, -0.13707734644412994, -0.11040402203798294, -0.0090186083689332, -0.08276021480560303, 0.05542666092514992, -0.07879055291414261, 0.10618075728416443, 0.08227522671222687, -0.020656665787100792, 0.003266124054789543, -0.07434321194887161, -0.0166824609041214, 0.036472465842962265, 0.09333765506744385, -0.2680262625217438, -0.19090911746025085, -0.11354563385248184, 0.04977765306830406, -0.15576651692390442, -0.15374064445495605, -0.07637611031532288, 0.06566768884658813, -0.11675361543893814, 0.0007437898893840611, 0.06592195481061935, -0.15284912288188934, 0.09717213362455368, -0.032106850296258926, -0.017394250258803368, -0.099787637591362, 0.0494159571826458, 0.025753891095519066, 0.10863009095191956, 0.04856978356838226, -0.015231093391776085, 0.06375438719987869, -0.007130211219191551, 0.008329955860972404, -0.04721955209970474, -0.07308385521173477, 0.045766521245241165, 0.017923183739185333, 0.027342233806848526, 0.023499270901083946, -0.005113859195262194, -0.1109388992190361, 0.14329533278942108, -0.16662871837615967, 0.00285629671998322, -0.13306087255477905, 0.011408433318138123, 0.029243532568216324, -0.08989052474498749, -0.03392744064331055, -0.03602425381541252, -0.16080965101718903, -0.13256222009658813, 0.08865834027528763, -0.058890122920274734, 0.046367306262254715, -0.038159437477588654, 0.14137327671051025, 0.08643288910388947, -0.0009001276921480894, 0.10877203941345215, -0.028519948944449425, -0.015048371627926826, 0.017488516867160797, 0.061786916106939316, -0.030259648337960243, 0.04332926869392395, 0.05864173173904419, 0.26379653811454773, 0.05768142640590668, -0.012391801923513412, -0.008150268346071243, -0.13943521678447723, -0.08087985217571259, -0.011536321602761745, 0.02384103275835514, 0.0988020971417427, -0.04055952653288841, -0.13006353378295898, -0.04052448645234108, -0.05580708384513855, 0.09195247292518616, 0.054168663918972015, 0.09086598455905914, 0.09246471524238586, 0.16733913123607635, -0.3227030336856842, -0.08513952791690826, 0.003552931360900402, -0.02322539873421192, -0.03488997370004654, -0.16106469929218292, -0.08984094113111496, -0.025240600109100342, 0.05528675764799118, -0.04645916447043419, 0.03413822129368782, -0.036573782563209534, -0.13738705217838287, 0.08257628232240677, 0.05040330812335014, -0.0464942529797554, 0.1119505763053894, -0.06983496993780136, 0.04490462690591812, 0.04448012635111809], [0.019489983096718788, -0.10395202040672302, -0.13740327954292297, 0.032917242497205734, -0.2805810868740082, 0.01118339505046606, -0.004850848577916622, -0.024236662313342094, -0.00816856324672699, -0.5317087173461914, -0.06473079323768616, 0.40122050046920776, 0.11840993911027908, -0.009142027236521244, 0.06923539936542511, 0.0929323062300682, 0.12216628342866898, 0.0002876708167605102, 0.12429261207580566, -0.043564435094594955, 0.05492185801267624, 0.0028012599796056747, -0.0888720378279686, 0.01509496383368969, -0.14131571352481842, -0.06511321663856506, 0.13851352035999298, 0.1941320300102234, 0.1314159631729126, -0.04259870946407318, -0.0007495955214835703, -0.06412402540445328, 0.03665953502058983, -0.01865997165441513, -0.036890026181936264, 0.035276882350444794, -0.01169994194060564, -0.03305567055940628, 0.17097590863704681, 0.044313061982393265, -0.23364728689193726, -0.30052661895751953, -0.0946037545800209, 0.14895953238010406, -0.01879124529659748, 0.09927905350923538, -0.07077248394489288, 0.10027781128883362, -0.11562979221343994, 0.16428232192993164, -0.13544335961341858, -0.01662510447204113, 0.06751555949449539, 0.08359024673700333, 0.042427174746990204, -0.45802056789398193, 0.0237866397947073, 0.17022348940372467, -0.11237981915473938, -0.10264591872692108, -0.07100905478000641, -0.13816995918750763, -0.07424313575029373, -0.12112463265657425, -0.07767006009817123, 0.057534705847501755, -0.14389671385288239, -0.0035853309091180563, -0.0391710102558136, -0.3509269952774048, -0.09827349334955215, 0.029716122895479202, 0.12936943769454956, -0.08018236607313156, 0.134668231010437, -0.1722017079591751, -0.1613619029521942, -0.09162183105945587, 0.11297476291656494, -0.008061450906097889, -0.1596592217683792, -0.16298580169677734, 0.09418239444494247, -0.019161490723490715, 0.0169959906488657, -0.06531191617250443, 0.05601194500923157, 0.20346958935260773, -0.07527727633714676, -0.2490019053220749, 0.015046969056129456, 0.12538647651672363, 0.07208743691444397, -0.14946438372135162, 0.13655434548854828, 0.0222649984061718, -0.18900683522224426, -0.18481820821762085, 0.025765525177121162, 0.03769589588046074, -0.17981182038784027, -0.14623315632343292, -0.08530116826295853, 0.012439337559044361, -0.0755644142627716, 0.07364483922719955, -0.3862958252429962, -0.1443260759115219, 0.02823076769709587, 0.008108633570373058, 0.13073362410068512, -0.08040013164281845, 0.04916061833500862, 0.0678020790219307, 0.17742864787578583, 0.004809856414794922, -0.15832245349884033, -0.043229345232248306, -0.18423785269260406, -0.02116568572819233, 0.16759690642356873, -0.20623452961444855, -0.11273869127035141, 0.14694850146770477, -0.025681154802441597, 0.006121185142546892, -0.18918314576148987, -0.04514755681157112], [-0.03794096037745476, -0.005929092410951853, 0.0966031402349472, 0.0425599105656147, 0.06367765367031097, 0.025007586926221848, -0.042990442365407944, -0.07419444620609283, 0.05464346706867218, 0.006034401245415211, -0.007706179283559322, 0.010689379647374153, 0.08495942503213882, -0.036742351949214935, -0.04468522593379021, 